{"learner":{"attributes":{"scikit_learn":"{\"_estimator_type\": \"regressor\"}"},"feature_names":["temperature_2m_mean","precipitation_sum","wind_speed_10m_max","wind_direction_10m_dominant"],"feature_types":["float","float","float","float"],"gradient_booster":{"model":{"gbtree_model_param":{"num_parallel_tree":"1","num_trees":"100"},"iteration_indptr":[0,1,2,3,4,5,6,7,8,9,10,11,12,13,14,15,16,17,18,19,20,21,22,23,24,25,26,27,28,29,30,31,32,33,34,35,36,37,38,39,40,41,42,43,44,45,46,47,48,49,50,51,52,53,54,55,56,57,58,59,60,61,62,63,64,65,66,67,68,69,70,71,72,73,74,75,76,77,78,79,80,81,82,83,84,85,86,87,88,89,90,91,92,93,94,95,96,97,98,99,100],"tree_info":[0,0,0,0,0,0,0,0,0,0,0,0,0,0,0,0,0,0,0,0,0,0,0,0,0,0,0,0,0,0,0,0,0,0,0,0,0,0,0,0,0,0,0,0,0,0,0,0,0,0,0,0,0,0,0,0,0,0,0,0,0,0,0,0,0,0,0,0,0,0,0,0,0,0,0,0,0,0,0,0,0,0,0,0,0,0,0,0,0,0,0,0,0,0,0,0,0,0,0,0],"trees":[{"base_weights":[6.634256E-7,1.0690549E1,-7.0795183E0,2.4663073E1,8.673828E-1,-3.3839576E0,-1.7057293E1,2.8088848E1,4.552915E0,6.9968576E0,-1.4805593E1,-1.6384692E0,-9.658699E0,-1.8976767E1,-1.015115E1,3.6104527E1,2.2238422E1,7.3348885E0,-8.41767E0,1.3276913E1,-7.7686703E-1,4.5823298E0,-1.6105698E1,8.012551E0,-3.2979681E0,-1.1894952E1,1.3722094E0,-1.7898327E1,-2.2123934E1,-1.1800047E1,1.0111284E0,3.9025707E1,1.4594992E1,2.7287304E1,8.071168E0,1.1262082E1,1.7832501E-1,9.0190774E-1,-3.2468207E0,2.1168571E1,1.0838289E1,1.0708094E1,-8.422249E0,3.4230525E0,-8.324855E0,-8.509574E0,-1.8339573E1,9.769679E0,-1.0703384E1,-1.4619466E0,-9.015438E0,-6.7467766E0,-1.5926868E1,-2.0435438E0,8.886128E0,-1.796668E1,-1.1980923E0,-1.4188554E1,-2.3759073E1,-1.5300577E1,-9.745243E0,6.5095387E0,-3.5898254E0,1.1815765E1,1.8019078E0,8.852862E0,1.9033916E0,8.889054E0,5.853657E0,3.941077E0,1.014141E0,3.4612754E-1,4.653543E0,-6.565661E-1,2.4025438E0,6.850108E0,2.2830524E0,3.95044E0,-5.6375314E-2,3.9455874E0,-5.4721384E0,-1.435038E0,-4.9535093E0,-4.4809228E-1,-3.2980924E0,-3.7542803E0,2.5230525E0,-4.6635656E0,-7.4063754E0,2.3376493E0,5.603498E0,2.1019077E0,-4.4468207E0,2.1236885E0,-6.883539E-1,-3.4409356E0,1.3408436E-1,-2.559311E0,9.367249E-1,-1.282444E0,-5.106248E0,-1.5966085E0,3.3343393E-1,3.9889848E0,-3.2980924E0,-3.4632752E0,-5.477235E0,-5.129942E0,1.8019078E0,-7.2139444E0,-2.0980923E0,-4.7164392E0,-1.3480923E0,-3.610652E0,-1.5887858E0,6.0190773E-1,2.2025437E0,-2.1721385E0,1.6519078E0],"categories":[],"categories_nodes":[],"categories_segments":[],"categories_sizes":[],"default_left":[0,0,0,0,0,0,0,0,0,0,0,0,0,0,0,0,0,0,0,0,0,0,0,0,0,0,0,0,0,0,0,0,0,0,0,0,0,0,0,0,0,0,0,0,0,0,0,0,0,0,0,0,0,0,0,0,0,0,0,0,0,0,0,0,0,0,0,0,0,0,0,0,0,0,0,0,0,0,0,0,0,0,0,0,0,0,0,0,0,0,0,0,0,0,0,0,0,0,0,0,0,0,0,0,0,0,0,0,0,0,0,0,0,0,0,0,0,0,0],"id":0,"left_children":[1,3,5,7,9,11,13,15,17,19,21,23,25,27,29,31,33,35,37,39,41,43,45,47,49,51,53,55,57,59,61,63,65,67,69,71,73,-1,-1,75,77,79,81,-1,83,85,87,89,91,93,95,97,99,101,103,105,-1,107,109,111,113,115,117,-1,-1,-1,-1,-1,-1,-1,-1,-1,-1,-1,-1,-1,-1,-1,-1,-1,-1,-1,-1,-1,-1,-1,-1,-1,-1,-1,-1,-1,-1,-1,-1,-1,-1,-1,-1,-1,-1,-1,-1,-1,-1,-1,-1,-1,-1,-1,-1,-1,-1,-1,-1,-1,-1,-1,-1],"loss_changes":[1.1322317E5,8.178224E4,3.31284E4,1.6819766E4,3.382315E4,7.190912E3,3.0286172E3,9.0450625E3,1.396844E3,1.2361626E4,2.5692305E3,8.290607E3,3.543832E3,2.4549219E2,1.024231E3,4.8969062E3,8.649332E3,8.692533E2,2.2486578E2,2.4648398E3,1.0100174E4,7.1188574E2,1.4220352E3,2.6039272E3,4.616173E3,2.3626309E3,6.598016E2,6.700781E1,2.338125E2,1.9615186E2,2.2575156E2,6.6728125E2,1.2893762E3,1.0795156E3,7.634966E2,8.412556E2,2.3992328E2,0E0,0E0,5.486758E2,2.8026113E3,3.4942285E3,1.9520869E3,0E0,3.82726E1,1.6636902E3,8.7572656E2,1.087645E3,6.145219E2,2.3983848E3,2.4900908E3,9.7753467E2,7.6853125E2,1.920997E2,8.4761383E2,6.0003906E1,0E0,6.906321E2,4.7460938E-1,2.1289062E0,2.7253198E2,2.6119995E-1,2.0590286E2,0E0,0E0,0E0,0E0,0E0,0E0,0E0,0E0,0E0,0E0,0E0,0E0,0E0,0E0,0E0,0E0,0E0,0E0,0E0,0E0,0E0,0E0,0E0,0E0,0E0,0E0,0E0,0E0,0E0,0E0,0E0,0E0,0E0,0E0,0E0,0E0,0E0,0E0,0E0,0E0,0E0,0E0,0E0,0E0,0E0,0E0,0E0,0E0,0E0,0E0,0E0,0E0,0E0,0E0,0E0,0E0],"parents":[2147483647,0,0,1,1,2,2,3,3,4,4,5,5,6,6,7,7,8,8,9,9,10,10,11,11,12,12,13,13,14,14,15,15,16,16,17,17,18,18,19,19,20,20,21,21,22,22,23,23,24,24,25,25,26,26,27,27,28,28,29,29,30,30,31,31,32,32,33,33,34,34,35,35,36,36,39,39,40,40,41,41,42,42,44,44,45,45,46,46,47,47,48,48,49,49,50,50,51,51,52,52,53,53,54,54,55,55,57,57,58,58,59,59,60,60,61,61,62,62],"right_children":[2,4,6,8,10,12,14,16,18,20,22,24,26,28,30,32,34,36,38,40,42,44,46,48,50,52,54,56,58,60,62,64,66,68,70,72,74,-1,-1,76,78,80,82,-1,84,86,88,90,92,94,96,98,100,102,104,106,-1,108,110,112,114,116,118,-1,-1,-1,-1,-1,-1,-1,-1,-1,-1,-1,-1,-1,-1,-1,-1,-1,-1,-1,-1,-1,-1,-1,-1,-1,-1,-1,-1,-1,-1,-1,-1,-1,-1,-1,-1,-1,-1,-1,-1,-1,-1,-1,-1,-1,-1,-1,-1,-1,-1,-1,-1,-1,-1,-1,-1],"split_conditions":[1.1050334E1,1E-1,2.981027E2,1.0514218E1,3.0702325E2,3.1999993E0,2.1485756E1,5.994084E0,3.1062967E2,5.9E0,6.9899354E0,1.3141999E1,2.1675333E1,3.275626E2,2.5317003E1,2.8786493E2,2.4900117E2,8.189918E0,-1.3455E0,6.193674E0,6.2503333E0,6.8999996E0,3.6232498E0,2.6E0,2.673826E2,8.900001E0,2.3783669E1,1.4471821E1,6.8399997E0,3.0433548E2,7.928178E0,5.8128333E0,7.928178E0,9.708667E0,8.189918E0,5.387834E0,1.0539917E1,9.0190774E-1,-3.2468207E0,4.1E0,9.652417E0,9.793058E0,9.504272E0,3.4230525E0,2.5211666E0,3.23575E0,3.3017297E2,2.649576E2,1.1356584E1,1.4277415E1,2.3783669E1,7.7999997E0,1.1837833E1,2.2467632E2,1.191812E1,6.297428E0,-1.1980923E0,3.379637E2,1.9912834E1,2.3199999E1,9.957108E0,2.5758669E1,2.7371168E1,1.1815765E1,1.8019078E0,8.852862E0,1.9033916E0,8.889054E0,5.853657E0,3.941077E0,1.014141E0,3.4612754E-1,4.653543E0,-6.565661E-1,2.4025438E0,6.850108E0,2.2830524E0,3.95044E0,-5.6375314E-2,3.9455874E0,-5.4721384E0,-1.435038E0,-4.9535093E0,-4.4809228E-1,-3.2980924E0,-3.7542803E0,2.5230525E0,-4.6635656E0,-7.4063754E0,2.3376493E0,5.603498E0,2.1019077E0,-4.4468207E0,2.1236885E0,-6.883539E-1,-3.4409356E0,1.3408436E-1,-2.559311E0,9.367249E-1,-1.282444E0,-5.106248E0,-1.5966085E0,3.3343393E-1,3.9889848E0,-3.2980924E0,-3.4632752E0,-5.477235E0,-5.129942E0,1.8019078E0,-7.2139444E0,-2.0980923E0,-4.7164392E0,-1.3480923E0,-3.610652E0,-1.5887858E0,6.0190773E-1,2.2025437E0,-2.1721385E0,1.6519078E0],"split_indices":[0,1,3,2,3,1,0,0,3,1,2,0,0,3,0,3,3,0,0,2,0,1,0,1,3,1,0,2,2,3,2,0,2,0,0,0,0,0,0,1,0,2,2,0,0,0,3,3,0,0,0,1,0,3,2,2,0,3,0,1,2,0,0,0,0,0,0,0,0,0,0,0,0,0,0,0,0,0,0,0,0,0,0,0,0,0,0,0,0,0,0,0,0,0,0,0,0,0,0,0,0,0,0,0,0,0,0,0,0,0,0,0,0,0,0,0,0,0,0],"split_type":[0,0,0,0,0,0,0,0,0,0,0,0,0,0,0,0,0,0,0,0,0,0,0,0,0,0,0,0,0,0,0,0,0,0,0,0,0,0,0,0,0,0,0,0,0,0,0,0,0,0,0,0,0,0,0,0,0,0,0,0,0,0,0,0,0,0,0,0,0,0,0,0,0,0,0,0,0,0,0,0,0,0,0,0,0,0,0,0,0,0,0,0,0,0,0,0,0,0,0,0,0,0,0,0,0,0,0,0,0,0,0,0,0,0,0,0,0,0,0],"sum_hessian":[1.494E3,5.95E2,8.99E2,2.45E2,3.5E2,6.57E2,2.42E2,2.09E2,3.6E1,2.52E2,9.8E1,5.15E2,1.42E2,1.88E2,5.4E1,8.6E1,1.23E2,3E1,6E0,1.39E2,1.13E2,6E0,9.2E1,7.5E1,4.4E2,1.18E2,2.4E1,1.45E2,4.3E1,4.7E1,7E0,7.5E1,1.1E1,9E1,3.3E1,1.9E1,1.1E1,1E0,5E0,3.1E1,1.08E2,4.5E1,6.8E1,4E0,2E0,2.2E1,7E1,6.9E1,6E0,3.34E2,1.06E2,5.3E1,6.5E1,1.7E1,7E0,1.44E2,1E0,9E0,3.4E1,1.5E1,3.2E1,3E0,4E0,7.4E1,1E0,3E0,8E0,6.7E1,2.3E1,1.5E1,1.8E1,6E0,1.3E1,9E0,2E0,2.7E1,4E0,8.9E1,1.9E1,4.2E1,3E0,4.8E1,2E1,1E0,1E0,1.8E1,4E0,5.1E1,1.9E1,5.8E1,1.1E1,1E0,5E0,2.9E1,3.05E2,8.4E1,2.2E1,4.5E1,8E0,6E0,5.9E1,8E0,9E0,6E0,1E0,8E0,1.36E2,8E0,1E0,3.3E1,1E0,1.4E1,1E0,2E1,1.2E1,1E0,2E0,3E0,1E0],"tree_param":{"num_deleted":"0","num_feature":"4","num_nodes":"119","size_leaf_vector":"1"}},{"base_weights":[2.2368748E-3,7.550432E0,-4.9963484E0,1.7461193E1,5.829171E-1,-2.3761542E0,-1.2070798E1,1.9872059E1,3.3059804E0,5.105959E0,-1.0663284E1,-1.1397094E0,-6.821115E0,-1.2825076E1,-3.0193424E0,2.540143E1,1.5513352E1,5.6851196E0,-6.029039E0,7.6884384E0,-4.924847E0,-1.1130609E1,5.410364E0,5.6824193E0,-2.3128207E0,-8.393788E0,9.3765485E-1,-1.3730555E1,-9.863455E0,-4.9520044E0,3.7690444E0,2.7330435E1,1.1725062E1,1.9281027E1,5.416266E0,9.219472E0,3.54084E-1,7.666214E-1,-2.2861338E0,9.917722E0,-4.325228E0,-2.3905477E-1,-1.1303698E1,-5.420009E0,-1.3990311E1,6.9522195E0,-7.8273573E0,-3.6220434E0,3.6403217E0,-4.752792E0,-1.1245607E1,-1.5006583E0,6.3066525E0,-1.2752845E1,-1.6564844E1,-1.1201934E1,-6.8940954E0,-5.906192E0,1.4041214E0,-9.5977426E-1,6.3109293E0,4.5531774E0,8.60285E0,6.6330724E0,1.3958201E0,7.006858E0,4.6450105E0,6.900907E-1,3.08184E0,2.571236E-1,3.9987738E0,2.0279462E0,-4.2753735E-1,3.257903E0,2.570206E-1,2.0611523E-1,-4.1869755E0,4.6651835E0,-1.6476948E0,-5.0834866E0,-1.8284264E0,4.049941E0,-3.4577618E0,-1.2536404E0,-4.4178085E0,1.8234055E0,7.335014E0,1.7866219E0,-3.3351157E0,-4.0666234E-1,-2.0340497E0,5.374381E-1,3.1159818E0,-2.0225034E0,2.603267E-1,-2.9046476E0,-5.242285E0,-1.1708466E0,2.4340646E-1,-1.023129E0,3.8456964E0,-3.558734E0,-5.1990933E0,-2.747242E0,-5.7176294E0,-1.4385659E0,-3.4878592E0,3.4822634E-1,-2.6941066E0,1.1435057E0,-2.0617769E0,2.1433544E0,5.71526E-1],"categories":[],"categories_nodes":[],"categories_segments":[],"categories_sizes":[],"default_left":[0,0,0,0,0,0,0,0,0,0,0,0,0,0,0,0,0,0,0,0,0,0,0,0,0,0,0,0,0,0,0,0,0,0,0,0,0,0,0,0,0,0,0,0,0,0,0,0,0,0,0,0,0,0,0,0,0,0,0,0,0,0,0,0,0,0,0,0,0,0,0,0,0,0,0,0,0,0,0,0,0,0,0,0,0,0,0,0,0,0,0,0,0,0,0,0,0,0,0,0,0,0,0,0,0,0,0,0,0,0,0,0,0],"id":1,"left_children":[1,3,5,7,9,11,13,15,17,19,21,23,25,27,29,31,33,35,37,39,41,43,-1,45,47,49,51,53,55,57,59,61,63,65,67,69,71,-1,-1,73,75,77,79,81,83,85,87,89,91,93,95,97,99,101,103,105,107,109,-1,-1,111,-1,-1,-1,-1,-1,-1,-1,-1,-1,-1,-1,-1,-1,-1,-1,-1,-1,-1,-1,-1,-1,-1,-1,-1,-1,-1,-1,-1,-1,-1,-1,-1,-1,-1,-1,-1,-1,-1,-1,-1,-1,-1,-1,-1,-1,-1,-1,-1,-1,-1,-1,-1],"loss_changes":[5.6444516E4,4.1145637E4,1.6654107E4,8.329375E3,1.7908775E4,3.6085603E3,1.6203125E3,4.667133E3,8.5602026E2,6.5398574E3,1.5552637E3,4.14275E3,1.7527578E3,4.6526953E2,2.8105746E2,2.080289E3,4.460674E3,5.6198834E2,1.2876404E2,5.3992695E3,1.5515763E3,1.5572344E3,0E0,1.3581758E3,3.4503342E3,1.1821846E3,3.3674655E2,2.570703E2,1.4534033E2,1.7470132E2,1.087532E2,8.568125E2,8.5194324E2,9.8478516E2,4.9088403E2,6.071915E2,1.577964E2,0E0,0E0,1.4331172E3,1.5543903E3,2.6567732E3,5.4319434E2,4.1988594E3,4.148838E2,9.2215576E2,3.8359424E2,2.5819653E3,9.792283E2,6.0949585E2,4.735332E2,1.03135574E2,5.499654E2,3.2426953E2,5.644043E2,4.482129E1,3.465141E2,1.6706622E2,0E0,0E0,1.0796814E0,0E0,0E0,0E0,0E0,0E0,0E0,0E0,0E0,0E0,0E0,0E0,0E0,0E0,0E0,0E0,0E0,0E0,0E0,0E0,0E0,0E0,0E0,0E0,0E0,0E0,0E0,0E0,0E0,0E0,0E0,0E0,0E0,0E0,0E0,0E0,0E0,0E0,0E0,0E0,0E0,0E0,0E0,0E0,0E0,0E0,0E0,0E0,0E0,0E0,0E0,0E0,0E0],"parents":[2147483647,0,0,1,1,2,2,3,3,4,4,5,5,6,6,7,7,8,8,9,9,10,10,11,11,12,12,13,13,14,14,15,15,16,16,17,17,18,18,19,19,20,20,21,21,23,23,24,24,25,25,26,26,27,27,28,28,29,29,30,30,31,31,32,32,33,33,34,34,35,35,36,36,39,39,40,40,41,41,42,42,43,43,44,44,45,45,46,46,47,47,48,48,49,49,50,50,51,51,52,52,53,53,54,54,55,55,56,56,57,57,60,60],"right_children":[2,4,6,8,10,12,14,16,18,20,22,24,26,28,30,32,34,36,38,40,42,44,-1,46,48,50,52,54,56,58,60,62,64,66,68,70,72,-1,-1,74,76,78,80,82,84,86,88,90,92,94,96,98,100,102,104,106,108,110,-1,-1,112,-1,-1,-1,-1,-1,-1,-1,-1,-1,-1,-1,-1,-1,-1,-1,-1,-1,-1,-1,-1,-1,-1,-1,-1,-1,-1,-1,-1,-1,-1,-1,-1,-1,-1,-1,-1,-1,-1,-1,-1,-1,-1,-1,-1,-1,-1,-1,-1,-1,-1,-1,-1],"split_conditions":[1.1050334E1,1E-1,2.981027E2,1.0514218E1,1.0086427E1,3.1999993E0,2.3267E1,6.1774163E0,3.095299E2,3.0067224E2,1.0900333E1,1.3141999E1,2.1675333E1,2.033367E1,1E-1,2.8786493E2,2.4794888E2,8.062834E0,-1.3455E0,1.77E1,6.8999996E0,2.1999998E0,5.410364E0,2.6E0,2.5119085E1,8.900001E0,2.3783669E1,1.191812E1,3.1836655E2,2.7371168E1,2.336075E1,1.21166624E-1,7.928178E0,2.065649E2,8.209263E0,5.387834E0,2.0919734E2,7.666214E-1,-2.2861338E0,1.0081584E1,9.364917E0,3.6232498E0,1.0300001E1,3.0583768E2,1.7635892E2,2.1E0,1.1356584E1,2.2355894E2,1.0446206E1,8.766573E0,1.2313893E1,2.2467632E2,7.7999997E0,1.22E1,3.1554214E2,2.997659E2,1E-1,6.519877E0,1.4041214E0,-9.5977426E-1,2.6200335E1,4.5531774E0,8.60285E0,6.6330724E0,1.3958201E0,7.006858E0,4.6450105E0,6.900907E-1,3.08184E0,2.571236E-1,3.9987738E0,2.0279462E0,-4.2753735E-1,3.257903E0,2.570206E-1,2.0611523E-1,-4.1869755E0,4.6651835E0,-1.6476948E0,-5.0834866E0,-1.8284264E0,4.049941E0,-3.4577618E0,-1.2536404E0,-4.4178085E0,1.8234055E0,7.335014E0,1.7866219E0,-3.3351157E0,-4.0666234E-1,-2.0340497E0,5.374381E-1,3.1159818E0,-2.0225034E0,2.603267E-1,-2.9046476E0,-5.242285E0,-1.1708466E0,2.4340646E-1,-1.023129E0,3.8456964E0,-3.558734E0,-5.1990933E0,-2.747242E0,-5.7176294E0,-1.4385659E0,-3.4878592E0,3.4822634E-1,-2.6941066E0,1.1435057E0,-2.0617769E0,2.1433544E0,5.71526E-1],"split_indices":[0,1,3,2,2,1,0,0,3,3,0,0,0,0,1,3,3,0,0,1,1,1,0,1,0,1,0,2,3,0,0,0,2,3,2,0,3,0,0,0,0,0,1,3,3,1,0,3,2,2,2,3,1,1,3,3,1,2,0,0,0,0,0,0,0,0,0,0,0,0,0,0,0,0,0,0,0,0,0,0,0,0,0,0,0,0,0,0,0,0,0,0,0,0,0,0,0,0,0,0,0,0,0,0,0,0,0,0,0,0,0,0,0],"split_type":[0,0,0,0,0,0,0,0,0,0,0,0,0,0,0,0,0,0,0,0,0,0,0,0,0,0,0,0,0,0,0,0,0,0,0,0,0,0,0,0,0,0,0,0,0,0,0,0,0,0,0,0,0,0,0,0,0,0,0,0,0,0,0,0,0,0,0,0,0,0,0,0,0,0,0,0,0,0,0,0,0,0,0,0,0,0,0,0,0,0,0,0,0,0,0,0,0,0,0,0,0,0,0,0,0,0,0,0,0,0,0,0,0],"sum_hessian":[1.494E3,5.95E2,8.99E2,2.45E2,3.5E2,6.57E2,2.42E2,2.09E2,3.6E1,2.5E2,1E2,5.15E2,1.42E2,2.23E2,1.9E1,9E1,1.19E2,2.9E1,7E0,1.99E2,5.1E1,9.9E1,1E0,7.5E1,4.4E2,1.18E2,2.4E1,1.68E2,5.5E1,1.5E1,4E0,7.8E1,1.2E1,8.6E1,3.3E1,1.7E1,1.2E1,1E0,6E0,1.68E2,3.1E1,3E1,2.1E1,3.4E1,6.5E1,6.9E1,6E0,3.61E2,7.9E1,5.3E1,6.5E1,1.7E1,7E0,1.29E2,3.9E1,3.6E1,1.9E1,1.4E1,1E0,1E0,3E0,9E0,6.9E1,4E0,8E0,3.9E1,4.7E1,2.1E1,1.2E1,6E0,1.1E1,2E0,1E1,1.52E2,1.6E1,2.1E1,1E1,7E0,2.3E1,9E0,1.2E1,8E0,2.6E1,5E0,6E1,6.7E1,2E0,1E0,5E0,2.11E2,1.5E2,6.3E1,1.6E1,3.9E1,1.4E1,5.4E1,1.1E1,8E0,9E0,3E0,4E0,1.11E2,1.8E1,1.1E1,2.8E1,3E0,3.3E1,4E0,1.5E1,1E0,1.3E1,2E0,1E0],"tree_param":{"num_deleted":"0","num_feature":"4","num_nodes":"113","size_leaf_vector":"1"}},{"base_weights":[1.1913965E-2,5.8514357E0,-3.2674959E0,9.04941E0,-6.3930855E0,-1.3995563E0,-8.357091E0,1.2836595E1,1.6724536E0,6.8442574E0,-7.477153E0,-2.982845E-1,-5.0982504E0,-8.693597E0,8.239647E-1,1.4376522E1,8.837805E0,4.386209E0,-8.132369E0,3.2534907E0,-4.7721553E0,7.167691E0,-7.983115E0,6.033882E0,-1.4564625E0,-6.124981E0,7.321625E-1,-6.898025E0,-9.76341E0,5.3715835E0,-3.1030452E0,1.7853062E1,1.1365548E1,7.8740854E0,9.380941E0,-1.244405E1,5.2643485E0,-8.826447E0,2.0076056E0,-1.0661431E-1,-2.0408556E0,6.516283E-1,2.4326577E0,-6.5716944E0,-1.3728633E1,7.982117E0,-5.220488E0,-1.9836222E0,7.399066E0,-4.076875E0,-9.014618E0,-3.3731298E0,2.516061E0,-5.786246E0,-1.1394278E1,-8.706763E0,-1.1390273E1,1.7714454E0,4.8579714E-1,-2.0116193E0,2.7344398E0,5.648321E0,2.2343484E-1,5.2457504E0,2.5307987E0,6.7398E-1,2.885604E0,-4.217942E0,-6.5478975E-1,1.8242201E0,-2.969935E0,-1.5962524E0,-4.1800756E0,-1.3774592E0,-3.1525934E0,-4.6847165E-1,-4.295348E0,1.7271425E0,8.346049E0,-2.3209095E0,1.0565644E-1,-6.318705E-1,7.6661606E0,1.7167885E0,4.5566454E0,-4.47089E0,-9.5410126E-1,-3.017275E0,-9.633663E-1,2.4724092E-1,-2.3329291E0,-4.077998E-1,2.259066E0,-2.2621133E0,-6.9657606E-1,1.3645232E0,-3.7798913E0,-2.706753E0,2.669841E-1,-3.584312E0,-3.0520737E-1,3.6994744E-2,1.1935033E0],"categories":[],"categories_nodes":[],"categories_segments":[],"categories_sizes":[],"default_left":[0,0,0,0,0,0,0,0,0,0,0,0,0,0,0,0,0,0,0,0,0,0,0,0,0,0,0,0,0,0,0,0,0,0,0,0,0,0,0,0,0,0,0,0,0,0,0,0,0,0,0,0,0,0,0,0,0,0,0,0,0,0,0,0,0,0,0,0,0,0,0,0,0,0,0,0,0,0,0,0,0,0,0,0,0,0,0,0,0,0,0,0,0,0,0,0,0,0,0,0,0,0,0],"id":2,"left_children":[1,3,5,7,9,11,13,15,17,19,21,23,25,27,29,31,33,35,37,-1,39,41,43,45,47,49,51,53,55,57,59,61,63,65,-1,67,69,71,-1,-1,-1,-1,-1,73,75,77,79,81,83,85,87,89,91,93,95,97,99,-1,-1,-1,101,-1,-1,-1,-1,-1,-1,-1,-1,-1,-1,-1,-1,-1,-1,-1,-1,-1,-1,-1,-1,-1,-1,-1,-1,-1,-1,-1,-1,-1,-1,-1,-1,-1,-1,-1,-1,-1,-1,-1,-1,-1,-1],"loss_changes":[2.8648645E4,2.1124676E4,9.096064E3,1.1908012E4,1.658395E3,2.857913E3,8.011582E2,1.6094531E3,3.920422E3,4.7001907E2,8.278335E2,3.983695E3,9.6827246E2,4.0904102E2,1.952537E2,1.911582E3,1.5048481E3,1.7651311E3,3.883235E2,0E0,2.4489777E1,1.1935577E0,7.2882324E2,1.883468E3,2.157416E3,7.740537E2,1.9157263E2,4.1395898E2,1.6383691E2,4.423523E-1,1.4450758E2,1.5200762E3,1.8426855E3,7.539873E2,0E0,6.879236E1,1.4219727E3,4.808733E2,0E0,0E0,0E0,0E0,0E0,5.988013E2,1.138479E2,3.017857E3,1.8498685E2,1.5192018E3,2.5261499E2,7.484956E2,3.0665625E2,1.5426343E2,3.6000922E2,4.6256592E2,4.0320776E2,3.0195068E2,3.1743066E2,0E0,0E0,0E0,9.253372E0,0E0,0E0,0E0,0E0,0E0,0E0,0E0,0E0,0E0,0E0,0E0,0E0,0E0,0E0,0E0,0E0,0E0,0E0,0E0,0E0,0E0,0E0,0E0,0E0,0E0,0E0,0E0,0E0,0E0,0E0,0E0,0E0,0E0,0E0,0E0,0E0,0E0,0E0,0E0,0E0,0E0,0E0],"parents":[2147483647,0,0,1,1,2,2,3,3,4,4,5,5,6,6,7,7,8,8,9,9,10,10,11,11,12,12,13,13,14,14,15,15,16,16,17,17,18,18,20,20,21,21,22,22,23,23,24,24,25,25,26,26,27,27,28,28,29,29,30,30,31,31,32,32,33,33,35,35,36,36,37,37,43,43,44,44,45,45,46,46,47,47,48,48,49,49,50,50,51,51,52,52,53,53,54,54,55,55,56,56,60,60],"right_children":[2,4,6,8,10,12,14,16,18,20,22,24,26,28,30,32,34,36,38,-1,40,42,44,46,48,50,52,54,56,58,60,62,64,66,-1,68,70,72,-1,-1,-1,-1,-1,74,76,78,80,82,84,86,88,90,92,94,96,98,100,-1,-1,-1,102,-1,-1,-1,-1,-1,-1,-1,-1,-1,-1,-1,-1,-1,-1,-1,-1,-1,-1,-1,-1,-1,-1,-1,-1,-1,-1,-1,-1,-1,-1,-1,-1,-1,-1,-1,-1,-1,-1,-1,-1,-1,-1],"split_conditions":[1.0081584E1,3.065814E2,2.9698932E2,2.6E0,6.9899354E0,3.1999993E0,2.5119085E1,1E-1,9.504272E0,6.8999996E0,1.21166624E-1,1.2469083E1,2.1675333E1,3E-1,7.928178E0,5.994084E0,2.1999998E0,1.4528133E2,9.810751E0,3.2534907E0,2.5211666E0,1E-1,3.3017297E2,2.8159216E2,2.7923258E1,1.29E1,2.0265527E2,1.2768586E1,3.22897E2,2.6200335E1,2.6200335E1,2.9596814E2,2.065649E2,4E-1,9.380941E0,7.491114E0,3.1800001E1,7.956585E0,2.0076056E0,-1.0661431E-1,-2.0408556E0,6.516283E-1,2.4326577E0,1.2475961E1,9E-1,2.7212103E2,1.1900333E1,2.9999993E0,1.1966953E1,3.7E0,1.7994083E1,2.296283E1,2.336075E1,3.1178125E2,1.0219084E1,3.2246133E2,2.2450333E1,1.7714454E0,4.8579714E-1,-2.0116193E0,2.7371168E1,5.648321E0,2.2343484E-1,5.2457504E0,2.5307987E0,6.7398E-1,2.885604E0,-4.217942E0,-6.5478975E-1,1.8242201E0,-2.969935E0,-1.5962524E0,-4.1800756E0,-1.3774592E0,-3.1525934E0,-4.6847165E-1,-4.295348E0,1.7271425E0,8.346049E0,-2.3209095E0,1.0565644E-1,-6.318705E-1,7.6661606E0,1.7167885E0,4.5566454E0,-4.47089E0,-9.5410126E-1,-3.017275E0,-9.633663E-1,2.4724092E-1,-2.3329291E0,-4.077998E-1,2.259066E0,-2.2621133E0,-6.9657606E-1,1.3645232E0,-3.7798913E0,-2.706753E0,2.669841E-1,-3.584312E0,-3.0520737E-1,3.6994744E-2,1.1935033E0],"split_indices":[0,3,3,1,2,1,0,1,2,1,0,0,0,1,2,0,1,3,0,0,0,1,3,3,0,1,3,2,3,0,0,3,3,1,0,2,1,0,0,0,0,0,0,2,1,3,0,1,2,1,0,0,0,3,0,3,0,0,0,0,0,0,0,0,0,0,0,0,0,0,0,0,0,0,0,0,0,0,0,0,0,0,0,0,0,0,0,0,0,0,0,0,0,0,0,0,0,0,0,0,0,0,0],"split_type":[0,0,0,0,0,0,0,0,0,0,0,0,0,0,0,0,0,0,0,0,0,0,0,0,0,0,0,0,0,0,0,0,0,0,0,0,0,0,0,0,0,0,0,0,0,0,0,0,0,0,0,0,0,0,0,0,0,0,0,0,0,0,0,0,0,0,0,0,0,0,0,0,0,0,0,0,0,0,0,0,0,0,0,0,0,0,0,0,0,0,0,0,0,0,0,0,0,0,0,0,0,0,0],"sum_hessian":[1.494E3,5.37E2,9.57E2,4.26E2,1.11E2,7.01E2,2.56E2,2.81E2,1.45E2,8E0,1.03E2,5.41E2,1.6E2,2.47E2,9E0,2.01E2,8E1,1.14E2,3.1E1,6E0,2E0,3E0,1E2,8.3E1,4.58E2,1.36E2,2.4E1,9.5E1,1.52E2,4E0,5E0,9.1E1,1.1E2,7.8E1,2E0,5E0,1.09E2,3E1,1E0,1E0,1E0,1E0,2E0,8.2E1,1.8E1,7.1E1,1.2E1,4.33E2,2.5E1,8.1E1,5.5E1,7E0,1.7E1,7.8E1,1.7E1,9.6E1,5.6E1,3E0,1E0,3E0,2E0,8.6E1,5E0,3.4E1,7.6E1,1.9E1,5.9E1,4E0,1E0,1.04E2,5E0,1.9E1,1.1E1,5.6E1,2.6E1,1E0,1.7E1,6.5E1,6E0,8E0,4E0,4.32E2,1E0,2.2E1,3E0,5E0,7.6E1,4.6E1,9E0,4E0,3E0,1E1,7E0,5.1E1,2.7E1,1E0,1.6E1,9.3E1,3E0,5.3E1,3E0,1E0,1E0],"tree_param":{"num_deleted":"0","num_feature":"4","num_nodes":"103","size_leaf_vector":"1"}},{"base_weights":[1.7032892E-2,3.733206E0,-2.527393E0,7.9762597E0,-3.983451E-1,-1.0457412E0,-5.563477E0,9.617558E0,3.2113305E-1,3.7016E0,-4.093398E0,-1.8125734E0,2.490027E0,-6.0615153E0,-1.4860415E0,7.8267713E0,8.957045E0,2.8971436E0,-5.4558983E0,6.349512E0,1.0036665E0,2.2919114E0,-5.105942E0,1.5688282E-2,-3.4175959E0,-5.817908E0,3.1297615E0,-4.2735095E0,-6.626433E0,-2.5846546E0,2.13752E0,1.1255162E1,4.7376595E0,1.1899443E0,6.725347E0,-4.8867077E-1,-9.816915E0,1.4189029E1,2.3027637E0,5.450729E0,-6.9393945E0,7.615727E0,-6.8357716E0,-1.618922E0,-7.9016256E0,2.0025456E0,-4.062804E0,-4.053124E0,7.8628175E-3,4.591011E-1,-8.522379E0,1.306979E1,2.57945E0,-1.4821715E0,-5.667167E0,-7.2161946E0,-4.0823555E0,2.7539082E0,-3.7625234E0,-3.157776E-1,3.5810306E0,-2.0909522E0,1.8083357E0,-2.369647E0,1.0968474E0,-1.6981671E0,9.122095E-1,-3.2349818E0,-3.1290925E-1,1.98208E0,6.9715014E0,4.44247E0,2.6802403E-1,-6.1029987E0,2.1043367E0,-8.574435E-1,-3.7847779E0,-1.4808266E0,2.9779425E0,-8.928299E-3,-4.6007533E0,-1.2428198E0,2.5802562E0,-1.7142317E0,-3.0161724E0,1.7009907E0,1.1074852E-1,-1.5390543E0,2.1574075E0,-1.7679836E0,-8.710979E-1,1.3928015E0,-7.426053E-1,-2.8157868E0,-6.306742E-1,4.792658E0,2.170269E-1,4.505734E-1,1.673875E0,-2.8962188E0,2.2390057E-1,-1.9246544E0,9.699302E-1,-3.7347014E0,-2.0555065E0,-8.798563E-1,-2.1367872E0,2.0316834E0,1.787336E-1,-2.2100384E0,-3.82409E-1],"categories":[],"categories_nodes":[],"categories_segments":[],"categories_sizes":[],"default_left":[0,0,0,0,0,0,0,0,0,0,0,0,0,0,0,0,0,0,0,0,0,0,0,0,0,0,0,0,0,0,0,0,0,0,0,0,0,0,0,0,0,0,0,0,0,0,0,0,0,0,0,0,0,0,0,0,0,0,0,0,0,0,0,0,0,0,0,0,0,0,0,0,0,0,0,0,0,0,0,0,0,0,0,0,0,0,0,0,0,0,0,0,0,0,0,0,0,0,0,0,0,0,0,0,0,0,0,0,0,0,0],"id":3,"left_children":[1,3,5,7,9,11,13,15,17,19,21,23,25,27,29,-1,31,33,35,37,39,41,43,45,47,49,51,53,55,57,-1,59,61,63,-1,65,67,69,71,73,75,77,79,81,83,85,87,89,91,-1,93,95,97,99,101,103,105,107,109,-1,-1,-1,-1,-1,-1,-1,-1,-1,-1,-1,-1,-1,-1,-1,-1,-1,-1,-1,-1,-1,-1,-1,-1,-1,-1,-1,-1,-1,-1,-1,-1,-1,-1,-1,-1,-1,-1,-1,-1,-1,-1,-1,-1,-1,-1,-1,-1,-1,-1,-1,-1],"loss_changes":[1.4145449E4,1.0661657E4,3.9887793E3,3.7662148E3,4.696352E3,1.625895E3,5.8193164E2,2.4536172E3,8.1941797E2,1.0437793E3,1.0655635E3,1.4437792E3,5.869001E2,2.3329199E2,3.3060492E2,0E0,2.2641738E3,1.2397002E3,3.6345953E2,2.3149426E3,2.6517478E3,1.1697236E3,1.361761E3,1.8800176E3,5.703992E2,1.7202701E2,5.1329834E2,2.4446118E2,2.6311816E2,1.9900548E2,0E0,1.3044785E3,1.3409698E3,8.3581366E2,0E0,1.8149352E2,6.5061035E1,1.5617842E3,8.679996E2,2.078771E3,5.894601E2,4.840592E2,5.202078E2,1.686369E3,3.097876E2,9.323953E2,9.498374E2,4.503452E2,4.9487955E2,0E0,1.3534058E1,1.6781934E2,3.0196484E2,4.260608E2,3.071433E2,2.1416406E2,1.1540729E2,4.799819E1,2.1477957E2,0E0,0E0,0E0,0E0,0E0,0E0,0E0,0E0,0E0,0E0,0E0,0E0,0E0,0E0,0E0,0E0,0E0,0E0,0E0,0E0,0E0,0E0,0E0,0E0,0E0,0E0,0E0,0E0,0E0,0E0,0E0,0E0,0E0,0E0,0E0,0E0,0E0,0E0,0E0,0E0,0E0,0E0,0E0,0E0,0E0,0E0,0E0,0E0,0E0,0E0,0E0,0E0],"parents":[2147483647,0,0,1,1,2,2,3,3,4,4,5,5,6,6,7,7,8,8,9,9,10,10,11,11,12,12,13,13,14,14,16,16,17,17,18,18,19,19,20,20,21,21,22,22,23,23,24,24,25,25,26,26,27,27,28,28,29,29,31,31,32,32,33,33,35,35,36,36,37,37,38,38,39,39,40,40,41,41,42,42,43,43,44,44,45,45,46,46,47,47,48,48,50,50,51,51,52,52,53,53,54,54,55,55,56,56,57,57,58,58],"right_children":[2,4,6,8,10,12,14,16,18,20,22,24,26,28,30,-1,32,34,36,38,40,42,44,46,48,50,52,54,56,58,-1,60,62,64,-1,66,68,70,72,74,76,78,80,82,84,86,88,90,92,-1,94,96,98,100,102,104,106,108,110,-1,-1,-1,-1,-1,-1,-1,-1,-1,-1,-1,-1,-1,-1,-1,-1,-1,-1,-1,-1,-1,-1,-1,-1,-1,-1,-1,-1,-1,-1,-1,-1,-1,-1,-1,-1,-1,-1,-1,-1,-1,-1,-1,-1,-1,-1,-1,-1,-1,-1,-1,-1],"split_conditions":[1.1302417E1,7.0000005E-1,2.8963428E2,1.0086427E1,8.161764E0,2.4017E1,2.3267E1,1.6137206E2,3.1062967E2,6.2E0,1.8173567E2,1.6310751E1,1.6200821E2,3.0162317E2,8E-1,7.8267713E0,8.189918E0,4E-1,1.2475961E1,2.249999E2,8.231584E0,8.417E0,4.3999996E0,1.8000002E0,2.2892004E1,6.5693827E0,5.771239E0,1.6412834E1,2.0981585E1,6.87779E0,2.13752E0,1.8546896E2,8.48575E0,2.3085602E2,6.725347E0,1.1503113E1,8.879499E0,8.335751E0,5.2416787E0,6.3999996E0,1.9301822E2,8.707237E0,1.7300001E1,3.3000002E0,9.3E0,1.8878517E2,1.5889915E1,6.9247384E0,2.3267E1,4.591011E-1,6.9153743E0,2.7064919E1,2.7923258E1,1.2381584E1,3.0137003E2,5.937272E0,2.2671167E1,2.4017E1,2.997659E2,-3.157776E-1,3.5810306E0,-2.0909522E0,1.8083357E0,-2.369647E0,1.0968474E0,-1.6981671E0,9.122095E-1,-3.2349818E0,-3.1290925E-1,1.98208E0,6.9715014E0,4.44247E0,2.6802403E-1,-6.1029987E0,2.1043367E0,-8.574435E-1,-3.7847779E0,-1.4808266E0,2.9779425E0,-8.928299E-3,-4.6007533E0,-1.2428198E0,2.5802562E0,-1.7142317E0,-3.0161724E0,1.7009907E0,1.1074852E-1,-1.5390543E0,2.1574075E0,-1.7679836E0,-8.710979E-1,1.3928015E0,-7.426053E-1,-2.8157868E0,-6.306742E-1,4.792658E0,2.170269E-1,4.505734E-1,1.673875E0,-2.8962188E0,2.2390057E-1,-1.9246544E0,9.699302E-1,-3.7347014E0,-2.0555065E0,-8.798563E-1,-2.1367872E0,2.0316834E0,1.787336E-1,-2.2100384E0,-3.82409E-1],"split_indices":[0,1,3,2,2,0,0,3,3,1,3,0,3,3,1,0,0,1,2,3,0,0,1,1,0,2,2,0,0,2,0,3,0,3,0,2,0,0,2,1,3,2,1,1,1,3,0,2,0,0,2,0,0,0,3,2,0,0,3,0,0,0,0,0,0,0,0,0,0,0,0,0,0,0,0,0,0,0,0,0,0,0,0,0,0,0,0,0,0,0,0,0,0,0,0,0,0,0,0,0,0,0,0,0,0,0,0,0,0,0,0],"split_type":[0,0,0,0,0,0,0,0,0,0,0,0,0,0,0,0,0,0,0,0,0,0,0,0,0,0,0,0,0,0,0,0,0,0,0,0,0,0,0,0,0,0,0,0,0,0,0,0,0,0,0,0,0,0,0,0,0,0,0,0,0,0,0,0,0,0,0,0,0,0,0,0,0,0,0,0,0,0,0,0,0,0,0,0,0,0,0,0,0,0,0,0,0,0,0,0,0,0,0,0,0,0,0,0,0,0,0,0,0,0,0],"sum_hessian":[1.494E3,6.07E2,8.87E2,2.99E2,3.08E2,5.97E2,2.9E2,2.46E2,5.3E1,1.46E2,1.62E2,4.91E2,1.06E2,2.58E2,3.2E1,8E0,2.38E2,3.7E1,1.6E1,7.3E1,7.3E1,2.2E1,1.4E2,2.3E2,2.61E2,7E0,9.9E1,6.4E1,1.94E2,2.9E1,3E0,1.53E2,8.5E1,3.5E1,2E0,8E0,8E0,2.4E1,4.9E1,4.7E1,2.6E1,1.4E1,8E0,6.3E1,7.7E1,1.55E2,7.5E1,2.2E2,4.1E1,2E0,5E0,4E0,9.5E1,2.2E1,4.2E1,1.56E2,3.8E1,5E0,2.4E1,8E0,1.45E2,8E0,7.7E1,7E0,2.8E1,3E0,5E0,7E0,1E0,1.4E1,1E1,4E0,4.5E1,2E0,4.5E1,1.6E1,1E1,2E0,1.2E1,5E0,3E0,5.1E1,1.2E1,4E1,3.7E1,4.7E1,1.08E2,6.9E1,6E0,8.3E1,1.37E2,1.4E1,2.7E1,4E0,1E0,3E0,1E0,7.1E1,2.4E1,4E0,1.8E1,3.9E1,3E0,8E0,1.48E2,2.9E1,9E0,1E0,4E0,9E0,1.5E1],"tree_param":{"num_deleted":"0","num_feature":"4","num_nodes":"111","size_leaf_vector":"1"}},{"base_weights":[1.48362685E-2,1.3874682E0,-3.6210008E0,5.3566117E0,-5.799032E-1,4.7286487E0,-3.9063258E0,8.197138E0,2.4385533E0,-4.129318E0,-4.3260345E-1,1.1305201E1,-1.6169152E0,-3.2264965E0,-6.518667E0,1.882763E1,7.72776E0,3.6879528E0,-7.1373076E0,-2.3158777E-1,-8.25935E0,9.371681E-1,1.5264979E1,5.643056E0,-7.101509E0,-3.729971E0,1.0738934E0,-4.3012605E0,-6.0341268E0,6.076592E0,1.5392338E0,7.911192E-2,8.337289E0,-6.43329E0,4.410407E0,-1.1443093E1,-2.9543774E0,2.3001795E0,-7.991815E-1,-4.46382E0,1.3967302E-2,7.0834756E-1,-2.8662187E-1,9.3651986E-1,5.256108E0,4.1705304E-1,1.9791871E0,-2.4591043E0,-4.0792382E-1,-2.8278215E0,-5.523381E0,8.935337E0,-3.0744202E0,4.3234878E0,-6.48682E0,1.4940711E0,-2.1857283E0,4.6458387E0,2.1859493E0,-2.5589225E0,6.0014844E-1,5.941651E0,1.1214952E0,-6.2608945E-1,-4.0563765E0,3.1041782E0,-1.5312833E0,1.2696924E0,-8.42615E-1,-4.7233973E-2,-9.6933436E-1,4.355792E0,-1.084234E0,-1.7033789E-1,-1.0684581E0,4.6871275E-1,-1.8334374E0,3.9271748E0,-7.943393E-1,1.400279E0,-1.6452875E0,-2.8827965E0,-1.6113969E0],"categories":[],"categories_nodes":[],"categories_segments":[],"categories_sizes":[],"default_left":[0,0,0,0,0,0,0,0,0,0,0,0,0,0,0,0,0,0,0,0,0,0,0,0,0,0,0,0,0,0,0,0,0,0,0,0,0,0,0,0,0,0,0,0,0,0,0,0,0,0,0,0,0,0,0,0,0,0,0,0,0,0,0,0,0,0,0,0,0,0,0,0,0,0,0,0,0,0,0,0,0,0,0],"id":4,"left_children":[1,3,5,7,9,11,13,15,17,-1,19,21,23,25,27,29,31,33,35,37,39,41,43,45,47,49,51,-1,53,-1,-1,55,57,59,61,63,65,67,69,-1,71,-1,-1,-1,-1,-1,-1,-1,-1,73,75,77,79,-1,81,-1,-1,-1,-1,-1,-1,-1,-1,-1,-1,-1,-1,-1,-1,-1,-1,-1,-1,-1,-1,-1,-1,-1,-1,-1,-1,-1,-1],"loss_changes":[7.46607E3,8.48344E3,9.952412E2,2.9639863E3,1.405932E3,6.025266E2,6.8401855E2,7.626338E2,2.1678916E3,0E0,1.1308623E3,2.7308002E2,3.5861816E2,6.9035376E2,2.2035864E2,3.295752E1,8.198672E2,1.1910032E3,3.4441956E2,1.01206E3,9.860637E2,1.0340887E1,8.224426E1,7.061577E0,2.0304764E1,4.4387134E2,1.1362699E3,0E0,8.1542676E2,0E0,0E0,5.4163104E2,1.1116064E3,2.1155487E2,1.467647E3,1.6621704E2,3.9598157E2,1.2852521E3,8.968687E2,0E0,5.261133E2,0E0,0E0,0E0,0E0,0E0,0E0,0E0,0E0,3.1469287E2,4.0124365E2,6.122303E2,4.5471555E2,0E0,2.1658691E2,0E0,0E0,0E0,0E0,0E0,0E0,0E0,0E0,0E0,0E0,0E0,0E0,0E0,0E0,0E0,0E0,0E0,0E0,0E0,0E0,0E0,0E0,0E0,0E0,0E0,0E0,0E0,0E0],"parents":[2147483647,0,0,1,1,2,2,3,3,4,4,5,5,6,6,7,7,8,8,10,10,11,11,12,12,13,13,14,14,15,15,16,16,17,17,18,18,19,19,20,20,21,21,22,22,23,23,24,24,25,25,26,26,28,28,31,31,32,32,33,33,34,34,35,35,36,36,37,37,38,38,40,40,49,49,50,50,51,51,52,52,54,54],"right_children":[2,4,6,8,10,12,14,16,18,-1,20,22,24,26,28,30,32,34,36,38,40,42,44,46,48,50,52,-1,54,-1,-1,56,58,60,62,64,66,68,70,-1,72,-1,-1,-1,-1,-1,-1,-1,-1,74,76,78,80,-1,82,-1,-1,-1,-1,-1,-1,-1,-1,-1,-1,-1,-1,-1,-1,-1,-1,-1,-1,-1,-1,-1,-1,-1,-1,-1,-1,-1,-1],"split_conditions":[2.9698932E2,9.708667E0,1.1378335E0,1E-1,1.2919324E2,3.065814E2,6.9999986E0,1.7220802E2,1.0383987E1,-4.129318E0,1.4471821E1,1E-1,1.21166624E-1,4.7999997E0,7.1999993E0,7.6367526E0,1.8681807E2,1.5315964E2,6E0,1.2241998E1,1.5608666E1,7.899168E-1,-6.163333E-1,1E-1,1.1159999E1,3.1836655E2,8.335751E0,-4.3012605E0,7.2999997E0,6.076592E0,1.5392338E0,1.8239836E2,2.0120921E2,2.09E1,1.5772409E2,2.5211666E0,9.3E0,4.3999996E0,2.673826E2,-4.46382E0,1.6310751E1,7.0834756E-1,-2.8662187E-1,9.3651986E-1,5.256108E0,4.1705304E-1,1.9791871E0,-2.4591043E0,-4.0792382E-1,9.062834E0,6.8399997E0,3.275626E2,6.28713E0,4.3234878E0,5.567E0,1.4940711E0,-2.1857283E0,4.6458387E0,2.1859493E0,-2.5589225E0,6.0014844E-1,5.941651E0,1.1214952E0,-6.2608945E-1,-4.0563765E0,3.1041782E0,-1.5312833E0,1.2696924E0,-8.42615E-1,-4.7233973E-2,-9.6933436E-1,4.355792E0,-1.084234E0,-1.7033789E-1,-1.0684581E0,4.6871275E-1,-1.8334374E0,3.9271748E0,-7.943393E-1,1.400279E0,-1.6452875E0,-2.8827965E0,-1.6113969E0],"split_indices":[3,0,0,1,3,3,1,3,2,0,2,1,0,1,1,2,3,3,1,0,0,0,0,1,2,3,0,0,1,0,0,3,3,1,3,0,1,1,3,0,0,0,0,0,0,0,0,0,0,0,2,3,2,0,0,0,0,0,0,0,0,0,0,0,0,0,0,0,0,0,0,0,0,0,0,0,0,0,0,0,0,0,0],"split_type":[0,0,0,0,0,0,0,0,0,0,0,0,0,0,0,0,0,0,0,0,0,0,0,0,0,0,0,0,0,0,0,0,0,0,0,0,0,0,0,0,0,0,0,0,0,0,0,0,0,0,0,0,0,0,0,0,0,0,0,0,0,0,0,0,0,0,0,0,0,0,0,0,0,0,0,0,0,0,0,0,0,0,0],"sum_hessian":[1.494E3,1.085E3,4.09E2,3.59E2,7.26E2,1.3E1,3.96E2,1.81E2,1.78E2,7E0,7.19E2,6E0,7E0,3.16E2,8E1,6E0,1.75E2,1.58E2,2E1,7.02E2,1.7E1,2E0,4E0,3E0,4E0,2.83E2,3.3E1,3E0,7.7E1,5E0,1E0,1.3E1,1.62E2,1E1,1.48E2,9E0,1.1E1,1.28E2,5.74E2,9E0,8E0,1E0,1E0,1E0,3E0,1E0,2E0,3E0,1E0,1.9E2,9.3E1,1.1E1,2.2E1,1E0,7.6E1,8E0,5E0,1.9E1,1.43E2,8E0,2E0,5E0,1.43E2,2E0,7E0,1E0,1E1,9.3E1,3.5E1,4.55E2,1.19E2,1E0,7E0,4.7E1,1.43E2,7E0,8.6E1,8E0,3E0,5E0,1.7E1,1.8E1,5.8E1],"tree_param":{"num_deleted":"0","num_feature":"4","num_nodes":"83","size_leaf_vector":"1"}},{"base_weights":[1.82753E-2,9.80288E-1,-2.5299299E0,4.433079E0,-2.4792352E-1,3.74888E0,-2.7449763E0,6.0597315E0,1.8285991E0,2.0108296E-1,-3.104461E0,8.858548E0,-1.1906893E0,-2.2576504E0,-4.618276E0,4.588291E0,1.0911135E1,3.2184703E0,-3.9403558E0,1.6499012E0,-9.127699E-1,-4.1183662E0,3.0462613E0,7.965927E-1,1.1924011E1,4.549199E0,-5.544462E0,-1.7049838E0,-4.748674E0,-3.3334768E0,-4.226077E0,6.8350453E0,-2.9272554E0,4.019552E0,1.8316591E1,2.689707E0,7.541761E0,-8.425052E0,-1.8748532E-1,4.138544E0,-4.415087E-1,-2.223611E0,1.2256168E0,-1.1372237E1,-3.404006E0,9.5354146E-1,7.4595366E0,6.020954E-1,-2.436287E-1,7.960419E-1,4.0734835E0,3.5449505E-1,1.5833497E0,-1.9058058E0,-3.4673512E-1,-2.2002735E0,2.3332052E0,4.9327593E0,-5.3778787E0,3.6749647E0,-4.59914E0,2.7576604E0,5.574302E-1,9.324318E-1,-2.7470622E0,2.3260262E0,-6.6638265E0,7.642993E0,3.915663E0,-1.8938379E-1,1.9779265E0,-3.098313E0,1.3048314E0,1.4422063E0,-1.5466623E0,2.1588707E0,1.15262866E-1,-3.0515208E0,1.583982E-1,-7.003012E-1,3.702423E0,2.9783034E0,2.3822662E-1,-4.6528606E0,-1.0072666E0,-2.7931924E0,-7.2797704E-1,1.563862E0,-1.2588364E-1,2.833654E0,-7.265511E-2,-7.31808E-1,1.4486847E0,2.3933372E0,-6.361469E-1,1.7193406E0,3.8064483E-1,-1.0266029E0,-1.8334049E0,-1.9065024E0,-1.0029482E0],"categories":[],"categories_nodes":[],"categories_segments":[],"categories_sizes":[],"default_left":[0,0,0,0,0,0,0,0,0,0,0,0,0,0,0,0,0,0,0,0,0,0,0,0,0,0,0,0,0,0,0,0,0,0,0,0,0,0,0,0,0,0,0,0,0,0,0,0,0,0,0,0,0,0,0,0,0,0,0,0,0,0,0,0,0,0,0,0,0,0,0,0,0,0,0,0,0,0,0,0,0,0,0,0,0,0,0,0,0,0,0,0,0,0,0,0,0,0,0,0,0],"id":5,"left_children":[1,3,5,7,9,11,13,15,17,19,21,23,25,27,29,31,33,35,37,39,41,43,45,47,49,51,53,55,57,-1,59,61,63,65,67,69,-1,71,73,75,77,79,81,83,85,87,89,-1,-1,-1,-1,-1,-1,-1,-1,91,93,95,97,-1,99,-1,-1,-1,-1,-1,-1,-1,-1,-1,-1,-1,-1,-1,-1,-1,-1,-1,-1,-1,-1,-1,-1,-1,-1,-1,-1,-1,-1,-1,-1,-1,-1,-1,-1,-1,-1,-1,-1,-1,-1],"loss_changes":[3.6673318E3,4.6065615E3,5.6388696E2,1.1963457E3,1.0292725E3,3.6390158E2,3.519978E2,1.1991826E3,9.026914E2,1.1214626E3,6.92297E2,1.6349683E2,2.2514423E2,4.2831934E2,1.5932202E2,2.3164478E3,1.9677881E3,9.75562E2,3.686911E2,1.5736685E3,1.1043379E3,4.48385E2,1.4065901E2,7.4712934E0,4.0650146E1,3.5782776E0,1.0392838E1,5.2715283E2,3.7374927E2,0E0,5.3577124E2,1.2147202E3,1.2315963E3,2.32708E3,3.836455E2,1.1578759E3,0E0,2.879746E2,3.4737482E2,1.581419E3,1.561895E3,4.2231433E2,5.5539417E2,2.1319885E2,4.7967896E2,7.237198E1,7.876471E1,0E0,0E0,0E0,0E0,0E0,0E0,0E0,0E0,4.033573E2,7.459554E2,4.429062E0,5.655371E1,0E0,1.4856482E2,0E0,0E0,0E0,0E0,0E0,0E0,0E0,0E0,0E0,0E0,0E0,0E0,0E0,0E0,0E0,0E0,0E0,0E0,0E0,0E0,0E0,0E0,0E0,0E0,0E0,0E0,0E0,0E0,0E0,0E0,0E0,0E0,0E0,0E0,0E0,0E0,0E0,0E0,0E0,0E0],"parents":[2147483647,0,0,1,1,2,2,3,3,4,4,5,5,6,6,7,7,8,8,9,9,10,10,11,11,12,12,13,13,14,14,15,15,16,16,17,17,18,18,19,19,20,20,21,21,22,22,23,23,24,24,25,25,26,26,27,27,28,28,30,30,31,31,32,32,33,33,34,34,35,35,37,37,38,38,39,39,40,40,41,41,42,42,43,43,44,44,45,45,46,46,55,55,56,56,57,57,58,58,60,60],"right_children":[2,4,6,8,10,12,14,16,18,20,22,24,26,28,30,32,34,36,38,40,42,44,46,48,50,52,54,56,58,-1,60,62,64,66,68,70,-1,72,74,76,78,80,82,84,86,88,90,-1,-1,-1,-1,-1,-1,-1,-1,92,94,96,98,-1,100,-1,-1,-1,-1,-1,-1,-1,-1,-1,-1,-1,-1,-1,-1,-1,-1,-1,-1,-1,-1,-1,-1,-1,-1,-1,-1,-1,-1,-1,-1,-1,-1,-1,-1,-1,-1,-1,-1,-1,-1],"split_conditions":[2.9698932E2,8.335751E0,1.1378335E0,1.1000001E0,9.3E0,3.065814E2,6.9999986E0,6.969084E0,9.504272E0,1.5219083E1,2.2067001E1,1E-1,1.21166624E-1,1.288981E1,7.1999993E0,5.994084E0,2.1793332E2,2.9485516E2,6.0940833E0,2.0120921E2,2.2892004E1,9.150332E0,2.3783669E1,7.899168E-1,-6.163333E-1,1E-1,1.1159999E1,4.7999997E0,3.065814E2,-3.3334768E0,7.2999997E0,8.435069E0,7.2359104E0,2.1175941E2,7.072878E0,7.8999996E0,7.541761E0,2.8594543E2,1.0990322E1,8.089993E0,2.0603572E2,1.5546833E1,5.771239E0,2.0199999E1,1.5175034E2,1.9315436E2,2.48295E1,6.020954E-1,-2.436287E-1,7.960419E-1,4.0734835E0,3.5449505E-1,1.5833497E0,-1.9058058E0,-3.4673512E-1,1.2682018E1,9.569083E0,1.3797912E1,6.469084E0,3.6749647E0,1.1300002E1,2.7576604E0,5.574302E-1,9.324318E-1,-2.7470622E0,2.3260262E0,-6.6638265E0,7.642993E0,3.915663E0,-1.8938379E-1,1.9779265E0,-3.098313E0,1.3048314E0,1.4422063E0,-1.5466623E0,2.1588707E0,1.15262866E-1,-3.0515208E0,1.583982E-1,-7.003012E-1,3.702423E0,2.9783034E0,2.3822662E-1,-4.6528606E0,-1.0072666E0,-2.7931924E0,-7.2797704E-1,1.563862E0,-1.2588364E-1,2.833654E0,-7.265511E-2,-7.31808E-1,1.4486847E0,2.3933372E0,-6.361469E-1,1.7193406E0,3.8064483E-1,-1.0266029E0,-1.8334049E0,-1.9065024E0,-1.0029482E0],"split_indices":[3,0,0,1,1,3,1,0,2,0,0,1,0,2,1,0,3,3,0,3,0,0,0,0,0,1,2,1,3,0,1,2,2,3,2,1,0,3,2,2,3,2,2,1,3,3,0,0,0,0,0,0,0,0,0,2,0,2,0,0,1,0,0,0,0,0,0,0,0,0,0,0,0,0,0,0,0,0,0,0,0,0,0,0,0,0,0,0,0,0,0,0,0,0,0,0,0,0,0,0,0],"split_type":[0,0,0,0,0,0,0,0,0,0,0,0,0,0,0,0,0,0,0,0,0,0,0,0,0,0,0,0,0,0,0,0,0,0,0,0,0,0,0,0,0,0,0,0,0,0,0,0,0,0,0,0,0,0,0,0,0,0,0,0,0,0,0,0,0,0,0,0,0,0,0,0,0,0,0,0,0,0,0,0,0,0,0,0,0,0,0,0,0,0,0,0,0,0,0,0,0,0,0,0,0],"sum_hessian":[1.494E3,1.085E3,4.09E2,2.84E2,8.01E2,1.3E1,3.96E2,1.74E2,1.1E2,6.93E2,1.08E2,6E0,7E0,3.16E2,8E1,1.35E2,3.9E1,8.9E1,2.1E1,3.01E2,3.92E2,9.3E1,1.5E1,2E0,4E0,3E0,4E0,2.6E2,5.6E1,3E0,7.7E1,1.04E2,3.1E1,2.1E1,1.8E1,8.8E1,1E0,9E0,1.2E1,1.37E2,1.64E2,2.43E2,1.49E2,7E0,8.6E1,1.1E1,4E0,1E0,1E0,1E0,3E0,1E0,2E0,3E0,1E0,2.32E2,2.8E1,3E0,5.3E1,1E0,7.6E1,7E1,3.4E1,1.6E1,1.5E1,1.9E1,2E0,6E0,1.2E1,4.8E1,4E1,8E0,1E0,6E0,6E0,7.5E1,6.2E1,1.4E1,1.5E2,2.42E2,1E0,6E0,1.43E2,4E0,3E0,1.1E1,7.5E1,2E0,9E0,3E0,1E0,2.25E2,7E0,1.2E1,1.6E1,2E0,1E0,1.6E1,3.7E1,3E1,4.6E1],"tree_param":{"num_deleted":"0","num_feature":"4","num_nodes":"101","size_leaf_vector":"1"}},{"base_weights":[2.6726257E-2,1.2708569E0,-1.004505E0,2.1086633E0,-2.243562E0,-1.458927E0,1.2649859E0,3.416204E0,-3.7299815E-1,5.3473587E0,-2.7807548E0,-1.263004E0,-6.7778597E0,-5.578385E0,1.566465E0,3.1957026E0,8.555135E0,1.1736094E1,-6.96506E-1,2.2219498E0,3.257258E0,5.4248714E-1,-3.3188455E0,-3.8953426E-1,-2.4439163E0,-8.353924E0,2.1117697E0,-7.1231437E0,3.2181132E-1,7.805934E0,1.3104978E0,1.1842124E1,2.938059E0,-4.0164466E0,7.072982E0,-1.9813693E-1,-7.313407E0,1.6559653E0,-1.6314721E0,-1.6217873E0,3.4505537E0,-2.8667623E-1,-4.109572E0,-5.342626E0,1.6034043E-1,-4.4131103E0,-2.2579608E0,-2.1081035E-1,-9.157695E0,-2.3888178E0,-5.647225E-1,3.054819E0,-2.5518724E-1,3.7998736E-1,3.1410418E0,4.63375E0,-5.145417E-1,1.6356071E0,6.4649284E-1,-2.8679473E0,1.0605464E0,-1.3432811E-1,4.2538953E0,-2.604167E0,1.3638572E0,1.765892E-1,-7.70315E-1,-1.1991683E0,1.8135389E0,1.4340476E0,-1.076521E-1,-8.9892226E-1,2.3670893E0,-1.496199E0,-4.694297E-1,-5.3532753E0,-1.1283668E0,-2.732185E-2,2.8502054E0,-1.4633492E0,-5.6139636E-1,-3.2419243E0,3.1470597E0,-4.0836887E0,-2.2712595E0,3.1316143E-1,-2.1784627E0,-9.275551E-2,1.8464047E0],"categories":[],"categories_nodes":[],"categories_segments":[],"categories_sizes":[],"default_left":[0,0,0,0,0,0,0,0,0,0,0,0,0,0,0,0,0,0,0,0,0,0,0,0,0,0,0,0,0,0,0,0,0,0,0,0,0,0,0,0,0,0,0,0,0,0,0,0,0,0,0,0,0,0,0,0,0,0,0,0,0,0,0,0,0,0,0,0,0,0,0,0,0,0,0,0,0,0,0,0,0,0,0,0,0,0,0,0,0],"id":6,"left_children":[1,3,5,7,9,11,13,15,17,19,21,23,25,27,29,31,-1,33,35,37,-1,39,41,43,45,47,-1,49,-1,51,53,55,57,59,-1,61,63,-1,65,67,69,71,73,75,77,-1,79,81,83,-1,-1,-1,-1,85,87,-1,-1,-1,-1,-1,-1,-1,-1,-1,-1,-1,-1,-1,-1,-1,-1,-1,-1,-1,-1,-1,-1,-1,-1,-1,-1,-1,-1,-1,-1,-1,-1,-1,-1],"loss_changes":[1.9193413E3,2.0010364E3,8.454543E2,1.7794641E3,5.4906006E2,7.0215283E2,2.9138757E2,1.8958545E3,7.524777E2,1.3086884E2,2.2174963E2,6.788008E2,5.814441E2,6.928699E1,2.0058752E2,7.604939E2,0E0,1.0272848E3,6.119155E2,9.796386E1,0E0,1.1888544E2,2.5296936E2,1.0358169E3,6.05469E2,1.4206384E2,0E0,7.011032E0,0E0,1.1153604E2,2.1683398E2,5.150558E2,6.733386E2,1.5937958E2,0E0,6.308407E2,2.5024335E2,0E0,9.825672E0,2.2449908E2,4.2235214E1,5.3326276E2,1.7982886E2,6.8414795E2,8.063275E2,0E0,2.7145776E2,4.5351236E2,3.8317017E1,0E0,0E0,0E0,0E0,4.4386578E2,4.490059E2,0E0,0E0,0E0,0E0,0E0,0E0,0E0,0E0,0E0,0E0,0E0,0E0,0E0,0E0,0E0,0E0,0E0,0E0,0E0,0E0,0E0,0E0,0E0,0E0,0E0,0E0,0E0,0E0,0E0,0E0,0E0,0E0,0E0,0E0],"parents":[2147483647,0,0,1,1,2,2,3,3,4,4,5,5,6,6,7,7,8,8,9,9,10,10,11,11,12,12,13,13,14,14,15,15,17,17,18,18,19,19,21,21,22,22,23,23,24,24,25,25,27,27,29,29,30,30,31,31,32,32,33,33,35,35,36,36,38,38,39,39,40,40,41,41,42,42,43,43,44,44,46,46,47,47,48,48,53,53,54,54],"right_children":[2,4,6,8,10,12,14,16,18,20,22,24,26,28,30,32,-1,34,36,38,-1,40,42,44,46,48,-1,50,-1,52,54,56,58,60,-1,62,64,-1,66,68,70,72,74,76,78,-1,80,82,84,-1,-1,-1,-1,86,88,-1,-1,-1,-1,-1,-1,-1,-1,-1,-1,-1,-1,-1,-1,-1,-1,-1,-1,-1,-1,-1,-1,-1,-1,-1,-1,-1,-1,-1,-1,-1,-1,-1,-1],"split_conditions":[1.2381584E1,3.065814E2,2.3879503E1,2.6E0,6.297428E0,1.3896187E1,1.6010448E2,2.4E0,5.149167E-1,8.48575E0,1E-1,2.7612595E2,2.08295E1,2.655242E1,5.771239E0,1.6010448E2,8.555135E0,3.7E0,1.1837833E1,1.3E0,3.257258E0,3.1324402E2,3.6232498E0,1.6356752E2,2.778123E2,1.7695822E2,2.1117697E0,6.9153743E0,3.2181132E-1,2.7064919E1,9.659814E0,5E-1,3.9503334E0,3.5658336E-1,7.072982E0,1.1777417E1,2.9055612E2,1.6559653E0,2.5211666E0,1.1966953E1,1.2475961E1,3.22897E2,1.3684735E1,1.2750333E1,1.2768586E1,-4.4131103E0,2.8903952E2,1.44045E1,1.8471838E2,-2.3888178E0,-5.647225E-1,3.054819E0,-2.5518724E-1,8.766573E0,2.6200335E1,4.63375E0,-5.145417E-1,1.6356071E0,6.4649284E-1,-2.8679473E0,1.0605464E0,-1.3432811E-1,4.2538953E0,-2.604167E0,1.3638572E0,1.765892E-1,-7.70315E-1,-1.1991683E0,1.8135389E0,1.4340476E0,-1.076521E-1,-8.9892226E-1,2.3670893E0,-1.496199E0,-4.694297E-1,-5.3532753E0,-1.1283668E0,-2.732185E-2,2.8502054E0,-1.4633492E0,-5.6139636E-1,-3.2419243E0,3.1470597E0,-4.0836887E0,-2.2712595E0,3.1316143E-1,-2.1784627E0,-9.275551E-2,1.8464047E0],"split_indices":[0,3,0,1,2,2,3,1,0,0,1,3,0,0,2,3,0,1,0,1,0,3,0,3,3,3,0,2,0,0,2,1,0,0,0,0,3,0,0,2,2,3,2,0,2,0,3,0,3,0,0,0,0,2,0,0,0,0,0,0,0,0,0,0,0,0,0,0,0,0,0,0,0,0,0,0,0,0,0,0,0,0,0,0,0,0,0,0,0],"split_type":[0,0,0,0,0,0,0,0,0,0,0,0,0,0,0,0,0,0,0,0,0,0,0,0,0,0,0,0,0,0,0,0,0,0,0,0,0,0,0,0,0,0,0,0,0,0,0,0,0,0,0,0,0,0,0,0,0,0,0,0,0,0,0,0,0,0,0,0,0,0,0,0,0,0,0,0,0,0,0,0,0,0,0,0,0,0,0,0,0],"sum_hessian":[1.494E3,6.77E2,8.17E2,5.47E2,1.3E2,6.81E2,1.36E2,3.58E2,1.89E2,8E0,1.22E2,6.58E2,2.3E1,5E0,1.31E2,3.56E2,2E0,4E0,1.85E2,6E0,2E0,1.7E1,1.05E2,3.79E2,2.79E2,2.1E1,2E0,4E0,1E0,4E0,1.27E2,9E0,3.47E2,2E0,2E0,1.73E2,1.2E1,3E0,3E0,1E1,7E0,2.2E1,8.3E1,3.7E1,3.42E2,3E0,2.76E2,2E0,1.9E1,3E0,1E0,3E0,1E0,8.5E1,4.2E1,7E0,2E0,8.1E1,2.66E2,1E0,1E0,1.71E2,2E0,1.1E1,1E0,1E0,2E0,8E0,2E0,5E0,2E0,1.7E1,5E0,6.1E1,2.2E1,3E0,3.4E1,3.34E2,8E0,3.4E1,2.42E2,1E0,1E0,3E0,1.6E1,7.9E1,6E0,2E1,2.2E1],"tree_param":{"num_deleted":"0","num_feature":"4","num_nodes":"89","size_leaf_vector":"1"}},{"base_weights":[2.8397735E-2,1.2461137E0,-5.9961224E-1,1.9935874E0,-1.4519773E0,-9.696475E0,-5.4341996E-1,2.7947676E0,-3.3878528E-2,2.6487264E-1,-2.4613447E0,-5.417633E-1,-3.2740257E0,-5.239342E0,-4.353516E-1,2.4582014E0,9.673564E0,5.658385E0,-5.396964E-1,-9.197901E-1,1.1749116E1,1.30379E0,-2.9681973E0,-7.1530046E0,-9.963069E-1,2.8687316E-1,-1.1967697E0,8.212667E0,2.0932221E0,1.5092385E0,1.31344595E1,-9.497607E0,1.4795104E-1,3.3015687E0,-1.7873573E0,1.3767889E0,4.984287E0,2.304466E0,-4.536245E-1,-2.1045282E0,-7.8204126E0,-1.1083402E1,-3.3012514E0,2.2044725E0,-3.2381341E0,1.2760469E0,-1.3722118E0,-5.879027E0,-8.626448E-1,-1.8775292E-1,3.0901396E0,7.2627836E-1,-2.1836123E0,-1.0199559E0,1.0759424E0,7.480296E-1,6.344579E0,-2.2866479E-1,-3.6847107E0,9.767084E-1,-6.711355E-1,1.53613E0,-2.4911843E-1,-1.0756615E0,1.04191735E-1,-7.623369E-1,3.9212975E-1,-7.658512E-1,8.3983994E-1,-8.6964095E-1,-2.6437418E0,-4.3562813E0,-1.4625047E0,-3.6634684E-1,-1.6788244E0,-2.4353553E-1,-1.8608013E0,1.03208E0,1.2079837E-1,-9.924225E-1,2.3976871E-1,-2.0958254E0,2.0346625E0,-3.1677473E-1,2.0207324E0],"categories":[],"categories_nodes":[],"categories_segments":[],"categories_sizes":[],"default_left":[0,0,0,0,0,0,0,0,0,0,0,0,0,0,0,0,0,0,0,0,0,0,0,0,0,0,0,0,0,0,0,0,0,0,0,0,0,0,0,0,0,0,0,0,0,0,0,0,0,0,0,0,0,0,0,0,0,0,0,0,0,0,0,0,0,0,0,0,0,0,0,0,0,0,0,0,0,0,0,0,0,0,0,0,0],"id":7,"left_children":[1,3,5,7,9,11,13,15,17,19,21,-1,-1,23,25,27,29,-1,31,33,35,37,39,41,43,45,47,49,51,53,55,57,59,61,63,-1,-1,-1,65,67,69,71,73,-1,75,77,79,81,83,-1,-1,-1,-1,-1,-1,-1,-1,-1,-1,-1,-1,-1,-1,-1,-1,-1,-1,-1,-1,-1,-1,-1,-1,-1,-1,-1,-1,-1,-1,-1,-1,-1,-1,-1,-1],"loss_changes":[1.1440302E3,1.0294213E3,4.9925864E2,6.482168E2,1.9300745E2,3.790619E1,4.9606503E2,6.383589E2,1.0997355E3,5.822149E2,1.3745572E2,0E0,0E0,1.7150769E2,5.2881177E2,5.582805E2,3.4750354E2,0E0,6.9131226E2,1.487313E2,6.3087097E1,1.043599E2,2.4336566E2,1.9049469E2,1.7345088E2,8.124659E2,7.270953E2,3.0169482E2,8.130713E2,6.3180187E1,7.14775E2,1.8524597E2,7.8556256E2,5.686035E1,1.27916115E2,0E0,0E0,0E0,3.272556E1,1.2586583E2,1.8397095E1,7.860101E1,3.6127495E1,0E0,4.5315773E1,5.8457635E2,7.803122E2,4.8189917E2,6.5033887E2,0E0,0E0,0E0,0E0,0E0,0E0,0E0,0E0,0E0,0E0,0E0,0E0,0E0,0E0,0E0,0E0,0E0,0E0,0E0,0E0,0E0,0E0,0E0,0E0,0E0,0E0,0E0,0E0,0E0,0E0,0E0,0E0,0E0,0E0,0E0,0E0],"parents":[2147483647,0,0,1,1,2,2,3,3,4,4,5,5,6,6,7,7,8,8,9,9,10,10,13,13,14,14,15,15,16,16,18,18,19,19,20,20,21,21,22,22,23,23,24,24,25,25,26,26,27,27,28,28,29,29,30,30,31,31,32,32,33,33,34,34,38,38,39,39,40,40,41,41,42,42,44,44,45,45,46,46,47,47,48,48],"right_children":[2,4,6,8,10,12,14,16,18,20,22,-1,-1,24,26,28,30,-1,32,34,36,38,40,42,44,46,48,50,52,54,56,58,60,62,64,-1,-1,-1,66,68,70,72,74,-1,76,78,80,82,84,-1,-1,-1,-1,-1,-1,-1,-1,-1,-1,-1,-1,-1,-1,-1,-1,-1,-1,-1,-1,-1,-1,-1,-1,-1,-1,-1,-1,-1,-1,-1,-1,-1,-1,-1,-1],"split_conditions":[9.708667E0,3.065814E2,9.810751E0,4.1E0,9.957108E0,6.519877E0,5.0911684E0,3.0999997E0,3.5658336E-1,9.659814E0,2.3232498E0,-5.417633E-1,-3.2740257E0,7.7E0,2.399668E2,1.7441286E2,2.031986E2,5.658385E0,2.3232498E0,5.937272E0,4.2E0,1.0514218E1,8.8E0,2.2828395E2,7.8999996E0,8E-1,2.5014468E2,1.5547234E2,2.6000001E0,6.656584E0,3.9503334E0,6E0,6.2503333E0,5.1E0,4.6E0,1.3767889E0,4.984287E0,2.304466E0,3.1178125E2,6.200001E0,1.0587918E1,1E-1,1E-1,2.2044725E0,4.3498964E0,1.4192E1,1.9301822E2,4.3999996E0,2.7371168E1,-1.8775292E-1,3.0901396E0,7.2627836E-1,-2.1836123E0,-1.0199559E0,1.0759424E0,7.480296E-1,6.344579E0,-2.2866479E-1,-3.6847107E0,9.767084E-1,-6.711355E-1,1.53613E0,-2.4911843E-1,-1.0756615E0,1.04191735E-1,-7.623369E-1,3.9212975E-1,-7.658512E-1,8.3983994E-1,-8.6964095E-1,-2.6437418E0,-4.3562813E0,-1.4625047E0,-3.6634684E-1,-1.6788244E0,-2.4353553E-1,-1.8608013E0,1.03208E0,1.2079837E-1,-9.924225E-1,2.3976871E-1,-2.0958254E0,2.0346625E0,-3.1677473E-1,2.0207324E0],"split_indices":[0,3,0,1,2,2,2,1,0,2,0,0,0,1,3,3,3,0,0,2,1,2,1,3,1,1,3,3,1,0,0,1,0,1,1,0,0,0,3,1,2,1,1,0,2,0,3,1,0,0,0,0,0,0,0,0,0,0,0,0,0,0,0,0,0,0,0,0,0,0,0,0,0,0,0,0,0,0,0,0,0,0,0,0,0],"split_type":[0,0,0,0,0,0,0,0,0,0,0,0,0,0,0,0,0,0,0,0,0,0,0,0,0,0,0,0,0,0,0,0,0,0,0,0,0,0,0,0,0,0,0,0,0,0,0,0,0,0,0,0,0,0,0,0,0,0,0,0,0,0,0,0,0,0,0,0,0,0,0,0,0,0,0,0,0,0,0,0,0,0,0,0,0],"sum_hessian":[1.494E3,5.08E2,9.86E2,3.98E2,1.1E2,5E0,9.81E2,2.85E2,1.13E2,4.1E1,6.9E1,1E0,4E0,2.1E1,9.6E2,2.73E2,1.2E1,2E0,1.11E2,3.8E1,3E0,8E0,6.1E1,1.4E1,7E0,4.93E2,4.67E2,1.5E1,2.58E2,4E0,8E0,7E0,1.04E2,6E0,3.2E1,2E0,1E0,1E0,7E0,5.3E1,8E0,6E0,8E0,1E0,6E0,3.09E2,1.84E2,3E1,4.37E2,3E0,1.2E1,2.5E2,8E0,1E0,3E0,4E0,4E0,2E0,5E0,4.5E1,5.9E1,4E0,2E0,1.7E1,1.5E1,3E0,4E0,4.9E1,4E0,2E0,6E0,3E0,3E0,5E0,3E0,4E0,2E0,8.8E1,2.21E2,9.7E1,8.7E1,2.8E1,2E0,4.27E2,1E1],"tree_param":{"num_deleted":"0","num_feature":"4","num_nodes":"85","size_leaf_vector":"1"}},{"base_weights":[2.4077946E-2,2.7050015E-1,-1.7440994E0,1.4430434E0,-1.6887325E-1,1.3351999E1,-2.1560345E0,2.5124664E0,1.6267426E-1,-4.4990535E0,-1.4041188E-2,5.9764576E0,2.3318074E0,-5.579605E0,-1.5377833E0,1.7479044E0,5.25604E0,7.9514008E0,-2.8771812E-1,7.07515E0,-6.8185596E0,6.542683E0,-1.2210363E-1,1.2580851E0,-2.0877172E-1,-6.3198066E0,2.4486084E0,-2.1456048E0,3.1400785E0,-1.0049144E0,3.2024026E0,8.230868E-1,9.649798E0,1.3945014E1,-3.0268688E0,-8.919587E0,1.17020525E-1,4.3127627E0,-1.6918087E-1,-1.1574149E1,-3.956746E0,-6.0523796E0,1.3445453E1,-4.7703195E0,2.5429944E-2,-1.1340475E-1,-7.1609793E0,2.2794561E0,-1.1775823E0,-4.73589E0,-1.3030566E0,3.8599684E0,-1.3647071E0,-4.1545544E0,4.5894298E-1,1.9978433E0,1.2508513E-1,1.112461E0,-5.6056156E0,3.6317647E0,-1.1445079E0,-2.3492832E-1,5.1141768E0,1.8746853E-1,-1.3357265E0,-4.069658E0,2.8434072E0,6.528586E-1,-4.1973594E-1,5.852524E-1,-9.793871E-1,-4.086686E0,-1.528911E0,1.463536E0,-1.7754748E0,1.3844795E0,-3.7619307E0,5.342643E0,-8.015954E-1,-2.1811392E0,-5.25257E-1,6.850158E-1,-4.7035027E-2,-6.7365324E-1,9.42437E-1,-4.2693514E-1,-2.5070994E0,-2.274687E0,-3.71309E-1,3.3790586E0,-5.363525E-1,1.3524805E0,-9.7692436E-1],"categories":[],"categories_nodes":[],"categories_segments":[],"categories_sizes":[],"default_left":[0,0,0,0,0,0,0,0,0,0,0,0,0,0,0,0,0,0,0,0,0,0,0,0,0,0,0,0,0,0,0,0,0,0,0,0,0,0,0,0,0,0,0,0,0,0,0,0,0,0,0,0,0,0,0,0,0,0,0,0,0,0,0,0,0,0,0,0,0,0,0,0,0,0,0,0,0,0,0,0,0,0,0,0,0,0,0,0,0,0,0,0,0],"id":8,"left_children":[1,3,5,7,9,11,13,15,17,19,21,-1,23,25,27,29,31,33,35,37,39,41,43,-1,-1,45,47,49,51,53,55,57,59,61,63,65,67,-1,69,71,73,75,77,79,81,83,85,-1,-1,87,89,91,-1,-1,-1,-1,-1,-1,-1,-1,-1,-1,-1,-1,-1,-1,-1,-1,-1,-1,-1,-1,-1,-1,-1,-1,-1,-1,-1,-1,-1,-1,-1,-1,-1,-1,-1,-1,-1,-1,-1,-1,-1],"loss_changes":[6.518704E2,6.766807E2,1.1667937E3,4.8978503E2,6.4088776E2,3.1553406E2,3.7029602E2,3.9985132E2,5.77597E2,9.341746E2,6.5548584E2,0E0,1.9829437E1,1.7592212E2,4.4176303E2,6.198295E2,8.101051E2,6.3440515E2,5.4605334E2,3.1976532E2,3.3527307E2,1.3854893E3,6.2417017E2,0E0,0E0,1.2970428E2,1.2829338E2,2.9064075E2,1.1719461E2,1.7791547E3,9.6980444E2,1.3075417E3,7.406698E2,2.8749036E2,2.3605427E1,7.268937E2,4.7134442E2,0E0,3.261839E1,6.3249634E1,3.5814706E2,4.7308813E2,7.508462E2,1.9864502E2,3.6365048E2,3.4813015E1,1.3908398E2,0E0,0E0,3.1920502E2,6.537149E2,9.3111115E1,0E0,0E0,0E0,0E0,0E0,0E0,0E0,0E0,0E0,0E0,0E0,0E0,0E0,0E0,0E0,0E0,0E0,0E0,0E0,0E0,0E0,0E0,0E0,0E0,0E0,0E0,0E0,0E0,0E0,0E0,0E0,0E0,0E0,0E0,0E0,0E0,0E0,0E0,0E0,0E0,0E0],"parents":[2147483647,0,0,1,1,2,2,3,3,4,4,5,5,6,6,7,7,8,8,9,9,10,10,12,12,13,13,14,14,15,15,16,16,17,17,18,18,19,19,20,20,21,21,22,22,25,25,26,26,27,27,28,28,29,29,30,30,31,31,32,32,33,33,34,34,35,35,36,36,38,38,39,39,40,40,41,41,42,42,43,43,44,44,45,45,46,46,49,49,50,50,51,51],"right_children":[2,4,6,8,10,12,14,16,18,20,22,-1,24,26,28,30,32,34,36,38,40,42,44,-1,-1,46,48,50,52,54,56,58,60,62,64,66,68,-1,70,72,74,76,78,80,82,84,86,-1,-1,88,90,92,-1,-1,-1,-1,-1,-1,-1,-1,-1,-1,-1,-1,-1,-1,-1,-1,-1,-1,-1,-1,-1,-1,-1,-1,-1,-1,-1,-1,-1,-1,-1,-1,-1,-1,-1,-1,-1,-1,-1,-1,-1],"split_conditions":[1.191812E1,8.335751E0,1.7580246E2,1.1000001E0,8.77325E0,1.4523248E1,1.9076695E2,6.969084E0,5.2416787E0,1.8239836E2,9.062834E0,5.9764576E0,2.0142E1,2.655242E1,2.1881584E1,2.5014468E2,2.1793332E2,1.5200001E1,5.634891E0,1E-1,2.3085602E2,6.8399997E0,5.0911684E0,1.2580851E0,-2.0877172E-1,1.2313893E1,2.8689919E1,2.9485516E2,3.2134018E2,2.1878333E0,2.778123E2,2.1175941E2,9.957108E0,2.1118488E2,4.1046314E0,7.112833E0,2.4498314E2,4.3127627E0,8.742E0,8.671166E0,2.4794888E2,5.991594E0,6.4E0,4.2000003E0,5.8603754E0,1.30295E1,1.8027948E2,2.2794561E0,-1.1775823E0,1.2979984E1,3.0032574E2,2.3199999E1,-1.3647071E0,-4.1545544E0,4.5894298E-1,1.9978433E0,1.2508513E-1,1.112461E0,-5.6056156E0,3.6317647E0,-1.1445079E0,-2.3492832E-1,5.1141768E0,1.8746853E-1,-1.3357265E0,-4.069658E0,2.8434072E0,6.528586E-1,-4.1973594E-1,5.852524E-1,-9.793871E-1,-4.086686E0,-1.528911E0,1.463536E0,-1.7754748E0,1.3844795E0,-3.7619307E0,5.342643E0,-8.015954E-1,-2.1811392E0,-5.25257E-1,6.850158E-1,-4.7035027E-2,-6.7365324E-1,9.42437E-1,-4.2693514E-1,-2.5070994E0,-2.274687E0,-3.71309E-1,3.3790586E0,-5.363525E-1,1.3524805E0,-9.7692436E-1],"split_indices":[2,0,3,1,0,0,3,0,2,3,0,0,0,0,0,3,3,1,2,1,3,2,2,0,0,2,0,3,3,0,3,3,2,3,2,0,3,0,0,0,3,2,1,1,2,0,3,0,0,2,3,1,0,0,0,0,0,0,0,0,0,0,0,0,0,0,0,0,0,0,0,0,0,0,0,0,0,0,0,0,0,0,0,0,0,0,0,0,0,0,0,0,0],"split_type":[0,0,0,0,0,0,0,0,0,0,0,0,0,0,0,0,0,0,0,0,0,0,0,0,0,0,0,0,0,0,0,0,0,0,0,0,0,0,0,0,0,0,0,0,0,0,0,0,0,0,0,0,0,0,0,0,0,0,0,0,0,0,0,0,0,0,0,0,0,0,0,0,0,0,0,0,0,0,0,0,0,0,0,0,0,0,0,0,0,0,0,0,0],"sum_hessian":[1.494E3,1.312E3,1.82E2,3.57E2,9.55E2,4E0,1.78E2,1.94E2,1.63E2,3.2E1,9.23E2,2E0,2E0,2.6E1,1.52E2,1.53E2,4.1E1,8E0,1.55E2,5E0,2.7E1,1.4E1,9.09E2,1E0,1E0,2.4E1,2E0,1.35E2,1.7E1,5.3E1,1E2,2.1E1,2E1,5E0,3E0,6E0,1.49E2,2E0,3E0,9E0,1.8E1,5E0,9E0,2.7E1,8.82E2,3E0,2.1E1,1E0,1E0,3.2E1,1.03E2,1.6E1,1E0,8E0,4.5E1,4.4E1,5.6E1,1.9E1,2E0,1.7E1,3E0,1E0,4E0,1E0,2E0,5E0,1E0,6.3E1,8.6E1,2E0,1E0,6E0,3E0,3E0,1.5E1,2E0,3E0,7E0,2E0,1.4E1,1.3E1,6.5E1,8.17E2,2E0,1E0,4E0,1.7E1,1.7E1,1.5E1,3E0,1E2,1.5E1,1E0],"tree_param":{"num_deleted":"0","num_feature":"4","num_nodes":"93","size_leaf_vector":"1"}},{"base_weights":[1.8135922E-2,4.530862E-1,-6.92519E-1,3.095677E-1,5.8460517E0,-1.1908917E0,8.8404715E-1,9.318313E-1,-7.5199074E-1,1.2191427E0,8.08331E0,-7.7062494E-1,-2.8975031E0,-1.656223E0,1.6425811E0,8.280843E-1,4.629283E0,-8.341302E0,-2.4364938E-1,6.101693E0,-2.2390814E0,3.2642546E0,3.9256659E0,-4.985349E0,-5.9218687E-1,-4.5271134E0,-7.627982E-1,5.591243E-1,-1.1349249E1,6.6405025E0,9.3390495E-1,1.0155293E0,-6.150088E0,-5.93503E-1,-1.0725395E1,9.519645E0,-5.9496933E-1,2.1076825E0,4.994923E-1,-1.4349191E0,1.8992552E0,-2.5114484E0,6.8783307E0,4.890175E-1,-3.1588728E0,8.359863E0,-6.982592E-1,-7.6762805E0,-3.1381004E0,-1.7063531E0,5.805934E0,-3.829739E0,2.2867134E0,-4.510023E0,-2.653951E0,-4.8494798E-1,7.463293E0,6.367265E0,3.5443813E-1,-1.393394E0,3.4162375E-1,-2.822631E0,-1.232931E0,4.112737E0,-1.8587561E0,-2.004252E-1,-4.206648E0,4.9687595E0,-6.732968E-1,-1.2758555E-1,-2.3273742E0,1.3437092E0,-4.890444E-1,2.7011988E0,-8.813487E-1,2.0619454E0,-8.353657E-1,2.9026613E0,6.6192627E-1,-5.432382E-1,-4.1653946E-2,-2.298463E-1,-2.847363E0,-2.0516243E0,-7.3199785E-1,3.9936584E-1,-1.0271162E0,2.4800263E-1,2.6549644E0,2.508316E-1,-1.6573116E0,3.3792543E-1,1.9938871E0,-1.9333306E-1,-1.000945E0,2.3995206E0,2.365637E-1,2.9713708E-1,3.8521984E0,1.9730148E0,-8.787436E-3],"categories":[],"categories_nodes":[],"categories_segments":[],"categories_sizes":[],"default_left":[0,0,0,0,0,0,0,0,0,0,0,0,0,0,0,0,0,0,0,0,0,0,0,0,0,0,0,0,0,0,0,0,0,0,0,0,0,0,0,0,0,0,0,0,0,0,0,0,0,0,0,0,0,0,0,0,0,0,0,0,0,0,0,0,0,0,0,0,0,0,0,0,0,0,0,0,0,0,0,0,0,0,0,0,0,0,0,0,0,0,0,0,0,0,0,0,0,0,0,0,0],"id":9,"left_children":[1,3,5,7,9,11,13,15,17,19,21,23,25,27,29,31,-1,33,35,37,39,-1,41,43,45,47,49,51,53,55,57,59,61,63,65,67,69,-1,-1,-1,71,-1,73,75,-1,77,79,81,83,85,87,89,91,-1,93,-1,95,97,99,-1,-1,-1,-1,-1,-1,-1,-1,-1,-1,-1,-1,-1,-1,-1,-1,-1,-1,-1,-1,-1,-1,-1,-1,-1,-1,-1,-1,-1,-1,-1,-1,-1,-1,-1,-1,-1,-1,-1,-1,-1,-1],"loss_changes":[4.624176E2,7.1645337E2,4.473404E2,5.985158E2,2.385835E2,3.0761145E2,2.6670322E2,8.461422E2,1.2903844E3,1.6562677E2,1.4338416E2,2.587672E2,2.9223932E2,6.9349506E2,3.6924063E2,7.4920276E2,0E0,3.8153552E2,1.0861267E3,4.6991425E0,7.225138E1,0E0,3.4805707E2,4.300649E2,3.239416E2,1.8587433E2,2.4542941E2,2.1347565E2,1.5231134E2,1.00383484E2,2.9369766E2,3.9166376E2,6.1063293E1,5.6570966E2,5.211372E2,9.4854663E2,3.6740945E2,0E0,0E0,0E0,3.4616688E1,0E0,1.7251328E2,1.8632991E2,0E0,1.103537E1,2.0637411E2,1.683078E2,7.373428E1,1.819231E2,6.846701E1,6.787408E1,9.368141E1,0E0,1.9644852E0,0E0,3.6553467E1,3.005378E2,2.0553246E2,0E0,0E0,0E0,0E0,0E0,0E0,0E0,0E0,0E0,0E0,0E0,0E0,0E0,0E0,0E0,0E0,0E0,0E0,0E0,0E0,0E0,0E0,0E0,0E0,0E0,0E0,0E0,0E0,0E0,0E0,0E0,0E0,0E0,0E0,0E0,0E0,0E0,0E0,0E0,0E0,0E0,0E0],"parents":[2147483647,0,0,1,1,2,2,3,3,4,4,5,5,6,6,7,7,8,8,9,9,10,10,11,11,12,12,13,13,14,14,15,15,17,17,18,18,19,19,20,20,22,22,23,23,24,24,25,25,26,26,27,27,28,28,29,29,30,30,31,31,32,32,33,33,34,34,35,35,36,36,40,40,42,42,43,43,45,45,46,46,47,47,48,48,49,49,50,50,51,51,52,52,54,54,56,56,57,57,58,58],"right_children":[2,4,6,8,10,12,14,16,18,20,22,24,26,28,30,32,-1,34,36,38,40,-1,42,44,46,48,50,52,54,56,58,60,62,64,66,68,70,-1,-1,-1,72,-1,74,76,-1,78,80,82,84,86,88,90,92,-1,94,-1,96,98,100,-1,-1,-1,-1,-1,-1,-1,-1,-1,-1,-1,-1,-1,-1,-1,-1,-1,-1,-1,-1,-1,-1,-1,-1,-1,-1,-1,-1,-1,-1,-1,-1,-1,-1,-1,-1,-1,-1,-1,-1,-1,-1],"split_conditions":[1.6310751E1,1.5914914E1,2.3879503E1,2.8087497E2,6.3690495E0,1.0990322E1,1.8331085E2,2.7981924E2,2.836214E2,1.6054499E1,2.9552338E2,1.5665125E2,2.0071167E1,1.815551E2,1.8915018E2,1.3570615E1,4.629283E0,2.8159216E2,2.8515732E2,5.8048253E0,6.193674E0,3.2642546E0,2.987162E2,6.5693827E0,1.6137206E2,2.1360788E2,3.1991467E2,1.6200821E2,7.968939E0,5.937272E0,2.4119085E1,1.21166624E-1,4E-1,7.42159E0,5.0142193E0,9.992E0,2.3400002E1,2.1076825E0,4.994923E-1,-1.4349191E0,1.6162832E1,-2.5114484E0,1.2313893E1,1E-1,-3.1588728E0,1E-1,6.9247384E0,1.1435313E1,1.1159999E1,2.3576807E2,2.1485756E1,6.5693827E0,2.7371168E1,-4.510023E0,2.4992002E1,-4.8494798E-1,1.3570615E1,2.673826E2,5.815978E0,-1.393394E0,3.4162375E-1,-2.822631E0,-1.232931E0,4.112737E0,-1.8587561E0,-2.004252E-1,-4.206648E0,4.9687595E0,-6.732968E-1,-1.2758555E-1,-2.3273742E0,1.3437092E0,-4.890444E-1,2.7011988E0,-8.813487E-1,2.0619454E0,-8.353657E-1,2.9026613E0,6.6192627E-1,-5.432382E-1,-4.1653946E-2,-2.298463E-1,-2.847363E0,-2.0516243E0,-7.3199785E-1,3.9936584E-1,-1.0271162E0,2.4800263E-1,2.6549644E0,2.508316E-1,-1.6573116E0,3.3792543E-1,1.9938871E0,-1.9333306E-1,-1.000945E0,2.3995206E0,2.365637E-1,2.9713708E-1,3.8521984E0,1.9730148E0,-8.787436E-3],"split_indices":[0,0,0,3,2,2,3,3,3,0,3,3,0,3,3,2,0,3,3,2,2,0,3,2,3,3,3,3,2,2,0,0,1,2,2,0,1,0,0,0,0,0,2,1,0,1,2,2,2,3,0,2,0,0,0,0,2,3,2,0,0,0,0,0,0,0,0,0,0,0,0,0,0,0,0,0,0,0,0,0,0,0,0,0,0,0,0,0,0,0,0,0,0,0,0,0,0,0,0,0,0],"split_type":[0,0,0,0,0,0,0,0,0,0,0,0,0,0,0,0,0,0,0,0,0,0,0,0,0,0,0,0,0,0,0,0,0,0,0,0,0,0,0,0,0,0,0,0,0,0,0,0,0,0,0,0,0,0,0,0,0,0,0,0,0,0,0,0,0,0,0,0,0,0,0,0,0,0,0,0,0,0,0,0,0,0,0,0,0,0,0,0,0,0,0,0,0,0,0,0,0,0,0,0,0],"sum_hessian":[1.494E3,9.27E2,5.67E2,9.04E2,2.3E1,4.31E2,1.36E2,5.7E2,3.34E2,8E0,1.5E1,3.47E2,8.4E1,3.1E1,1.05E2,5.67E2,3E0,2E1,3.14E2,3E0,5E0,8E0,7E0,1.3E1,3.34E2,4.7E1,3.7E1,2.6E1,5E0,1.2E1,9.3E1,5.53E2,1.4E1,5E0,1.5E1,1E1,3.04E2,2E0,1E0,3E0,2E0,1E0,6E0,7E0,6E0,3E0,3.31E2,1.3E1,3.4E1,3.3E1,4E0,7E0,1.9E1,3E0,2E0,1E0,1.1E1,8E0,8.5E1,1.1E1,5.42E2,4E0,1E1,1E0,4E0,4E0,1.1E1,6E0,4E0,2.98E2,6E0,1E0,1E0,5E0,1E0,2E0,5E0,2E0,1E0,1.1E2,2.21E2,3E0,1E1,4E0,3E1,1.2E1,2.1E1,2E0,2E0,2E0,5E0,1.6E1,3E0,1E0,1E0,1E1,1E0,5E0,3E0,4E0,8.1E1],"tree_param":{"num_deleted":"0","num_feature":"4","num_nodes":"101","size_leaf_vector":"1"}},{"base_weights":[1.5876846E-2,2.6470175E0,-9.407044E-2,-4.658239E0,3.8604846E0,-5.436429E0,-4.523285E-2,1.0460839E1,-1.0472381E1,2.0612654E1,1.2273178E0,-6.8547792E0,-1.7961133E0,5.7029456E-4,-5.434784E0,4.958311E0,-2.509329E-1,-4.187186E0,-4.369382E0,2.0029857E0,8.296778E0,3.8816032E0,-1.3675107E0,-7.747883E-1,-2.3119342E0,4.5149377E-1,-2.997631E0,4.1647807E-1,-5.802917E-1,1.0779568E0,-6.5821624E0,1.1808277E0,-2.5349715E0,1.8756719E0,-9.743283E-1,-3.4211097E0,5.599075E0,-3.1984746E0,3.5360413E0,1.0906563E-1,-1.271763E0,1.197097E0,-5.979644E-1,-5.1054134E0,-3.960345E-1,-7.940427E0,1.0500727E0,-5.2139856E-2,-2.4615526E0,2.3850424E0,8.064303E-1,1.3619523E0,-1.5146382E0,3.2771606E0,-4.8115894E-1,6.3899174E-2,7.282143E-1,-1.9180607E0,-1.0852E-1,-3.4818373E0,-1.0650003E0,-1.3451041E0,-7.623146E-2,-2.9015365E0,-2.0299645E-1],"categories":[],"categories_nodes":[],"categories_segments":[],"categories_sizes":[],"default_left":[0,0,0,0,0,0,0,0,0,0,0,0,0,0,0,0,0,0,0,0,0,0,0,0,0,0,0,0,0,0,0,0,0,0,0,0,0,0,0,0,0,0,0,0,0,0,0,0,0,0,0,0,0,0,0,0,0,0,0,0,0,0,0,0,0],"id":10,"left_children":[1,3,5,7,9,11,13,15,17,19,21,23,25,27,29,-1,-1,-1,31,33,-1,35,37,-1,-1,-1,39,41,43,-1,45,-1,-1,-1,-1,47,49,51,53,-1,-1,55,57,59,61,63,-1,-1,-1,-1,-1,-1,-1,-1,-1,-1,-1,-1,-1,-1,-1,-1,-1,-1,-1],"loss_changes":[4.3273273E2,5.4986426E2,3.744179E2,9.006902E2,2.268487E3,5.481021E1,3.5152945E2,2.1944168E2,8.78938E1,8.6211597E2,3.2212924E2,1.2843201E1,2.4342978E1,3.4160135E2,1.4795297E2,0E0,0E0,0E0,1.688223E2,8.724104E1,0E0,3.0762567E2,2.2678738E2,0E0,0E0,0E0,1.823386E1,6.5323553E2,4.8991193E2,0E0,1.7843375E2,0E0,0E0,0E0,0E0,7.625067E1,1.0866321E2,2.8065106E2,2.8332944E2,0E0,0E0,5.636795E2,4.891919E2,1.9135791E2,3.283905E2,1.1921765E2,0E0,0E0,0E0,0E0,0E0,0E0,0E0,0E0,0E0,0E0,0E0,0E0,0E0,0E0,0E0,0E0,0E0,0E0,0E0],"parents":[2147483647,0,0,1,1,2,2,3,3,4,4,5,5,6,6,7,7,8,8,9,9,10,10,11,11,12,12,13,13,14,14,18,18,19,19,21,21,22,22,26,26,27,27,28,28,30,30,35,35,36,36,37,37,38,38,41,41,42,42,43,43,44,44,45,45],"right_children":[2,4,6,8,10,12,14,16,18,20,22,24,26,28,30,-1,-1,-1,32,34,-1,36,38,-1,-1,-1,40,42,44,-1,46,-1,-1,-1,-1,48,50,52,54,-1,-1,56,58,60,62,64,-1,-1,-1,-1,-1,-1,-1,-1,-1,-1,-1,-1,-1,-1,-1,-1,-1,-1,-1],"split_conditions":[1.4170002E0,2.5014468E2,1.2919324E2,5.991594E0,2.6209293E2,7.5942073E0,3.8899998E1,3.5658336E-1,1.21166624E-1,1.21166624E-1,5.149167E-1,4.1046314E0,7.771331E0,8.707237E0,6.3690495E0,4.958311E0,-2.509329E-1,-4.187186E0,3.5658336E-1,-1.3455E0,8.296778E0,2.661393E2,9.36E0,-7.747883E-1,-2.3119342E0,4.5149377E-1,6.356583E0,2.399668E2,8.766573E0,1.0779568E0,6.3700005E1,1.1808277E0,-2.5349715E0,1.8756719E0,-9.743283E-1,1.1000001E0,6E-1,2.7032367E2,1.0514218E1,1.0906563E-1,-1.271763E0,7.127636E0,2.4343509E2,5.2149167E0,2.8961668E0,2.9055612E2,1.0500727E0,-5.2139856E-2,-2.4615526E0,2.3850424E0,8.064303E-1,1.3619523E0,-1.5146382E0,3.2771606E0,-4.8115894E-1,6.3899174E-2,7.282143E-1,-1.9180607E0,-1.0852E-1,-3.4818373E0,-1.0650003E0,-1.3451041E0,-7.623146E-2,-2.9015365E0,-2.0299645E-1],"split_indices":[0,3,3,2,3,2,1,0,0,0,0,2,2,2,2,0,0,0,0,0,0,3,2,0,0,0,0,3,2,0,1,0,0,0,0,1,1,3,2,0,0,2,3,0,0,3,0,0,0,0,0,0,0,0,0,0,0,0,0,0,0,0,0,0,0],"split_type":[0,0,0,0,0,0,0,0,0,0,0,0,0,0,0,0,0,0,0,0,0,0,0,0,0,0,0,0,0,0,0,0,0,0,0,0,0,0,0,0,0,0,0,0,0,0,0,0,0,0,0,0,0,0,0,0,0,0,0,0,0,0,0,0,0],"sum_hessian":[1.494E3,5.9E1,1.435E3,8E0,5.1E1,1.2E1,1.423E3,2E0,6E0,6E0,4.5E1,8E0,4E0,1.412E3,1.1E1,1E0,1E0,3E0,3E0,2E0,4E0,2.2E1,2.3E1,2E0,6E0,1E0,3E0,8.23E2,5.89E2,1E0,1E1,1E0,2E0,1E0,1E0,4E0,1.8E1,1.7E1,6E0,1E0,2E0,4.65E2,3.58E2,2.2E1,5.67E2,9E0,1E0,3E0,1E0,9E0,9E0,3E0,1.4E1,2E0,4E0,2.59E2,2.06E2,1.3E1,3.45E2,3E0,1.9E1,1.8E1,5.49E2,7E0,2E0],"tree_param":{"num_deleted":"0","num_feature":"4","num_nodes":"65","size_leaf_vector":"1"}},{"base_weights":[1.091872E-2,1.6238432E0,-1.5038174E-1,8.3607465E-1,5.0880923E0,-9.245521E0,-6.936467E-2,3.4196029E0,-1.0163784E0,3.6764295E0,2.179945E0,-4.8019967E0,1.8339093E-1,4.9662896E-2,-1.8624543E0,-2.953509E-1,1.0635785E1,-9.130523E0,2.6023668E-1,4.5887384E0,6.0152054E-1,5.273908E0,-6.811808E0,5.0992355E0,1.3405561E-3,1.2656026E0,-2.5061457E0,-9.757754E0,1.4049122E0,4.508057E0,6.964553E0,4.1295877E-1,-3.574868E0,3.914429E0,-2.081615E0,-1.0166168E1,3.432803E0,-3.2395482E0,-5.5451965E-1,-3.755322E0,1.457968E1,-7.9650774E0,7.818595E-2,-7.607583E-2,3.0073652E0,-5.3846035E0,-1.62321E0,-8.281792E-1,-3.2450686E0,2.1841705E0,-5.2844435E-1,2.4750605E0,-7.142956E-1,4.6791574E-1,-2.820843E-1,1.7778896E0,-1.3540688E0,7.7319515E-1,-1.1190146E0,-3.6872942E0,-5.687599E-1,2.3371751E0,-1.0140128E-1,1.1484662E-1,-3.6438048E-1,-4.6224155E0,2.2644234E-1,6.4484844E0,1.498293E-1,-1.0130438E0,-4.8892217E0,7.438154E-1,-2.3396898E-2,7.5921506E-1,-7.0425296E-1,-4.324815E-1,-2.1137462E0,-1.517882E-2,-9.413557E-1],"categories":[],"categories_nodes":[],"categories_segments":[],"categories_sizes":[],"default_left":[0,0,0,0,0,0,0,0,0,0,0,0,0,0,0,0,0,0,0,0,0,0,0,0,0,0,0,0,0,0,0,0,0,0,0,0,0,0,0,0,0,0,0,0,0,0,0,0,0,0,0,0,0,0,0,0,0,0,0,0,0,0,0,0,0,0,0,0,0,0,0,0,0,0,0,0,0,0,0],"id":11,"left_children":[1,3,5,7,9,11,13,15,17,-1,19,-1,21,23,25,27,29,31,33,-1,35,-1,37,39,41,43,45,47,49,51,-1,53,-1,55,57,59,61,-1,63,65,67,69,71,73,-1,75,77,-1,-1,-1,-1,-1,-1,-1,-1,-1,-1,-1,-1,-1,-1,-1,-1,-1,-1,-1,-1,-1,-1,-1,-1,-1,-1,-1,-1,-1,-1,-1,-1],"loss_changes":[3.891916E2,3.668936E2,1.00149036E3,5.394925E2,4.9432867E2,7.6793726E2,2.8800565E2,1.263107E3,6.8604626E2,0E0,3.8414444E2,0E0,8.4989307E2,3.0890625E2,1.7230606E2,5.285432E2,1.1286742E3,2.4418866E2,5.0448776E2,0E0,5.83653E2,0E0,1.1874124E2,1.0620931E3,7.6891187E2,1.7703801E2,1.6916422E2,7.1937866E0,5.3375446E2,3.290011E2,0E0,6.1220984E0,0E0,4.1673718E2,2.860913E2,4.698932E1,2.4911847E2,0E0,2.321143E0,3.7951733E2,5.734769E2,4.0373773E2,4.667042E2,8.883709E1,0E0,9.464557E1,1.3084836E2,0E0,0E0,0E0,0E0,0E0,0E0,0E0,0E0,0E0,0E0,0E0,0E0,0E0,0E0,0E0,0E0,0E0,0E0,0E0,0E0,0E0,0E0,0E0,0E0,0E0,0E0,0E0,0E0,0E0,0E0,0E0,0E0],"parents":[2147483647,0,0,1,1,2,2,3,3,4,4,5,5,6,6,7,7,8,8,10,10,12,12,13,13,14,14,15,15,16,16,17,17,18,18,20,20,22,22,23,23,24,24,25,25,26,26,27,27,28,28,29,29,31,31,33,33,34,34,35,35,36,36,38,38,39,39,40,40,41,41,42,42,43,43,45,45,46,46],"right_children":[2,4,6,8,10,12,14,16,18,-1,20,-1,22,24,26,28,30,32,34,-1,36,-1,38,40,42,44,46,48,50,52,-1,54,-1,56,58,60,62,-1,64,66,68,70,72,74,-1,76,78,-1,-1,-1,-1,-1,-1,-1,-1,-1,-1,-1,-1,-1,-1,-1,-1,-1,-1,-1,-1,-1,-1,-1,-1,-1,-1,-1,-1,-1,-1,-1,-1],"split_conditions":[3.9503334E0,3.23575E0,4.2982507E0,2.7032367E2,3.5565834E0,2.786954E2,3.2680243E2,2.6035043E2,2.7728885E2,3.6764295E0,5.2416787E0,-4.8019967E0,6.519877E0,4.527416E0,6.8399997E0,1.21166624E-1,1.2815834E0,-6.163333E-1,8.350138E0,4.5887384E0,6.4096174E0,5.273908E0,8.759178E0,2.2608078E2,4.78575E0,6.830519E0,8.669949E0,5.0911684E0,1.7878333E0,1E-1,6.964553E0,4.8433046E0,-3.574868E0,8.900001E0,7.899168E-1,3.7940834E0,2.4794888E2,-3.2395482E0,4.1878333E0,1E-1,2.9656494E2,4.6E0,6.1774163E0,1.5742002E1,3.0073652E0,8.544085E0,2.1999998E0,-8.281792E-1,-3.2450686E0,2.1841705E0,-5.2844435E-1,2.4750605E0,-7.142956E-1,4.6791574E-1,-2.820843E-1,1.7778896E0,-1.3540688E0,7.7319515E-1,-1.1190146E0,-3.6872942E0,-5.687599E-1,2.3371751E0,-1.0140128E-1,1.1484662E-1,-3.6438048E-1,-4.6224155E0,2.2644234E-1,6.4484844E0,1.498293E-1,-1.0130438E0,-4.8892217E0,7.438154E-1,-2.3396898E-2,7.5921506E-1,-7.0425296E-1,-4.324815E-1,-2.1137462E0,-1.517882E-2,-9.413557E-1],"split_indices":[0,0,0,3,0,3,3,3,3,0,2,0,2,0,2,0,0,0,2,0,2,0,2,3,0,2,2,2,0,1,0,2,0,1,0,0,3,0,0,1,3,1,0,0,0,0,1,0,0,0,0,0,0,0,0,0,0,0,0,0,0,0,0,0,0,0,0,0,0,0,0,0,0,0,0,0,0,0,0],"split_type":[0,0,0,0,0,0,0,0,0,0,0,0,0,0,0,0,0,0,0,0,0,0,0,0,0,0,0,0,0,0,0,0,0,0,0,0,0,0,0,0,0,0,0,0,0,0,0,0,0,0,0,0,0,0,0,0,0,0,0,0,0,0,0,0,0,0,0,0,0,0,0,0,0,0,0,0,0,0,0],"sum_hessian":[1.494E3,1.35E2,1.359E3,1.11E2,2.4E1,1.1E1,1.348E3,4.6E1,6.5E1,6E0,1.8E1,6E0,5E0,1.265E3,8.3E1,3.1E1,1.5E1,8E0,5.7E1,1E0,1.7E1,1E0,4E0,1.1E1,1.254E3,1.4E1,6.9E1,4E0,2.7E1,1.1E1,4E0,2E0,6E0,2.2E1,3.5E1,3E0,1.4E1,2E0,2E0,6E0,5E0,1.1E1,1.243E3,1.3E1,1E0,1.5E1,5.4E1,1E0,3E0,9E0,1.8E1,7E0,4E0,1E0,1E0,1.8E1,4E0,9E0,2.6E1,2E0,1E0,6E0,8E0,1E0,1E0,1E0,5E0,3E0,2E0,8E0,3E0,7.5E1,1.168E3,6E0,7E0,5E0,1E1,2.7E1,2.7E1],"tree_param":{"num_deleted":"0","num_feature":"4","num_nodes":"79","size_leaf_vector":"1"}},{"base_weights":[9.51861E-3,5.6704026E-2,-3.1523368E0,6.63252E-3,3.6965709E0,-7.130975E0,-1.2146617E0,-2.764268E0,7.8878246E-2,7.7564907E0,-1.1389978E0,-2.538581E0,-2.9821877E0,1.755167E0,-3.719547E0,1.8194218E0,-4.773499E0,5.3771353E0,2.9868852E-2,3.788906E0,3.1675665E0,-4.2987094E0,2.2999697E0,4.713364E-2,-1.0468549E0,4.116836E0,-1.065968E0,-4.6376085E0,5.43742E-1,4.817479E0,-3.3413544E0,-2.3588269E0,-9.911657E0,1.3156271E1,-1.1293588E0,1.204643E0,-9.575942E-2,3.7514336E0,-5.0345425E-2,1.7592535E0,-2.4856014E0,1.8541471E0,-6.9815316E-3,-1.6705317E0,2.8173038E-1,1.9995306E0,3.910744E-1,-1.9302522E-1,-2.1199656E0,-1.2228155E0,3.50184E-1,-3.1812937E0,-7.59462E-1,-7.245644E-1,5.0260835E0,-2.575454E0,8.359835E-1,-6.0046285E-1,5.038468E-1,-2.0169888E0,-9.784243E-3,6.167622E-2,1.3258456E0,-3.9758036E-1,9.68755E-1,8.9607155E-1,-8.9921325E-1],"categories":[],"categories_nodes":[],"categories_segments":[],"categories_sizes":[],"default_left":[0,0,0,0,0,0,0,0,0,0,0,0,0,0,0,0,0,0,0,0,0,0,0,0,0,0,0,0,0,0,0,0,0,0,0,0,0,0,0,0,0,0,0,0,0,0,0,0,0,0,0,0,0,0,0,0,0,0,0,0,0,0,0,0,0,0,0],"id":12,"left_children":[1,3,5,7,9,11,13,15,17,19,21,23,-1,25,27,29,31,33,35,-1,37,39,-1,-1,-1,41,-1,43,-1,45,47,49,51,53,55,57,59,61,-1,63,-1,-1,65,-1,-1,-1,-1,-1,-1,-1,-1,-1,-1,-1,-1,-1,-1,-1,-1,-1,-1,-1,-1,-1,-1,-1,-1],"loss_changes":[2.2322298E2,2.686173E2,1.6094307E2,2.9148825E2,4.0147504E2,6.508606E1,1.2555371E2,3.4944363E2,3.6830307E2,2.0598456E2,3.1118674E2,1.080196E1,0E0,1.14921394E2,5.4114166E1,2.0176454E2,2.992013E2,6.7285187E2,2.0776724E2,0E0,1.4261513E1,2.0778276E2,0E0,0E0,0E0,5.110395E1,0E0,4.675708E1,0E0,4.325035E1,4.5704994E1,1.1980513E2,1.4049744E1,3.7655908E2,2.574864E2,2.1041412E2,5.3210974E2,1.3304268E1,0E0,2.2415653E1,0E0,0E0,3.58116E1,0E0,0E0,0E0,0E0,0E0,0E0,0E0,0E0,0E0,0E0,0E0,0E0,0E0,0E0,0E0,0E0,0E0,0E0,0E0,0E0,0E0,0E0,0E0,0E0],"parents":[2147483647,0,0,1,1,2,2,3,3,4,4,5,5,6,6,7,7,8,8,9,9,10,10,11,11,13,13,14,14,15,15,16,16,17,17,18,18,20,20,21,21,25,25,27,27,29,29,30,30,31,31,32,32,33,33,34,34,35,35,36,36,37,37,39,39,42,42],"right_children":[2,4,6,8,10,12,14,16,18,20,22,24,-1,26,28,30,32,34,36,-1,38,40,-1,-1,-1,42,-1,44,-1,46,48,50,52,54,56,58,60,62,-1,64,-1,-1,66,-1,-1,-1,-1,-1,-1,-1,-1,-1,-1,-1,-1,-1,-1,-1,-1,-1,-1,-1,-1,-1,-1,-1,-1],"split_conditions":[3.1800001E1,2.7800003E1,1.7695822E2,1.5547234E2,3.0199997E1,1.5900122E2,2.031986E2,1.1000001E0,1.5772409E2,7.172949E0,1.7567E1,8.742E0,-2.9821877E0,1.5914914E1,2.0981585E1,1.8975336E1,1.4897942E2,9.927417E0,3.9503334E0,3.788906E0,3.3438083E2,6.439876E0,2.2999697E0,4.713364E-2,-1.0468549E0,8.534353E0,-1.065968E0,3.0583768E2,5.43742E-1,1.5175034E2,7.4128532E0,1.2919324E2,1.94E1,4.527416E0,1.5665125E2,2.1118488E2,4.2982507E0,6.1774163E0,-5.0345425E-2,5.994084E0,-2.4856014E0,1.8541471E0,1.4912833E1,-1.6705317E0,2.8173038E-1,1.9995306E0,3.910744E-1,-1.9302522E-1,-2.1199656E0,-1.2228155E0,3.50184E-1,-3.1812937E0,-7.59462E-1,-7.245644E-1,5.0260835E0,-2.575454E0,8.359835E-1,-6.0046285E-1,5.038468E-1,-2.0169888E0,-9.784243E-3,6.167622E-2,1.3258456E0,-3.9758036E-1,9.68755E-1,8.9607155E-1,-8.9921325E-1],"split_indices":[1,1,3,3,1,3,3,1,3,2,0,0,0,0,0,0,3,0,0,0,3,2,0,0,0,2,0,3,0,3,2,3,1,0,3,3,0,0,0,0,0,0,0,0,0,0,0,0,0,0,0,0,0,0,0,0,0,0,0,0,0,0,0,0,0,0,0],"split_type":[0,0,0,0,0,0,0,0,0,0,0,0,0,0,0,0,0,0,0,0,0,0,0,0,0,0,0,0,0,0,0,0,0,0,0,0,0,0,0,0,0,0,0,0,0,0,0,0,0,0,0,0,0,0,0,0,0,0,0,0,0,0,0,0,0,0,0],"sum_hessian":[1.494E3,1.473E3,2.1E1,1.454E3,1.9E1,6E0,1.5E1,3.6E1,1.418E3,1E1,9E0,3E0,3E0,7E0,8E0,1.1E1,2.5E1,1.2E1,1.406E3,4E0,6E0,7E0,2E0,1E0,2E0,5E0,2E0,7E0,1E0,7E0,4E0,1.8E1,7E0,5E0,7E0,1.35E2,1.271E3,5E0,1E0,3E0,4E0,3E0,2E0,6E0,1E0,4E0,3E0,3E0,1E0,1.2E1,6E0,6E0,1E0,1E0,4E0,2E0,5E0,1.7E1,1.18E2,1.1E1,1.26E3,1E0,4E0,1E0,2E0,1E0,1E0],"tree_param":{"num_deleted":"0","num_feature":"4","num_nodes":"67","size_leaf_vector":"1"}},{"base_weights":[4.7720876E-3,3.871893E-1,-3.1220058E-1,4.749366E-1,-4.1379566E0,-2.2855818E0,-2.3735499E-3,3.9938965E-1,7.530087E0,5.7295036E-1,-5.608524E0,-1.2462648E0,-6.0011787E0,8.2914295E0,-3.0550614E-1,5.2064574E-1,-4.5137095E0,2.9309459E0,1.2871717E0,-6.6195554E-1,6.416502E-1,-6.4090786E0,2.3947078E-1,-9.866218E0,-4.952168E-1,-8.055745E0,-3.2753005E0,1.1923376E1,-9.1688013E-1,1.5052695E0,-4.756823E-1,2.9750557E0,2.7765864E-1,-5.1912136E0,1.5254593E-1,5.2424815E-2,5.268025E-1,-3.3794346E-1,4.0063478E-2,-2.208073E0,-6.1600095E-1,-3.5186245E0,1.9634515E-1,1.8286378E0,-1.9436116E0,-5.583914E0,-3.2681677E0,3.378477E0,-5.868613E0,1.7816362E1,2.3300998E0,2.1152055E0,-2.0026274E0,4.2096343E0,2.153135E-1,-6.010242E-1,2.561579E0,-7.9107654E-1,1.6098865E0,3.3743124E-2,1.1979145E0,-2.6900995E0,-1.0038818E0,3.222977E-1,-2.53652E-1,2.076372E0,-4.7184255E-2,-2.317653E0,3.5236752E-1,-3.1207103E-1,-2.7032428E0,3.2128718E-2,1.3299718E0,-2.337829E0,1.7318268E-1,1.0914071E0,7.619566E0,-1.8424413E0,2.592401E0,4.858861E-2,1.2043386E0,1.2798558E-1,2.8073864E0,-9.9480194E-1,6.50755E-1,-1.0923089E0,-1.3391642E-1,1.7581259E-1,1.6398842E0],"categories":[],"categories_nodes":[],"categories_segments":[],"categories_sizes":[],"default_left":[0,0,0,0,0,0,0,0,0,0,0,0,0,0,0,0,0,0,0,0,0,0,0,0,0,0,0,0,0,0,0,0,0,0,0,0,0,0,0,0,0,0,0,0,0,0,0,0,0,0,0,0,0,0,0,0,0,0,0,0,0,0,0,0,0,0,0,0,0,0,0,0,0,0,0,0,0,0,0,0,0,0,0,0,0,0,0,0,0],"id":13,"left_children":[1,3,5,7,9,11,13,15,17,19,21,23,25,27,29,31,33,-1,35,37,-1,39,-1,41,43,45,47,49,51,53,55,57,59,61,63,-1,-1,-1,-1,-1,-1,-1,-1,65,67,69,-1,71,73,75,77,79,-1,81,83,85,87,-1,-1,-1,-1,-1,-1,-1,-1,-1,-1,-1,-1,-1,-1,-1,-1,-1,-1,-1,-1,-1,-1,-1,-1,-1,-1,-1,-1,-1,-1,-1,-1],"loss_changes":[1.8133849E2,2.711783E2,5.0012537E2,3.5196735E2,9.3273575E1,4.2116785E2,1.7825314E3,3.9554065E2,8.530176E1,9.150688E0,5.640561E1,5.648259E2,1.0802698E2,8.470348E2,2.1149121E2,3.8384558E2,5.137442E1,0E0,1.257771E0,1.2590193E0,0E0,2.2174133E1,0E0,1.4484216E2,2.7955463E2,3.0369873E1,2.2689085E2,9.7608057E2,1.5380309E2,2.049158E2,2.3985541E2,7.9248395E2,3.6041464E2,6.751938E1,3.668303E0,0E0,0E0,0E0,0E0,0E0,0E0,0E0,0E0,3.247203E2,9.285502E2,1.3076297E2,0E0,1.3327335E1,1.161243E2,1.0901311E3,4.807992E2,2.1608065E1,0E0,3.66055E2,2.9008234E2,2.8137173E2,1.4025516E2,0E0,0E0,0E0,0E0,0E0,0E0,0E0,0E0,0E0,0E0,0E0,0E0,0E0,0E0,0E0,0E0,0E0,0E0,0E0,0E0,0E0,0E0,0E0,0E0,0E0,0E0,0E0,0E0,0E0,0E0,0E0,0E0],"parents":[2147483647,0,0,1,1,2,2,3,3,4,4,5,5,6,6,7,7,8,8,9,9,10,10,11,11,12,12,13,13,14,14,15,15,16,16,18,18,19,19,21,21,23,23,24,24,25,25,26,26,27,27,28,28,29,29,30,30,31,31,32,32,33,33,34,34,43,43,44,44,45,45,47,47,48,48,49,49,50,50,51,51,53,53,54,54,55,55,56,56],"right_children":[2,4,6,8,10,12,14,16,18,20,22,24,26,28,30,32,34,-1,36,38,-1,40,-1,42,44,46,48,50,52,54,56,58,60,62,64,-1,-1,-1,-1,-1,-1,-1,-1,66,68,70,-1,72,74,76,78,80,-1,82,84,86,88,-1,-1,-1,-1,-1,-1,-1,-1,-1,-1,-1,-1,-1,-1,-1,-1,-1,-1,-1,-1,-1,-1,-1,-1,-1,-1,-1,-1,-1,-1,-1,-1],"split_conditions":[1.2381584E1,3.0199997E1,1.3885751E1,2.7800003E1,6.3690495E0,1.3589916E1,1.4192E1,2.2199999E1,8.854829E0,8.742E0,2.9055612E2,5.495161E0,3E-1,1.5999999E0,5.8603754E0,1.7441286E2,3.0137003E2,2.9309459E0,6.1774163E0,5.994084E0,6.416502E-1,1.1480557E1,2.3947078E-1,1.2839916E1,2E-1,1.3733665E1,1.1000001E0,2.5323738E2,2.0265527E2,1.9472299E2,2.7923258E1,1.5547234E2,1.1900333E1,4.6857505E0,2.5211666E0,5.2424815E-2,5.268025E-1,-3.3794346E-1,4.0063478E-2,-2.208073E0,-6.1600095E-1,-3.5186245E0,1.9634515E-1,6.638072E0,3.8000002E0,2.1704582E2,-3.2681677E0,4.8433046E0,3.0583768E2,1.790412E2,2.9758194E2,1.858394E2,-2.0026274E0,1.7752997E2,2E-1,1.6356752E2,2.1704582E2,-7.9107654E-1,1.6098865E0,3.3743124E-2,1.1979145E0,-2.6900995E0,-1.0038818E0,3.222977E-1,-2.53652E-1,2.076372E0,-4.7184255E-2,-2.317653E0,3.5236752E-1,-3.1207103E-1,-2.7032428E0,3.2128718E-2,1.3299718E0,-2.337829E0,1.7318268E-1,1.0914071E0,7.619566E0,-1.8424413E0,2.592401E0,4.858861E-2,1.2043386E0,1.2798558E-1,2.8073864E0,-9.9480194E-1,6.50755E-1,-1.0923089E0,-1.3391642E-1,1.7581259E-1,1.6398842E0],"split_indices":[0,1,0,1,2,0,0,1,2,0,3,2,1,1,2,3,3,0,0,0,0,2,0,0,1,0,1,3,3,3,0,3,0,0,0,0,0,0,0,0,0,0,0,2,1,3,0,2,3,3,3,3,0,3,1,3,3,0,0,0,0,0,0,0,0,0,0,0,0,0,0,0,0,0,0,0,0,0,0,0,0,0,0,0,0,0,0,0,0],"split_type":[0,0,0,0,0,0,0,0,0,0,0,0,0,0,0,0,0,0,0,0,0,0,0,0,0,0,0,0,0,0,0,0,0,0,0,0,0,0,0,0,0,0,0,0,0,0,0,0,0,0,0,0,0,0,0,0,0,0,0,0,0,0,0,0,0,0,0,0,0,0,0,0,0,0,0,0,0,0,0,0,0,0,0,0,0,0,0,0,0],"sum_hessian":[1.494E3,6.77E2,8.17E2,6.65E2,1.2E1,1.1E2,7.07E2,6.59E2,6E0,3E0,9E0,8.7E1,2.3E1,2.4E1,6.83E2,6.44E2,1.5E1,4E0,2E0,2E0,1E0,8E0,1E0,6E0,8.1E1,1.2E1,1.1E1,1.7E1,7E0,5.8E1,6.25E2,5.7E1,5.87E2,1.3E1,2E0,1E0,1E0,1E0,1E0,6E0,2E0,5E0,1E0,3.1E1,5E1,8E0,4E0,3E0,8E0,1E1,7E0,5E0,2E0,1.8E1,4E1,6.01E2,2.4E1,1.7E1,4E1,5.63E2,2.4E1,3E0,1E1,1E0,1E0,8E0,2.3E1,1.7E1,3.3E1,4E0,4E0,1E0,2E0,6E0,2E0,4E0,6E0,3E0,4E0,3E0,2E0,1.1E1,7E0,1.4E1,2.6E1,2.8E1,5.73E2,1.5E1,9E0],"tree_param":{"num_deleted":"0","num_feature":"4","num_nodes":"89","size_leaf_vector":"1"}},{"base_weights":[4.170623E-3,3.3705235E-2,-3.122577E0,1.1404509E-2,4.1411886E0,-4.3490114E0,1.0307622E0,3.9526016E-1,-2.0556948E-1,6.2751694E0,4.3841553E-1,-2.3833377E0,-2.0076613E0,2.2677813E0,-1.0995493E0,1.8000433E-1,2.3013258E0,-4.8784056E0,-8.344596E-2,-8.0509187E-4,2.3535912E0,-1.735433E-2,2.7085876E-1,4.595108E-1,-1.0739601E0,3.3526832E-1,-2.1601312E0,5.9901114E0,-8.493731E-1,-5.7358775E0,8.429227E-1,2.3730445E0,-1.8039146E-1,-1.1657525E-2,3.848076E-3,3.8551143E-1,-2.4401093E-1,6.0975727E-2,1.6792282E0,-7.9645E-2,-1.7768637E0,-6.7715275E-1,2.7968366E0,2.0522738E0,-1.6985075E0,-5.1264507E-1,-2.1698344E0,-5.9131366E-1,7.313782E-1,-4.6223018E-1,1.6156324E0,-1.19189605E-1,1.0473724E-1,-9.807015E-2,-1.17347725E-2],"categories":[],"categories_nodes":[],"categories_segments":[],"categories_sizes":[],"default_left":[0,0,0,0,0,0,0,0,0,0,0,0,0,0,0,0,0,0,0,0,0,0,0,0,0,0,0,0,0,0,0,0,0,0,0,0,0,0,0,0,0,0,0,0,0,0,0,0,0,0,0,0,0,0,0],"id":14,"left_children":[1,3,5,7,9,11,13,15,17,19,21,-1,23,-1,-1,25,27,29,31,-1,-1,33,-1,35,-1,37,39,41,43,45,47,49,51,-1,-1,-1,53,-1,-1,-1,-1,-1,-1,-1,-1,-1,-1,-1,-1,-1,-1,-1,-1,-1,-1],"loss_changes":[1.3816443E2,1.3570378E2,7.5795975E1,1.2292913E2,6.046205E1,7.665045E1,1.5033556E2,2.1827124E2,5.3772833E2,4.9306396E1,8.623924E-1,0E0,3.26762E1,0E0,0E0,1.7512685E2,6.326896E2,1.2257605E2,2.1952211E2,0E0,0E0,2.4454943E-3,0E0,2.6366684E0,0E0,3.1216687E2,2.1229999E2,7.0818176E2,1.1489741E3,1.1423096E2,2.2758432E1,4.2094614E2,1.0190089E2,0E0,0E0,0E0,3.816396E-2,0E0,0E0,0E0,0E0,0E0,0E0,0E0,0E0,0E0,0E0,0E0,0E0,0E0,0E0,0E0,0E0,0E0,0E0],"parents":[2147483647,0,0,1,1,2,2,3,3,4,4,5,5,6,6,7,7,8,8,9,9,10,10,12,12,15,15,16,16,17,17,18,18,21,21,23,23,25,25,26,26,27,27,28,28,29,29,30,30,31,31,32,32,36,36],"right_children":[2,4,6,8,10,12,14,16,18,20,22,-1,24,-1,-1,26,28,30,32,-1,-1,34,-1,36,-1,38,40,42,44,46,48,50,52,-1,-1,-1,54,-1,-1,-1,-1,-1,-1,-1,-1,-1,-1,-1,-1,-1,-1,-1,-1,-1,-1],"split_conditions":[1.5986595E1,2.9164919E1,1.44045E1,1.0081584E1,1.9037067E2,1.8173567E2,1.6310751E1,9.5045E0,1.0333665E1,6.696387E0,2.4622762E2,-2.3833377E0,1.5000001E0,2.2677813E0,-1.0995493E0,9.062834E0,7.072878E0,1.257426E1,1.1050334E1,-8.0509187E-4,2.3535912E0,7.289444E0,2.7085876E-1,4.527416E0,-1.0739601E0,8.879499E0,2.4794888E2,5.0142193E0,9.652417E0,1.8660925E2,1.018575E1,1.9113625E2,9.793058E0,-1.1657525E-2,3.848076E-3,3.8551143E-1,4.6857505E0,6.0975727E-2,1.6792282E0,-7.9645E-2,-1.7768637E0,-6.7715275E-1,2.7968366E0,2.0522738E0,-1.6985075E0,-5.1264507E-1,-2.1698344E0,-5.9131366E-1,7.313782E-1,-4.6223018E-1,1.6156324E0,-1.19189605E-1,1.0473724E-1,-9.807015E-2,-1.17347725E-2],"split_indices":[2,0,0,0,3,3,0,0,0,2,3,0,1,0,0,0,2,2,0,0,0,2,0,0,0,0,3,2,0,3,0,3,2,0,0,0,0,0,0,0,0,0,0,0,0,0,0,0,0,0,0,0,0,0,0],"split_type":[0,0,0,0,0,0,0,0,0,0,0,0,0,0,0,0,0,0,0,0,0,0,0,0,0,0,0,0,0,0,0,0,0,0,0,0,0,0,0,0,0,0,0,0,0,0,0,0,0,0,0,0,0,0,0],"sum_hessian":[1.494E3,1.481E3,1.3E1,1.474E3,7E0,1E1,3E0,5.32E2,9.42E2,4E0,3E0,3E0,7E0,1E0,2E0,4.79E2,5.3E1,2.3E1,9.19E2,1E0,3E0,2E0,1E0,3E0,4E0,4.5E2,2.9E1,2.4E1,2.9E1,2E1,3E0,3.4E1,8.85E2,1E0,1E0,1E0,2E0,4.4E2,1E1,2E1,9E0,7E0,1.7E1,1.1E1,1.8E1,6E0,1.4E1,1E0,2E0,1.5E1,1.9E1,6.28E2,2.57E2,1E0,1E0],"tree_param":{"num_deleted":"0","num_feature":"4","num_nodes":"55","size_leaf_vector":"1"}},{"base_weights":[3.9611007E-3,7.181523E-2,-1.229643E0,-5.17734E-1,2.102891E-1,1.1353784E0,-1.8107651E0,2.1256854E-1,-3.4428806E0,2.4245262E0,9.035301E-2,5.7428423E-2,2.595694E0,-3.6514423E0,-8.034875E-1,-1.2352499E-1,5.496154E0,2.7327557E0,-6.8734474E0,-6.2006774E0,3.5179582E0,-5.5102196E0,1.5774605E-1,2.197441E0,-2.0897627E0,-7.410473E0,-2.4044092E0,2.095155E0,-2.0327828E0,1.1248584E0,-1.0351706E0,7.0054555E0,-1.8923208E0,4.608782E0,-3.8170784E0,-9.382699E0,-2.4393775E0,-3.258607E0,-2.2777736E0,1.0277758E1,1.9016865E0,2.0022292E0,-9.832924E0,1.8201492E0,3.1749647E-2,4.9400268E0,-1.2060633E0,4.6622115E-1,-2.8323205E0,-2.683682E0,-1.9049063E-1,-3.0289073E0,1.727717E0,2.4872355E0,-5.9261256E-1,1.2306609E0,-3.2754288E0,8.336764E-1,-3.5564023E-1,3.931413E-1,-1.1942652E0,-2.207924E-1,2.588202E0,8.082184E-2,3.0448477E0,9.946175E-1,-1.9287132E0,-3.0998642E0,1.5856643E0,-1.2605466E0,1.6270577E0,-1.882988E-1,-1.1779103E0,4.3388143E0,1.1539307E-1,-1.9470344E0,8.022049E-1,-3.9799774E0,-1.1237817E0,4.527402E0,3.2040817E-1,-5.136159E-1,8.31457E-2,2.040154E-1,2.6919959E0,-9.6328884E-1,-8.407002E-2,-9.970716E-1,2.0865928E-1,1.300208E0,-5.2273524E-1,5.6268644E-1,-5.7551193E-1,8.137936E-1,-3.899943E-1,-2.5102532E-1,-1.4698137E0],"categories":[],"categories_nodes":[],"categories_segments":[],"categories_sizes":[],"default_left":[0,0,0,0,0,0,0,0,0,0,0,0,0,0,0,0,0,0,0,0,0,0,0,0,0,0,0,0,0,0,0,0,0,0,0,0,0,0,0,0,0,0,0,0,0,0,0,0,0,0,0,0,0,0,0,0,0,0,0,0,0,0,0,0,0,0,0,0,0,0,0,0,0,0,0,0,0,0,0,0,0,0,0,0,0,0,0,0,0,0,0,0,0,0,0,0,0],"id":15,"left_children":[1,3,5,7,9,11,13,15,17,19,21,23,-1,25,27,29,31,33,35,37,39,41,43,45,47,49,51,53,55,57,59,61,-1,63,65,67,69,71,-1,73,75,-1,77,79,81,83,-1,-1,85,-1,-1,87,89,-1,91,93,95,-1,-1,-1,-1,-1,-1,-1,-1,-1,-1,-1,-1,-1,-1,-1,-1,-1,-1,-1,-1,-1,-1,-1,-1,-1,-1,-1,-1,-1,-1,-1,-1,-1,-1,-1,-1,-1,-1,-1,-1],"loss_changes":[1.2522747E2,1.1587038E2,1.09256454E2,5.775172E2,3.049173E2,1.2914919E2,1.1387271E2,3.8602292E2,1.1628239E3,5.782471E2,4.1265582E2,7.351738E1,0E0,8.531018E1,1.5391708E2,2.3447148E2,2.7579184E2,2.6334525E2,3.6652893E2,3.9242554E0,5.595155E2,7.5032544E2,2.2594612E2,1.5627951E2,2.6047672E1,4.6326355E1,5.1682182E1,2.2139459E2,1.25690094E2,3.3575818E2,8.2745776E2,1.5701788E2,0E0,3.819572E2,1.14463615E2,3.612395E2,2.1679967E2,4.562931E0,0E0,4.084596E2,3.0252908E2,0E0,1.5931097E2,7.4248016E2,4.3012006E2,9.698802E1,0E0,0E0,5.864479E0,0E0,0E0,1.9871002E1,3.4684822E1,0E0,3.6321007E1,3.727973E1,8.3026855E1,0E0,0E0,0E0,0E0,0E0,0E0,0E0,0E0,0E0,0E0,0E0,0E0,0E0,0E0,0E0,0E0,0E0,0E0,0E0,0E0,0E0,0E0,0E0,0E0,0E0,0E0,0E0,0E0,0E0,0E0,0E0,0E0,0E0,0E0,0E0,0E0,0E0,0E0,0E0,0E0],"parents":[2147483647,0,0,1,1,2,2,3,3,4,4,5,5,6,6,7,7,8,8,9,9,10,10,11,11,13,13,14,14,15,15,16,16,17,17,18,18,19,19,20,20,21,21,22,22,23,23,24,24,25,25,26,26,27,27,28,28,29,29,30,30,31,31,33,33,34,34,35,35,36,36,37,37,39,39,40,40,42,42,43,43,44,44,45,45,48,48,51,51,52,52,54,54,55,55,56,56],"right_children":[2,4,6,8,10,12,14,16,18,20,22,24,-1,26,28,30,32,34,36,38,40,42,44,46,48,50,52,54,56,58,60,62,-1,64,66,68,70,72,-1,74,76,-1,78,80,82,84,-1,-1,86,-1,-1,88,90,-1,92,94,96,-1,-1,-1,-1,-1,-1,-1,-1,-1,-1,-1,-1,-1,-1,-1,-1,-1,-1,-1,-1,-1,-1,-1,-1,-1,-1,-1,-1,-1,-1,-1,-1,-1,-1,-1,-1,-1,-1,-1,-1],"split_conditions":[3.281428E2,1.8546896E2,6.8399997E0,1.815551E2,1.8939946E2,6.830519E0,1.000256E1,1.1246759E1,6.989936E0,6.696387E0,1.9037067E2,1.5742002E1,2.595694E0,3.298182E2,1.191812E1,1E-1,2.0523155E1,4E-1,2.8E0,1.6E0,1.0333665E1,7.653705E0,1.9602304E2,6.151683E0,2.3999996E0,9.726664E0,2.0448252E1,3.317094E2,3.3017297E2,1.9912834E1,1.2175335E1,9.062834E0,-1.8923208E0,1.3462833E1,9.608666E0,2.9164919E1,1.8428903E2,5.258667E0,-2.2777736E0,7.968939E0,1.1050334E1,2.0022292E0,1.1900333E1,5.4669995E0,2.1118488E2,8.48575E0,-1.2060633E0,4.6622115E-1,2.2199999E1,-2.683682E0,-1.9049063E-1,1.8500002E1,2.1812834E1,2.4872355E0,3.379637E2,1.3896187E1,7.162834E0,8.336764E-1,-3.5564023E-1,3.931413E-1,-1.1942652E0,-2.207924E-1,2.588202E0,8.082184E-2,3.0448477E0,9.946175E-1,-1.9287132E0,-3.0998642E0,1.5856643E0,-1.2605466E0,1.6270577E0,-1.882988E-1,-1.1779103E0,4.3388143E0,1.1539307E-1,-1.9470344E0,8.022049E-1,-3.9799774E0,-1.1237817E0,4.527402E0,3.2040817E-1,-5.136159E-1,8.31457E-2,2.040154E-1,2.6919959E0,-9.6328884E-1,-8.407002E-2,-9.970716E-1,2.0865928E-1,1.300208E0,-5.2273524E-1,5.6268644E-1,-5.7551193E-1,8.137936E-1,-3.899943E-1,-2.5102532E-1,-1.4698137E0],"split_indices":[3,3,2,3,3,2,2,2,2,2,3,0,0,3,2,1,2,1,1,1,0,2,3,2,1,2,0,3,3,0,0,0,0,0,0,0,3,0,0,2,0,0,0,0,3,0,0,0,1,0,0,1,0,0,3,2,0,0,0,0,0,0,0,0,0,0,0,0,0,0,0,0,0,0,0,0,0,0,0,0,0,0,0,0,0,0,0,0,0,0,0,0,0,0,0,0,0],"split_type":[0,0,0,0,0,0,0,0,0,0,0,0,0,0,0,0,0,0,0,0,0,0,0,0,0,0,0,0,0,0,0,0,0,0,0,0,0,0,0,0,0,0,0,0,0,0,0,0,0,0,0,0,0,0,0,0,0,0,0,0,0,0,0,0,0,0,0,0,0,0,0,0,0,0,0,0,0,0,0,0,0,0,0,0,0,0,0,0,0,0,0,0,0,0,0,0,0],"sum_hessian":[1.494E3,1.417E3,7.7E1,2.69E2,1.148E3,1.5E1,6.2E1,2.16E2,5.3E1,5.8E1,1.09E3,1.4E1,1E0,2.1E1,4.1E1,2.04E2,1.2E1,1.9E1,3.4E1,6E0,5.2E1,1.2E1,1.078E3,7E0,7E0,4E0,1.7E1,1.2E1,2.9E1,8.6E1,1.18E2,1.1E1,1E0,1.5E1,4E0,2.1E1,1.3E1,3E0,3E0,9E0,4.3E1,3E0,9E0,7.5E1,1.003E3,5E0,2E0,1E0,6E0,3E0,1E0,1.5E1,2E0,3E0,9E0,8E0,2.1E1,5E1,3.6E1,6.6E1,5.2E1,2E0,9E0,9E0,6E0,1E0,3E0,2E1,1E0,1.1E1,2E0,1E0,2E0,6E0,3E0,3E0,4E1,5E0,4E0,3E0,7.2E1,1.23E2,8.8E2,3E0,2E0,5E0,1E0,1.4E1,1E0,1E0,1E0,3E0,6E0,5E0,3E0,9E0,1.2E1],"tree_param":{"num_deleted":"0","num_feature":"4","num_nodes":"97","size_leaf_vector":"1"}},{"base_weights":[5.564881E-3,2.0894432E-1,-2.8578934E-1,-9.017759E-3,1.6464443E0,-1.2071481E0,1.5458517E-1,1.2471971E-1,-5.9086695E0,-2.156382E0,2.9388392E0,-1.710515E0,1.9280759E0,4.167638E0,-2.3553959E-1,-7.798837E-2,2.4156027E0,-1.024721E1,1.7531319E0,-4.6604503E-2,-2.1222055E0,-4.5025516E0,4.0751266E0,-4.1266304E-1,-4.126294E0,4.9273562E0,-2.4815774E0,7.2103057E0,9.056202E-1,-4.7113785E-1,4.040566E0,8.341027E-1,-4.925856E-1,1.12319355E1,6.7370003E-1,-4.1721797E0,-3.652954E-1,5.5674677E0,-2.499487E0,-8.520047E0,1.2267421E0,-4.2288685E0,2.0563147E0,6.3743954E0,-9.413413E-2,3.864763E0,-1.9354026E0,6.727205E0,-4.616539E0,-2.7098083E0,8.335325E0,-6.4391627E0,3.0211067E-1,9.758267E0,6.334368E-2,6.472033E0,-1.0102254E0,5.120065E0,-6.119562E-1,5.3696957E0,-1.0207627E0,-1.8647619E-2,1.5515251E0,2.1863514E-1,-4.08213E-1,4.965274E0,7.8083295E-1,-5.126418E0,5.177795E-1,5.7425594E-1,-5.289555E-1,1.8997341E0,4.9087945E-1,2.7611792E-1,-1.1838734E0,-2.9569474E-1,-3.5383267E0,-1.0103998E0,1.3711709E0,2.1539178E0,-7.361031E-1,3.1251361E0,1.4641292E-1,-5.5350655E-1,8.3385384E-1,-2.6435298E-1,3.642721E0,-1.1765656E0,2.4665463E-1,6.316933E-1,2.3955488E0,-2.298007E0,-5.155997E-1,8.146889E-1,-1.3014066E0,5.2689466E0,9.9237627E-1,-2.1703234E0,-4.887254E-1,-5.468595E-1,5.8250076E-1,-1.5610176E0,3.3928277E0,-1.1537067E0,1.5762818E0,3.054471E-1,4.2431307E0,-1.261779E0,9.7285664E-1,4.4225484E-1,5.143069E0,-5.902212E-1,2.1508492E-3,3.0214107E0,8.8895726E-1,-7.7917105E-1,7.9277E-1],"categories":[],"categories_nodes":[],"categories_segments":[],"categories_sizes":[],"default_left":[0,0,0,0,0,0,0,0,0,0,0,0,0,0,0,0,0,0,0,0,0,0,0,0,0,0,0,0,0,0,0,0,0,0,0,0,0,0,0,0,0,0,0,0,0,0,0,0,0,0,0,0,0,0,0,0,0,0,0,0,0,0,0,0,0,0,0,0,0,0,0,0,0,0,0,0,0,0,0,0,0,0,0,0,0,0,0,0,0,0,0,0,0,0,0,0,0,0,0,0,0,0,0,0,0,0,0,0,0,0,0,0,0,0,0,0,0],"id":16,"left_children":[1,3,5,7,9,11,13,15,17,19,21,23,25,27,29,31,33,35,37,39,-1,41,43,45,47,49,51,53,55,57,59,61,63,65,67,-1,69,71,73,75,77,-1,79,81,83,85,87,89,91,93,95,97,99,101,103,105,107,109,111,113,115,-1,-1,-1,-1,-1,-1,-1,-1,-1,-1,-1,-1,-1,-1,-1,-1,-1,-1,-1,-1,-1,-1,-1,-1,-1,-1,-1,-1,-1,-1,-1,-1,-1,-1,-1,-1,-1,-1,-1,-1,-1,-1,-1,-1,-1,-1,-1,-1,-1,-1,-1,-1,-1,-1,-1,-1],"loss_changes":[8.864662E1,2.760502E2,2.4971848E2,6.051143E2,5.764486E2,3.1735345E2,6.538332E2,3.4847375E2,5.830624E2,3.109239E2,7.539821E2,5.37573E2,3.8254962E2,3.6070392E2,3.8573947E2,2.6133466E2,9.2922174E2,3.927716E2,1.27462234E2,2.4782376E2,0E0,7.8406995E2,7.291553E2,7.4349475E2,3.5030878E2,4.6504984E2,1.3414554E2,3.4537543E2,2.0916159E2,2.8815173E2,1.4002441E2,8.400573E2,5.0463434E2,4.1590466E2,1.00134607E3,0E0,1.6120918E1,1.6675873E0,2.3423044E1,6.238617E1,3.2267413E2,0E0,2.0246907E2,1.160964E3,1.4600839E2,1.1892549E3,4.6336765E2,6.2727356E-1,4.9837354E2,6.47831E1,4.98607E2,7.340561E0,3.1411572E1,3.8375793E2,1.4195535E2,1.9480289E2,2.1751305E2,3.692536E2,2.9708826E2,1.5119016E2,3.5739086E1,0E0,0E0,0E0,0E0,0E0,0E0,0E0,0E0,0E0,0E0,0E0,0E0,0E0,0E0,0E0,0E0,0E0,0E0,0E0,0E0,0E0,0E0,0E0,0E0,0E0,0E0,0E0,0E0,0E0,0E0,0E0,0E0,0E0,0E0,0E0,0E0,0E0,0E0,0E0,0E0,0E0,0E0,0E0,0E0,0E0,0E0,0E0,0E0,0E0,0E0,0E0,0E0,0E0,0E0,0E0,0E0],"parents":[2147483647,0,0,1,1,2,2,3,3,4,4,5,5,6,6,7,7,8,8,9,9,10,10,11,11,12,12,13,13,14,14,15,15,16,16,17,17,18,18,19,19,21,21,22,22,23,23,24,24,25,25,26,26,27,27,28,28,29,29,30,30,31,31,32,32,33,33,34,34,36,36,37,37,38,38,39,39,40,40,42,42,43,43,44,44,45,45,46,46,47,47,48,48,49,49,50,50,51,51,52,52,53,53,54,54,55,55,56,56,57,57,58,58,59,59,60,60],"right_children":[2,4,6,8,10,12,14,16,18,20,22,24,26,28,30,32,34,36,38,40,-1,42,44,46,48,50,52,54,56,58,60,62,64,66,68,-1,70,72,74,76,78,-1,80,82,84,86,88,90,92,94,96,98,100,102,104,106,108,110,112,114,116,-1,-1,-1,-1,-1,-1,-1,-1,-1,-1,-1,-1,-1,-1,-1,-1,-1,-1,-1,-1,-1,-1,-1,-1,-1,-1,-1,-1,-1,-1,-1,-1,-1,-1,-1,-1,-1,-1,-1,-1,-1,-1,-1,-1,-1,-1,-1,-1,-1,-1,-1,-1,-1,-1,-1,-1],"split_conditions":[8.707237E0,8.209263E0,9.793058E0,8.12197E0,1.9301822E2,3.109374E2,1.0086427E1,7.928177E0,6E-1,1.29E1,3.6232498E0,2.8713165E2,3.1836655E2,2.931986E2,2.6200335E1,1.9602304E2,5.258667E0,1.5219083E1,7.8940825E0,5.6815834E0,-2.1222055E0,1E-1,1.6412834E1,8.0295E0,8.714677E0,8.854829E0,1.4000001E0,2.2158669E1,7.4878345E0,1.7524771E2,7E-1,1.882355E2,6.439876E0,1E-1,5.6815834E0,-4.1721797E0,1.6412834E1,7.4878345E0,8.000001E-1,2.5211666E0,8.39657E0,-4.2288685E0,1.4000002E0,2.7728885E2,2.1933668E1,5.2149167E0,2.065649E2,1.3323249E1,9.085988E0,1.3E0,8.891344E0,1.84545E1,9.387651E0,2.727417E0,2.2957393E2,4.2E0,1.9912834E1,1.44045E1,2.3576807E2,2.6748253E1,2.1471184E2,-1.8647619E-2,1.5515251E0,2.1863514E-1,-4.08213E-1,4.965274E0,7.8083295E-1,-5.126418E0,5.177795E-1,5.7425594E-1,-5.289555E-1,1.8997341E0,4.9087945E-1,2.7611792E-1,-1.1838734E0,-2.9569474E-1,-3.5383267E0,-1.0103998E0,1.3711709E0,2.1539178E0,-7.361031E-1,3.1251361E0,1.4641292E-1,-5.5350655E-1,8.3385384E-1,-2.6435298E-1,3.642721E0,-1.1765656E0,2.4665463E-1,6.316933E-1,2.3955488E0,-2.298007E0,-5.155997E-1,8.146889E-1,-1.3014066E0,5.2689466E0,9.9237627E-1,-2.1703234E0,-4.887254E-1,-5.468595E-1,5.8250076E-1,-1.5610176E0,3.3928277E0,-1.1537067E0,1.5762818E0,3.054471E-1,4.2431307E0,-1.261779E0,9.7285664E-1,4.4225484E-1,5.143069E0,-5.902212E-1,2.1508492E-3,3.0214107E0,8.8895726E-1,-7.7917105E-1,7.9277E-1],"split_indices":[2,2,2,2,3,3,2,2,1,1,0,3,3,3,0,3,0,0,0,0,0,1,0,0,2,2,1,0,0,3,1,3,2,1,0,0,0,0,1,0,2,0,1,3,0,0,3,0,2,1,2,0,2,0,3,1,0,0,3,0,3,0,0,0,0,0,0,0,0,0,0,0,0,0,0,0,0,0,0,0,0,0,0,0,0,0,0,0,0,0,0,0,0,0,0,0,0,0,0,0,0,0,0,0,0,0,0,0,0,0,0,0,0,0,0,0,0],"split_type":[0,0,0,0,0,0,0,0,0,0,0,0,0,0,0,0,0,0,0,0,0,0,0,0,0,0,0,0,0,0,0,0,0,0,0,0,0,0,0,0,0,0,0,0,0,0,0,0,0,0,0,0,0,0,0,0,0,0,0,0,0,0,0,0,0,0,0,0,0,0,0,0,0,0,0,0,0,0,0,0,0,0,0,0,0,0,0,0,0,0,0,0,0,0,0,0,0,0,0,0,0,0,0,0,0,0,0,0,0,0,0,0,0,0,0,0,0],"sum_hessian":[1.494E3,8.8E2,6.14E2,7.65E2,1.15E2,1.98E2,4.16E2,7.49E2,1.6E1,2.9E1,8.6E1,1.71E2,2.7E1,3.6E1,3.8E2,6.89E2,6E1,1E1,6E0,2.1E1,8E0,1.1E1,7.5E1,1.12E2,5.9E1,1.6E1,1.1E1,1.8E1,1.8E1,3.61E2,1.9E1,2.15E2,4.74E2,9E0,5.1E1,7E0,3E0,3E0,3E0,2E0,1.9E1,4E0,7E0,4.8E1,2.7E1,2.9E1,8.3E1,2E0,5.7E1,5E0,1.1E1,4E0,7E0,1.3E1,5E0,4E0,1.4E1,8E0,3.53E2,1.5E1,4E0,1.79E2,3.6E1,1.97E2,2.77E2,5E0,4E0,2E0,4.9E1,1E0,2E0,2E0,1E0,1E0,2E0,1E0,1E0,8E0,1.1E1,3E0,4E0,2.8E1,2E1,1.7E1,1E1,1.9E1,1E1,4.8E1,3.5E1,1E0,1E0,2.7E1,3E1,1E0,4E0,3E0,8E0,3E0,1E0,3E0,4E0,1E0,1.2E1,3E0,2E0,3E0,1E0,8E0,6E0,7E0,1E0,1.1E2,2.43E2,4E0,1.1E1,3E0,1E0],"tree_param":{"num_deleted":"0","num_feature":"4","num_nodes":"117","size_leaf_vector":"1"}},{"base_weights":[1.4751928E-2,-8.5464305E-1,8.374088E-2,-3.5894175E0,2.639319E-1,1.3623698E0,-1.7818557E-2,-8.703463E0,-4.9618098E-1,4.224105E0,-6.540147E-1,3.654184E0,1.0241988E0,-7.77153E-1,1.1791751E-1,-1.6401634E0,-1.2030092E1,2.1549196E0,-1.6825788E0,9.244842E0,7.892529E-1,1.0805385E0,-4.093393E0,-6.641623E0,1.9497526E0,3.127396E-1,-3.5571115E0,-2.284669E0,1.717978E-1,9.286206E-1,-1.0793716E0,-5.8924665E0,-4.3602524E0,-7.184429E0,7.955413E-1,-4.2080957E-1,3.4964669E0,-3.7861905E0,2.5796897E0,-6.607194E0,2.0144916E0,-4.2343755E0,-1.768227E0,4.236536E-1,-9.344059E0,7.2290645E0,2.9554851E-2,-3.0091765E0,1.2376645E0,-4.722637E0,5.717135E-1,1.2738609E0,-3.2881696E0,6.1861057E0,1.3768901E-1,-2.74895E0,5.879448E-1,1.6772003E-1,-2.6534827E0,1.165218E0,-1.190948E0,4.909481E-1,-1.8847691E0,-2.4847875E0,1.4179231E-2,1.6268338E0,-3.9822742E-1,7.828564E-1,-1.0554309E0,-1.4460417E0,1.1334893E0,1.296135E-1,-3.2407098E0,1.5325428E0,4.2796826E0,-1.4045101E-1,2.3957295E0,4.9907106E-1,-2.8821301E0,2.698391E0,1.3951293E-1,5.4224912E-2,-1.8077728E0,1.4113286E0,-1.5101576E0,-6.100311E-1,1.0307608E0,3.1871426E-1,-1.2510891E0,4.05665E0,6.0433805E-1,2.2860935E-1,-3.5405643E-2],"categories":[],"categories_nodes":[],"categories_segments":[],"categories_sizes":[],"default_left":[0,0,0,0,0,0,0,0,0,0,0,0,0,0,0,0,0,0,0,0,0,0,0,0,0,0,0,0,0,0,0,0,0,0,0,0,0,0,0,0,0,0,0,0,0,0,0,0,0,0,0,0,0,0,0,0,0,0,0,0,0,0,0,0,0,0,0,0,0,0,0,0,0,0,0,0,0,0,0,0,0,0,0,0,0,0,0,0,0,0,0,0,0],"id":17,"left_children":[1,3,5,7,9,11,13,15,17,19,21,-1,23,25,27,29,31,-1,33,35,37,39,41,43,45,47,49,51,53,-1,-1,55,-1,57,59,-1,-1,61,-1,63,65,-1,67,69,71,73,75,77,79,81,83,85,87,89,91,-1,-1,-1,-1,-1,-1,-1,-1,-1,-1,-1,-1,-1,-1,-1,-1,-1,-1,-1,-1,-1,-1,-1,-1,-1,-1,-1,-1,-1,-1,-1,-1,-1,-1,-1,-1,-1,-1],"loss_changes":[8.973966E1,3.3744287E2,1.8000584E2,5.0188794E2,2.899456E2,3.6068307E2,1.325354E2,2.6223242E2,2.0340955E2,2.513858E2,3.9219904E2,0E0,7.224625E2,5.9193445E2,1.4162473E2,5.749203E1,3.7310913E1,0E0,2.647662E2,1.7031476E2,3.8988632E2,3.292293E2,4.8766275E2,2.1398666E2,9.121453E2,4.3695004E2,2.6737384E2,8.989235E1,2.1823859E2,0E0,0E0,1.2068793E2,0E0,8.209396E1,2.2147002E2,0E0,0E0,1.0504066E2,0E0,5.613687E1,4.6280673E2,0E0,1.5473038E2,8.857615E1,1.18719604E2,2.852433E2,2.6905893E2,9.717254E2,6.610625E2,2.7587823E2,3.248424E2,4.988906E1,7.734746E1,1.5638083E2,1.69797E2,0E0,0E0,0E0,0E0,0E0,0E0,0E0,0E0,0E0,0E0,0E0,0E0,0E0,0E0,0E0,0E0,0E0,0E0,0E0,0E0,0E0,0E0,0E0,0E0,0E0,0E0,0E0,0E0,0E0,0E0,0E0,0E0,0E0,0E0,0E0,0E0,0E0,0E0],"parents":[2147483647,0,0,1,1,2,2,3,3,4,4,5,5,6,6,7,7,8,8,9,9,10,10,12,12,13,13,14,14,15,15,16,16,18,18,19,19,20,20,21,21,22,22,23,23,24,24,25,25,26,26,27,27,28,28,31,31,33,33,34,34,37,37,39,39,40,40,42,42,43,43,44,44,45,45,46,46,47,47,48,48,49,49,50,50,51,51,52,52,53,53,54,54],"right_children":[2,4,6,8,10,12,14,16,18,20,22,-1,24,26,28,30,32,-1,34,36,38,40,42,44,46,48,50,52,54,-1,-1,56,-1,58,60,-1,-1,62,-1,64,66,-1,68,70,72,74,76,78,80,82,84,86,88,90,92,-1,-1,-1,-1,-1,-1,-1,-1,-1,-1,-1,-1,-1,-1,-1,-1,-1,-1,-1,-1,-1,-1,-1,-1,-1,-1,-1,-1,-1,-1,-1,-1,-1,-1,-1,-1,-1,-1],"split_conditions":[5.6920996E0,2.0713506E2,6.193674E0,1.018575E1,2.2608078E2,5.149167E-1,6.87779E0,1.5665125E2,1.2046166E1,7.71075E0,5.3999996E0,3.654184E0,4.6857505E0,6.696387E0,1.5665125E2,5.899999E0,8.671166E0,2.1549196E0,1.2839916E1,1.4170002E0,1E-1,2.3325243E2,2.426608E2,1.9628338E0,1.0900333E1,7.7690835E0,2.735395E2,8.335751E0,1.5772409E2,9.286206E-1,-1.0793716E0,4.6857505E0,-4.3602524E0,1.2241998E1,1.8428903E2,-4.2080957E-1,3.4964669E0,5.2416787E0,2.5796897E0,1.4646167E1,2.7212103E2,-4.2343755E0,2.5211666E0,7.899168E-1,2.0351799E2,6.151683E0,3.2246133E2,5.4669995E0,8.544085E0,1.8785318E2,1.1000001E0,5.567E0,7.172949E0,6.0940833E0,8.049845E0,-2.74895E0,5.879448E-1,1.6772003E-1,-2.6534827E0,1.165218E0,-1.190948E0,4.909481E-1,-1.8847691E0,-2.4847875E0,1.4179231E-2,1.6268338E0,-3.9822742E-1,7.828564E-1,-1.0554309E0,-1.4460417E0,1.1334893E0,1.296135E-1,-3.2407098E0,1.5325428E0,4.2796826E0,-1.4045101E-1,2.3957295E0,4.9907106E-1,-2.8821301E0,2.698391E0,1.3951293E-1,5.4224912E-2,-1.8077728E0,1.4113286E0,-1.5101576E0,-6.100311E-1,1.0307608E0,3.1871426E-1,-1.2510891E0,4.05665E0,6.0433805E-1,2.2860935E-1,-3.5405643E-2],"split_indices":[2,3,2,0,3,0,2,3,0,0,2,0,0,2,3,1,0,0,0,0,1,3,3,0,0,0,3,0,3,0,0,0,0,0,3,0,0,2,0,0,3,0,0,0,3,2,3,0,0,3,1,0,2,0,2,0,0,0,0,0,0,0,0,0,0,0,0,0,0,0,0,0,0,0,0,0,0,0,0,0,0,0,0,0,0,0,0,0,0,0,0,0,0],"split_type":[0,0,0,0,0,0,0,0,0,0,0,0,0,0,0,0,0,0,0,0,0,0,0,0,0,0,0,0,0,0,0,0,0,0,0,0,0,0,0,0,0,0,0,0,0,0,0,0,0,0,0,0,0,0,0,0,0,0,0,0,0,0,0,0,0,0,0,0,0,0,0,0,0,0,0,0,0,0,0,0,0,0,0,0,0,0,0,0,0,0,0,0,0],"sum_hessian":[1.494E3,1.09E2,1.385E3,3.1E1,7.8E1,1.01E2,1.284E3,1.1E1,2E1,1.4E1,6.4E1,2E0,9.9E1,1.94E2,1.09E3,4E0,7E0,2E0,1.8E1,5E0,9E0,4.3E1,2.1E1,1E1,8.9E1,1.4E2,5.4E1,2.3E1,1.067E3,1E0,3E0,3E0,4E0,5E0,1.3E1,1E0,4E0,6E0,3E0,4E0,3.9E1,3E0,1.8E1,3E0,7E0,2.3E1,6.6E1,3E1,1.1E2,4.2E1,1.2E1,5E0,1.8E1,5E0,1.062E3,2E0,1E0,1E0,4E0,8E0,5E0,2E0,4E0,3E0,1E0,1.9E1,2E1,5E0,1.3E1,1E0,2E0,1E0,6E0,1.9E1,4E0,6.3E1,3E0,1.8E1,1.2E1,9E0,1.01E2,9E0,3.3E1,7E0,5E0,2E0,3E0,3E0,1.5E1,1E0,4E0,3.08E2,7.54E2],"tree_param":{"num_deleted":"0","num_feature":"4","num_nodes":"93","size_leaf_vector":"1"}},{"base_weights":[1.2150298E-2,3.82771E-2,-1.7388977E0,9.746429E-3,2.1119695E0,-3.6473587E0,-7.9526496E-1,4.9719706E-2,-2.4811864E0,4.6588216E0,2.5832972E-2,-1.3157969E0,-1.5201242E0,8.1319946E-1,-1.489731E0,8.153387E-2,-1.4408405E0,-4.4835777E0,2.7362194E0,-9.8484164E-1,1.9235967E0,-2.051049E0,2.0820487E0,-7.2650474E-1,-1.399409E-1,-3.2124E0,-7.2787577E-1,-7.355047E-2,4.8927116E-1,-4.1386127E-1,-3.17709E0,1.14000954E-1,-5.1041884E0,-5.861156E0,7.3474007E0,-5.856903E-1,1.4251156E-1,6.8276085E-2,-1.255209E0,-5.219307E-2,-1.07803345E-2,-1.2666804E0,-2.7419616E-2,2.4998608E0,-2.2507596E0,-1.0757033E-2,-2.8859816E0,2.5744233E0,6.2231682E-2,-2.7957487E-1,1.4143773E0,-1.059702E0,-3.156931E-1,2.611439E-1,-2.0984346E-1,-1.673952E0,2.3323976E-1,-2.0850606E0,-5.5245954E-1,2.5238137E0,4.6292296E-1,-5.646538E-1,2.504409E-1,1.6528073E-1,8.897572E-1,-9.358243E-1,7.104073E-2],"categories":[],"categories_nodes":[],"categories_segments":[],"categories_sizes":[],"default_left":[0,0,0,0,0,0,0,0,0,0,0,0,0,0,0,0,0,0,0,0,0,0,0,0,0,0,0,0,0,0,0,0,0,0,0,0,0,0,0,0,0,0,0,0,0,0,0,0,0,0,0,0,0,0,0,0,0,0,0,0,0,0,0,0,0,0,0],"id":18,"left_children":[1,3,5,7,9,11,13,15,17,19,21,23,-1,-1,25,27,29,31,33,35,-1,37,-1,-1,39,41,43,45,47,49,51,53,55,57,59,-1,-1,61,-1,-1,-1,-1,-1,63,65,-1,-1,-1,-1,-1,-1,-1,-1,-1,-1,-1,-1,-1,-1,-1,-1,-1,-1,-1,-1,-1,-1],"loss_changes":[6.846175E1,8.7186905E1,3.671888E1,1.4499881E2,1.0614129E2,1.6503937E1,4.299415E1,6.8071655E1,2.5255566E2,9.536334E1,1.8655756E2,4.8625555E0,0E0,0E0,1.6035711E1,8.8816055E1,5.217789E1,4.9088104E1,3.2057266E2,5.164542E0,0E0,4.549046E1,0E0,0E0,4.36813E-3,1.2221279E1,5.969673E1,3.659708E2,8.80822E2,5.7530006E1,4.5859756E0,2.4550202E0,4.630237E1,3.336563E-1,1.7935638E1,0E0,0E0,1.0541708E1,0E0,0E0,0E0,0E0,0E0,1.9987698E0,1.8025333E1,0E0,0E0,0E0,0E0,0E0,0E0,0E0,0E0,0E0,0E0,0E0,0E0,0E0,0E0,0E0,0E0,0E0,0E0,0E0,0E0,0E0,0E0],"parents":[2147483647,0,0,1,1,2,2,3,3,4,4,5,5,6,6,7,7,8,8,9,9,10,10,11,11,14,14,15,15,16,16,17,17,18,18,19,19,21,21,24,24,25,25,26,26,27,27,28,28,29,29,30,30,31,31,32,32,33,33,34,34,37,37,43,43,44,44],"right_children":[2,4,6,8,10,12,14,16,18,20,22,24,-1,-1,26,28,30,32,34,36,-1,38,-1,-1,40,42,44,46,48,50,52,54,56,58,60,-1,-1,62,-1,-1,-1,-1,-1,64,66,-1,-1,-1,-1,-1,-1,-1,-1,-1,-1,-1,-1,-1,-1,-1,-1,-1,-1,-1,-1,-1,-1],"split_conditions":[3.1800001E1,2.7800003E1,1.7695822E2,2.3199999E1,7.928178E0,1.5900122E2,1.8915018E2,3.359987E2,1.7994083E1,5.2416787E0,1.8683666E1,3.4800003E1,-1.5201242E0,8.1319946E-1,7.9932976E0,2.3999999E0,1.0990322E1,4.1046314E0,2.7127298E2,5.994084E0,1.9235967E0,3.0199997E1,2.0820487E0,-7.2650474E-1,8.742E0,4.6599995E1,8.707237E0,2.3999996E0,2.6E0,1.0703569E1,5.6E0,2.5211666E0,1.1480557E1,1.8975336E1,9E0,-5.856903E-1,1.4251156E-1,6.1774163E0,-1.255209E0,-5.219307E-2,-1.07803345E-2,-1.2666804E0,-2.7419616E-2,7.264917E0,2.0981585E1,-1.0757033E-2,-2.8859816E0,2.5744233E0,6.2231682E-2,-2.7957487E-1,1.4143773E0,-1.059702E0,-3.156931E-1,2.611439E-1,-2.0984346E-1,-1.673952E0,2.3323976E-1,-2.0850606E0,-5.5245954E-1,2.5238137E0,4.6292296E-1,-5.646538E-1,2.504409E-1,1.6528073E-1,8.897572E-1,-9.358243E-1,7.104073E-2],"split_indices":[1,1,3,1,2,3,3,3,0,2,0,1,0,0,2,1,2,2,3,0,0,1,0,0,0,1,2,1,1,2,1,0,2,0,2,0,0,0,0,0,0,0,0,0,0,0,0,0,0,0,0,0,0,0,0,0,0,0,0,0,0,0,0,0,0,0,0],"split_type":[0,0,0,0,0,0,0,0,0,0,0,0,0,0,0,0,0,0,0,0,0,0,0,0,0,0,0,0,0,0,0,0,0,0,0,0,0,0,0,0,0,0,0,0,0,0,0,0,0,0,0,0,0,0,0,0,0,0,0,0,0,0,0,0,0,0,0],"sum_hessian":[1.494E3,1.473E3,2.1E1,1.454E3,1.9E1,6E0,1.5E1,1.432E3,2.2E1,8E0,1.1E1,3E0,3E0,2E0,1.3E1,1.403E3,2.9E1,1.6E1,6E0,2E0,6E0,9E0,2E0,1E0,2E0,3E0,1E1,1.017E3,3.86E2,1.9E1,1E1,2E0,1.4E1,2E0,4E0,1E0,1E0,5E0,4E0,1E0,1E0,2E0,1E0,3E0,7E0,1.014E3,3E0,1.2E1,3.74E2,1.8E1,1E0,8E0,2E0,1E0,1E0,1.3E1,1E0,1E0,1E0,3E0,1E0,1E0,4E0,1E0,2E0,5E0,2E0],"tree_param":{"num_deleted":"0","num_feature":"4","num_nodes":"67","size_leaf_vector":"1"}},{"base_weights":[7.068562E-3,-6.1053764E-2,6.8277055E-1,-2.774871E-2,-3.7972338E0,5.1283497E-1,2.430685E0,-4.7423184E-2,3.7480931E0,-9.378434E0,1.529114E0,-3.288779E-1,2.045291E0,1.3917471E-1,-3.291497E-1,2.0562043E0,-2.6778057E0,-3.5075228E0,-3.167879E0,3.6902442E0,-7.7474236E-1,-1.0362746E0,2.4796798E0,4.216817E0,-3.0193552E-1,-6.7213182E-3,3.4606528E0,-5.750026E0,-9.6487366E-2,-1.4173102E0,2.1229763E-1,1.4461899E-1,-1.5701647E0,1.6001368E0,-4.3259013E-1,-1.5600728E0,4.898218E0,5.090224E0,-2.349778E0,4.764698E-1,6.2909827E0,3.5424035E0,-1.2479235E0,-2.0215355E-1,8.386569E-2,2.2711537E0,-1.1282092E0,-2.0184224E0,2.2183485E0,5.377525E-1,-1.3156147E-1,5.235958E-1,-8.5078675E-1,2.18111E0,3.0784609E-2,1.898563E0,6.2726027E-1,-1.2844166E0,1.3859825E0,-1.0770144E0,1.5782992E0,4.088589E0,8.128143E-1,1.4487839E0,3.2241786E-1,1.836953E0,-5.874446E-1],"categories":[],"categories_nodes":[],"categories_segments":[],"categories_sizes":[],"default_left":[0,0,0,0,0,0,0,0,0,0,0,0,0,0,0,0,0,0,0,0,0,0,0,0,0,0,0,0,0,0,0,0,0,0,0,0,0,0,0,0,0,0,0,0,0,0,0,0,0,0,0,0,0,0,0,0,0,0,0,0,0,0,0,0,0,0,0],"id":19,"left_children":[1,3,5,7,9,11,-1,13,15,17,19,21,23,25,27,-1,29,-1,31,33,-1,35,37,39,41,43,45,47,49,-1,-1,-1,-1,-1,-1,51,53,55,57,59,61,63,65,-1,-1,-1,-1,-1,-1,-1,-1,-1,-1,-1,-1,-1,-1,-1,-1,-1,-1,-1,-1,-1,-1,-1,-1],"loss_changes":[6.885712E1,1.6900003E2,1.685799E2,1.0031757E2,3.7106964E2,1.7480754E2,0E0,7.0594185E1,1.5806203E2,4.9163513E1,7.1729706E1,1.7740489E2,2.4593224E2,3.915724E2,6.742052E2,0E0,2.4128923E1,0E0,2.5145437E1,4.986624E1,0E0,2.2834341E2,2.3889612E2,1.9095508E2,9.1701416E1,1.4819781E2,1.0375474E3,3.325822E2,3.3289825E2,0E0,0E0,0E0,0E0,0E0,0E0,2.83291E2,6.750922E1,3.1337769E1,1.1401923E2,2.1345087E2,3.8356335E2,1.0687828E1,1.1669289E2,0E0,0E0,0E0,0E0,0E0,0E0,0E0,0E0,0E0,0E0,0E0,0E0,0E0,0E0,0E0,0E0,0E0,0E0,0E0,0E0,0E0,0E0,0E0,0E0],"parents":[2147483647,0,0,1,1,2,2,3,3,4,4,5,5,7,7,8,8,9,9,10,10,11,11,12,12,13,13,14,14,16,16,18,18,19,19,21,21,22,22,23,23,24,24,25,25,26,26,27,27,28,28,35,35,36,36,37,37,38,38,39,39,40,40,41,41,42,42],"right_children":[2,4,6,8,10,12,-1,14,16,18,20,22,24,26,28,-1,30,-1,32,34,-1,36,38,40,42,44,46,48,50,-1,-1,-1,-1,-1,-1,52,54,56,58,60,62,64,66,-1,-1,-1,-1,-1,-1,-1,-1,-1,-1,-1,-1,-1,-1,-1,-1,-1,-1,-1,-1,-1,-1,-1,-1],"split_conditions":[2.3879503E1,2.3619081E1,9.9E0,2.3487839E1,7.5599995E0,2.5131248E2,2.430685E0,2.8087497E2,8.373386E0,