{"learner":{"attributes":{"scikit_learn":"{\"_estimator_type\": \"regressor\"}"},"feature_names":["pm25_last_1d","pm25_last_2d","pm25_last_3d","temperature_2m_mean","precipitation_sum","wind_speed_10m_max","wind_direction_10m_dominant"],"feature_types":["float","float","float","float","float","float","float"],"gradient_booster":{"model":{"gbtree_model_param":{"num_parallel_tree":"1","num_trees":"100"},"iteration_indptr":[0,1,2,3,4,5,6,7,8,9,10,11,12,13,14,15,16,17,18,19,20,21,22,23,24,25,26,27,28,29,30,31,32,33,34,35,36,37,38,39,40,41,42,43,44,45,46,47,48,49,50,51,52,53,54,55,56,57,58,59,60,61,62,63,64,65,66,67,68,69,70,71,72,73,74,75,76,77,78,79,80,81,82,83,84,85,86,87,88,89,90,91,92,93,94,95,96,97,98,99,100],"tree_info":[0,0,0,0,0,0,0,0,0,0,0,0,0,0,0,0,0,0,0,0,0,0,0,0,0,0,0,0,0,0,0,0,0,0,0,0,0,0,0,0,0,0,0,0,0,0,0,0,0,0,0,0,0,0,0,0,0,0,0,0,0,0,0,0,0,0,0,0,0,0,0,0,0,0,0,0,0,0,0,0,0,0,0,0,0,0,0,0,0,0,0,0,0,0,0,0,0,0,0,0],"trees":[{"base_weights":[6.634256E-7,-7.9573636E0,2.5109905E1,-1.6554712E1,-1.2685517E0,1.8245144E1,4.5501465E1,-1.9743903E0,-1.1471884E0,1.7585598E-1,-1.059246E0,2.017461E0,-1.5477906E-1,4.71603E0,-1.8324854E0],"categories":[],"categories_nodes":[],"categories_segments":[],"categories_sizes":[],"default_left":[0,0,0,0,0,0,0,0,0,0,0,0,0,0,0],"id":0,"left_children":[1,3,5,7,9,11,13,-1,-1,-1,-1,-1,-1,-1,-1],"loss_changes":[2.9891375E5,6.530586E4,4.9563766E4,7.829922E3,1.8082309E4,1.0380664E4,1.0393172E4,0E0,0E0,0E0,0E0,0E0,0E0,0E0,0E0],"parents":[2147483647,0,0,1,1,2,2,3,3,4,4,5,5,6,6],"right_children":[2,4,6,8,10,12,14,-1,-1,-1,-1,-1,-1,-1,-1],"split_conditions":[5.3E1,2.8E1,8.1E1,2.1E1,2.9698932E2,3.0898615E2,1.288981E1,-1.9743903E0,-1.1471884E0,1.7585598E-1,-1.059246E0,2.017461E0,-1.5477906E-1,4.71603E0,-1.8324854E0],"split_indices":[0,0,0,0,6,6,5,0,0,0,0,0,0,0,0],"split_type":[0,0,0,0,0,0,0,0,0,0,0,0,0,0,0],"sum_hessian":[1.494E3,1.135E3,3.59E2,4.96E2,6.39E2,2.7E2,8.9E1,3.03E2,1.93E2,4.83E2,1.56E2,2.46E2,2.4E1,8.7E1,2E0],"tree_param":{"num_deleted":"0","num_feature":"7","num_nodes":"15","size_leaf_vector":"1"}},{"base_weights":[4.9669144E-4,-7.1651525E0,2.2612099E1,-1.2375501E1,2.0911603E0,1.6427504E1,4.098336E1,-1.7388194E0,-8.118281E-1,4.8816806E-1,-7.2130036E-1,1.8165318E0,-1.3992041E-1,4.2497864E0,-1.7103198E0],"categories":[],"categories_nodes":[],"categories_segments":[],"categories_sizes":[],"default_left":[0,0,0,0,0,0,0,0,0,0,0,0,0,0,0],"id":1,"left_children":[1,3,5,7,9,11,13,-1,-1,-1,-1,-1,-1,-1,-1],"loss_changes":[2.423921E5,5.4813586E4,4.022953E4,1.5373109E4,1.068023E4,8.420859E3,8.644359E3,0E0,0E0,0E0,0E0,0E0,0E0,0E0,0E0],"parents":[2147483647,0,0,1,1,2,2,3,3,4,4,5,5,6,6],"right_children":[2,4,6,8,10,12,14,-1,-1,-1,-1,-1,-1,-1,-1],"split_conditions":[5.3E1,3.6E1,8.1E1,2.2E1,2.9656494E2,3.0898615E2,1.288981E1,-1.7388194E0,-8.118281E-1,4.8816806E-1,-7.2130036E-1,1.8165318E0,-1.3992041E-1,4.2497864E0,-1.7103198E0],"split_indices":[0,0,0,0,6,6,5,0,0,0,0,0,0,0,0],"split_type":[0,0,0,0,0,0,0,0,0,0,0,0,0,0,0],"sum_hessian":[1.494E3,1.135E3,3.59E2,7.26E2,4.09E2,2.7E2,8.9E1,3.32E2,3.94E2,3.15E2,9.4E1,2.46E2,2.4E1,8.7E1,2E0],"tree_param":{"num_deleted":"0","num_feature":"7","num_nodes":"15","size_leaf_vector":"1"}},{"base_weights":[1.4054697E-3,-8.881467E0,1.4933543E1,-1.443666E1,-4.2708855E0,8.396331E0,3.1430305E1,2.1119777E-2,-1.5198582E0,-1.7968826E-1,-1.1795629E0,1.0460187E0,-5.0595623E-1,3.939516E0,2.0024383E0],"categories":[],"categories_nodes":[],"categories_segments":[],"categories_sizes":[],"default_left":[0,0,0,0,0,0,0,0,0,0,0,0,0,0,0],"id":2,"left_children":[1,3,5,7,9,11,13,-1,-1,-1,-1,-1,-1,-1,-1],"loss_changes":[1.9842983E5,2.3963031E4,5.9912406E4,4.7464375E3,9.547553E3,1.1189107E4,1.3564875E4,0E0,0E0,0E0,0E0,0E0,0E0,0E0,0E0],"parents":[2147483647,0,0,1,1,2,2,3,3,4,4,5,5,6,6],"right_children":[2,4,6,8,10,12,14,-1,-1,-1,-1,-1,-1,-1,-1],"split_conditions":[4.5E1,2.5E1,6.9E1,4.5209165E0,2.981027E2,3.0996173E2,1E-1,2.1119777E-2,-1.5198582E0,-1.7968826E-1,-1.1795629E0,1.0460187E0,-5.0595623E-1,3.939516E0,2.0024383E0],"split_indices":[0,0,0,3,6,6,4,0,0,0,0,0,0,0,0],"split_type":[0,0,0,0,0,0,0,0,0,0,0,0,0,0,0],"sum_hessian":[1.494E3,9.37E2,5.57E2,4.24E2,5.13E2,4E2,1.57E2,2.1E1,4.03E2,3.87E2,1.26E2,3.47E2,5.3E1,9.1E1,6.6E1],"tree_param":{"num_deleted":"0","num_feature":"7","num_nodes":"15","size_leaf_vector":"1"}},{"base_weights":[3.6885596E-3,-6.6398654E0,1.6313375E1,-1.2495124E1,-1.9957386E0,9.378116E0,2.8324883E1,6.736885E-1,-1.3187742E0,2.9052868E-2,-8.949834E-1,1.4178152E0,4.5451427E-1,3.5498464E0,1.8051834E0],"categories":[],"categories_nodes":[],"categories_segments":[],"categories_sizes":[],"default_left":[0,0,0,0,0,0,0,0,0,0,0,0,0,0,0],"id":3,"left_children":[1,3,5,7,9,11,13,-1,-1,-1,-1,-1,-1,-1,-1],"loss_changes":[1.6209798E5,2.888075E4,3.580454E4,6.349461E3,9.446559E3,6.33833E3,1.1002914E4,0E0,0E0,0E0,0E0,0E0,0E0,0E0,0E0],"parents":[2147483647,0,0,1,1,2,2,3,3,4,4,5,5,6,6],"right_children":[2,4,6,8,10,12,14,-1,-1,-1,-1,-1,-1,-1,-1],"split_conditions":[5E1,2.7E1,6.9E1,2.8896668E0,4.2000003E0,2E-1,1E-1,6.736885E-1,-1.3187742E0,2.9052868E-2,-8.949834E-1,1.4178152E0,4.5451427E-1,3.5498464E0,1.8051834E0],"split_indices":[0,0,0,3,4,4,4,0,0,0,0,0,0,0,0],"split_type":[0,0,0,0,0,0,0,0,0,0,0,0,0,0,0],"sum_hessian":[1.494E3,1.062E3,4.32E2,4.69E2,5.93E2,2.75E2,1.57E2,1.6E1,4.53E2,4.47E2,1.46E2,1.37E2,1.38E2,9.1E1,6.6E1],"tree_param":{"num_deleted":"0","num_feature":"7","num_nodes":"15","size_leaf_vector":"1"}},{"base_weights":[7.1438127E-3,-7.548398E0,1.1872707E1,-1.2958361E1,-4.4400373E0,6.498386E0,2.4859308E1,3.8973864E-2,-1.3633311E0,-2.1133736E-1,-1.0780072E0,9.7411644E-1,3.0753696E-2,2.160803E0,4.689894E0],"categories":[],"categories_nodes":[],"categories_segments":[],"categories_sizes":[],"default_left":[0,0,0,0,0,0,0,0,0,0,0,0,0,0,0],"id":4,"left_children":[1,3,5,7,9,11,13,-1,-1,-1,-1,-1,-1,-1,-1],"loss_changes":[1.341175E5,1.5312395E4,4.0458664E4,3.005414E3,8.562376E3,8.288209E3,1.1168281E4,0E0,0E0,0E0,0E0,0E0,0E0,0E0,0E0],"parents":[2147483647,0,0,1,1,2,2,3,3,4,4,5,5,6,6],"right_children":[2,4,6,8,10,12,14,-1,-1,-1,-1,-1,-1,-1,-1],"split_conditions":[4.4E1,2.2E1,6.8E1,4.5209165E0,2.981027E2,8.913181E0,1.04E2,3.8973864E-2,-1.3633311E0,-2.1133736E-1,-1.0780072E0,9.7411644E-1,3.0753696E-2,2.160803E0,4.689894E0],"split_indices":[0,0,0,3,6,5,0,0,0,0,0,0,0,0,0],"split_type":[0,0,0,0,0,0,0,0,0,0,0,0,0,0,0],"sum_hessian":[1.494E3,9.13E2,5.81E2,3.32E2,5.81E2,4.12E2,1.69E2,1.6E1,3.16E2,4.26E2,1.55E2,2.7E2,1.42E2,1.49E2,2E1],"tree_param":{"num_deleted":"0","num_feature":"7","num_nodes":"15","size_leaf_vector":"1"}},{"base_weights":[9.935406E-3,-4.814567E0,1.5233893E1,-8.394549E0,1.545096E0,1.0939802E1,2.7994614E1,-6.1278147E-1,-1.3297198E0,5.409512E-1,-2.5395885E-1,1.2471846E0,-4.6343753E-1,2.9310694E0,-1.9941934E0],"categories":[],"categories_nodes":[],"categories_segments":[],"categories_sizes":[],"default_left":[0,0,0,0,0,0,0,0,0,0,0,0,0,0,0],"id":5,"left_children":[1,3,5,7,9,11,13,-1,-1,-1,-1,-1,-1,-1,-1],"loss_changes":[1.0987814E5,2.587683E4,1.9420195E4,7.997668E3,6.4855557E3,6.5239453E3,6.262461E3,0E0,0E0,0E0,0E0,0E0,0E0,0E0,0E0],"parents":[2147483647,0,0,1,1,2,2,3,3,4,4,5,5,6,6],"right_children":[2,4,6,8,10,12,14,-1,-1,-1,-1,-1,-1,-1,-1],"split_conditions":[5.3E1,3.6E1,8.1E1,3.0162317E2,2E-1,1.5200001E1,1.288981E1,-6.1278147E-1,-1.3297198E0,5.409512E-1,-2.5395885E-1,1.2471846E0,-4.6343753E-1,2.9310694E0,-1.9941934E0],"split_indices":[0,0,0,6,4,4,5,0,0,0,0,0,0,0,0],"split_type":[0,0,0,0,0,0,0,0,0,0,0,0,0,0,0],"sum_hessian":[1.494E3,1.135E3,3.59E2,7.26E2,4.09E2,2.7E2,8.9E1,4.98E2,2.28E2,2.1E2,1.99E2,2.46E2,2.4E1,8.7E1,2E0],"tree_param":{"num_deleted":"0","num_feature":"7","num_nodes":"15","size_leaf_vector":"1"}},{"base_weights":[8.985541E-3,-6.369989E0,9.377432E0,-1.1167569E1,-3.87453E0,5.2671666E0,2.0998516E1,1.0206478E-1,-1.1803707E0,4.6236774E-1,-5.052818E-1,9.399149E-1,9.9978335E-2,1.8282387E0,4.2450995E0],"categories":[],"categories_nodes":[],"categories_segments":[],"categories_sizes":[],"default_left":[0,0,0,0,0,0,0,0,0,0,0,0,0,0,0],"id":6,"left_children":[1,3,5,7,9,11,13,-1,-1,-1,-1,-1,-1,-1,-1],"loss_changes":[8.9402555E4,1.0611957E4,2.883543E4,2.3690781E3,5.9011885E3,7.907709E3,8.430195E3,0E0,0E0,0E0,0E0,0E0,0E0,0E0,0E0],"parents":[2147483647,0,0,1,1,2,2,3,3,4,4,5,5,6,6],"right_children":[2,4,6,8,10,12,14,-1,-1,-1,-1,-1,-1,-1,-1],"split_conditions":[4.3E1,2.1E1,6.9E1,4.5209165E0,6.6500835E0,8.089993E0,1.07E2,1.0206478E-1,-1.1803707E0,4.6236774E-1,-5.052818E-1,9.399149E-1,9.9978335E-2,1.8282387E0,4.2450995E0],"split_indices":[0,0,0,3,3,5,0,0,0,0,0,0,0,0,0],"split_type":[0,0,0,0,0,0,0,0,0,0,0,0,0,0,0],"sum_hessian":[1.494E3,8.89E2,6.05E2,3.03E2,5.86E2,4.48E2,1.57E2,1.5E1,2.88E2,7.1E1,5.15E2,2.27E2,2.21E2,1.41E2,1.6E1],"tree_param":{"num_deleted":"0","num_feature":"7","num_nodes":"15","size_leaf_vector":"1"}},{"base_weights":[1.2095201E-2,-3.709694E0,1.3369399E1,-6.867488E0,1.4691933E0,9.909452E0,2.3712332E1,-5.18615E-1,-1.2221678E0,3.1741846E-1,-6.448477E-1,1.1499416E0,-6.0062534E-1,2.5065732E0,-1.9831299E0],"categories":[],"categories_nodes":[],"categories_segments":[],"categories_sizes":[],"default_left":[0,0,0,0,0,0,0,0,0,0,0,0,0,0,0],"id":7,"left_children":[1,3,5,7,9,11,13,-1,-1,-1,-1,-1,-1,-1,-1],"loss_changes":[7.437064E4,1.9144102E4,1.1431258E4,6.4812188E3,6.0142725E3,6.2941934E3,5.2705703E3,0E0,0E0,0E0,0E0,0E0,0E0,0E0,0E0],"parents":[2147483647,0,0,1,1,2,2,3,3,4,4,5,5,6,6],"right_children":[2,4,6,8,10,12,14,-1,-1,-1,-1,-1,-1,-1,-1],"split_conditions":[5.5E1,3.6E1,8.3E1,3.095299E2,3.0791104E2,1.5200001E1,1.288981E1,-5.18615E-1,-1.2221678E0,3.1741846E-1,-6.448477E-1,1.1499416E0,-6.0062534E-1,2.5065732E0,-1.9831299E0],"split_indices":[0,0,0,6,6,4,5,0,0,0,0,0,0,0,0],"split_type":[0,0,0,0,0,0,0,0,0,0,0,0,0,0,0],"sum_hessian":[1.494E3,1.169E3,3.25E2,7.26E2,4.43E2,2.45E2,8E1,5.54E2,1.72E2,3.65E2,7.8E1,2.23E2,2.2E1,7.8E1,2E0],"tree_param":{"num_deleted":"0","num_feature":"7","num_nodes":"15","size_leaf_vector":"1"}},{"base_weights":[1.0220526E-2,-3.3404913E0,1.203575E1,-6.2941833E0,1.1512226E0,1.05116415E1,3.367106E1,9.2935413E-1,-6.880067E-1,4.6133938E-1,-2.4678473E-1,1.4439261E0,2.855541E-1,3.5140438E0,2.1417503E-1],"categories":[],"categories_nodes":[],"categories_segments":[],"categories_sizes":[],"default_left":[0,0,0,0,0,0,0,0,0,0,0,0,0,0,0],"id":8,"left_children":[1,3,5,7,9,11,13,-1,-1,-1,-1,-1,-1,-1,-1],"loss_changes":[6.0279867E4,1.55298E4,1.039577E4,6.511551E3,5.8377607E3,9.160262E3,8.9763477E2,0E0,0E0,0E0,0E0,0E0,0E0,0E0,0E0],"parents":[2147483647,0,0,1,1,2,2,3,3,4,4,5,5,6,6],"right_children":[2,4,6,8,10,12,14,-1,-1,-1,-1,-1,-1,-1,-1],"split_conditions":[5.5E1,3.5E1,1.04E2,3.0813334E0,2E-1,8.669949E0,1.28E2,9.2935413E-1,-6.880067E-1,4.6133938E-1,-2.4678473E-1,1.4439261E0,2.855541E-1,3.5140438E0,2.1417503E-1],"split_indices":[0,0,0,3,4,5,2,0,0,0,0,0,0,0,0],"split_type":[0,0,0,0,0,0,0,0,0,0,0,0,0,0,0],"sum_hessian":[1.494E3,1.169E3,3.25E2,7.05E2,4.64E2,3.05E2,2E1,2.5E1,6.8E2,2.37E2,2.27E2,2.01E2,1.04E2,1.9E1,1E0],"tree_param":{"num_deleted":"0","num_feature":"7","num_nodes":"15","size_leaf_vector":"1"}},{"base_weights":[1.3154377E-2,-2.6807723E0,1.2356919E1,-6.950109E0,2.2160596E-1,1.7785791E1,5.9089875E0,-5.388955E-1,-1.1408523E0,1.969348E-1,-5.567808E-1,1.5085443E0,3.1453493E0,1.0926026E0,-1.2477958E-1],"categories":[],"categories_nodes":[],"categories_segments":[],"categories_sizes":[],"default_left":[0,0,0,0,0,0,0,0,0,0,0,0,0,0,0],"id":9,"left_children":[1,3,5,7,9,11,13,-1,-1,-1,-1,-1,-1,-1,-1],"loss_changes":[4.9746656E4,1.5217969E4,9.276246E3,3.3977754E3,7.4176367E3,4.8771055E3,4.4659595E3,0E0,0E0,0E0,0E0,0E0,0E0,0E0,0E0],"parents":[2147483647,0,0,1,1,2,2,3,3,4,4,5,5,6,6],"right_children":[2,4,6,8,10,12,14,-1,-1,-1,-1,-1,-1,-1,-1],"split_conditions":[5.8E1,2.8E1,2E-1,3.1062967E2,2.9698932E2,9.9E1,8.669949E0,-5.388955E-1,-1.1408523E0,1.969348E-1,-5.567808E-1,1.5085443E0,3.1453493E0,1.0926026E0,-1.2477958E-1],"split_indices":[0,0,4,6,6,0,5,0,0,0,0,0,0,0,0],"split_type":[0,0,0,0,0,0,0,0,0,0,0,0,0,0,0],"sum_hessian":[1.494E3,1.227E3,2.67E2,4.96E2,7.31E2,1.44E2,1.23E2,3.69E2,1.27E2,5.62E2,1.69E2,1.22E2,2.2E1,7.2E1,5.1E1],"tree_param":{"num_deleted":"0","num_feature":"7","num_nodes":"15","size_leaf_vector":"1"}},{"base_weights":[1.4235236E-2,-4.0643916E0,6.8703966E0,-7.964729E0,-2.1907432E0,4.230932E0,1.5794633E1,1.9403723E-1,-8.485549E-1,6.854525E-1,-3.1118524E-1,6.225994E-1,-3.2097962E-1,1.8845223E0,3.2194492E-1],"categories":[],"categories_nodes":[],"categories_segments":[],"categories_sizes":[],"default_left":[0,0,0,0,0,0,0,0,0,0,0,0,0,0,0],"id":10,"left_children":[1,3,5,7,9,11,13,-1,-1,-1,-1,-1,-1,-1,-1],"loss_changes":[4.183369E4,6.837325E3,1.3076977E4,1.5847305E3,5.311948E3,6.4329004E3,4.8112695E3,0E0,0E0,0E0,0E0,0E0,0E0,0E0,0E0],"parents":[2147483647,0,0,1,1,2,2,3,3,4,4,5,5,6,6],"right_children":[2,4,6,8,10,12,14,-1,-1,-1,-1,-1,-1,-1,-1],"split_conditions":[4.5E1,2.1E1,7.4E1,4.5209165E0,5.9875846E0,6.200001E0,2.8E0,1.9403723E-1,-8.485549E-1,6.854525E-1,-3.1118524E-1,6.225994E-1,-3.2097962E-1,1.8845223E0,3.2194492E-1],"split_indices":[0,0,0,3,3,4,4,0,0,0,0,0,0,0,0],"split_type":[0,0,0,0,0,0,0,0,0,0,0,0,0,0,0],"sum_hessian":[1.494E3,9.37E2,5.57E2,3.03E2,6.34E2,4.31E2,1.26E2,1.5E1,2.88E2,5.8E1,5.76E2,3.4E2,9.1E1,1.01E2,2.5E1],"tree_param":{"num_deleted":"0","num_feature":"7","num_nodes":"15","size_leaf_vector":"1"}},{"base_weights":[1.4301394E-2,-4.0370173E0,5.6447053E0,-2.3088193E0,-8.082755E0,2.9320912E0,1.2903647E1,7.697189E-1,-3.5346794E-1,-6.5420115E-1,-1.1177912E0,4.6349093E-1,-3.0398247E-1,1.5910661E0,2.0395306E-1],"categories":[],"categories_nodes":[],"categories_segments":[],"categories_sizes":[],"default_left":[0,0,0,0,0,0,0,0,0,0,0,0,0,0,0],"id":11,"left_children":[1,3,5,7,9,11,13,-1,-1,-1,-1,-1,-1,-1,-1],"loss_changes":[3.412458E4,6.0642383E3,1.2288547E4,7.521713E3,1.1667715E3,4.6613623E3,5.521205E3,0E0,0E0,0E0,0E0,0E0,0E0,0E0,0E0],"parents":[2147483647,0,0,1,1,2,2,3,3,4,4,5,5,6,6],"right_children":[2,4,6,8,10,12,14,-1,-1,-1,-1,-1,-1,-1,-1],"split_conditions":[4.2E1,3.0162317E2,6.8E1,6.6500835E0,4.2E0,2.9203625E2,2.8515732E2,7.697189E-1,-3.5346794E-1,-6.5420115E-1,-1.1177912E0,4.6349093E-1,-3.0398247E-1,1.5910661E0,2.0395306E-1],"split_indices":[0,6,0,3,4,6,6,0,0,0,0,0,0,0,0],"split_type":[0,0,0,0,0,0,0,0,0,0,0,0,0,0,0],"sum_hessian":[1.494E3,8.69E2,6.25E2,6.1E2,2.59E2,4.56E2,1.69E2,6.6E1,5.44E2,1.75E2,8.4E1,3.55E2,1.01E2,1.32E2,3.7E1],"tree_param":{"num_deleted":"0","num_feature":"7","num_nodes":"15","size_leaf_vector":"1"}},{"base_weights":[1.3272276E-2,-1.8794364E0,9.967755E0,-4.234313E0,1.3481994E0,1.4434933E1,4.4155784E0,-2.3003216E-1,-7.5185794E-1,2.7891085E-1,-4.0672478E-1,1.2208943E0,2.6290028E0,9.554305E-1,-2.7182344E-1],"categories":[],"categories_nodes":[],"categories_segments":[],"categories_sizes":[],"default_left":[0,0,0,0,0,0,0,0,0,0,0,0,0,0,0],"id":12,"left_children":[1,3,5,7,9,11,13,-1,-1,-1,-1,-1,-1,-1,-1],"loss_changes":[2.8185936E4,9.559768E3,5.864074E3,4.600423E3,4.154826E3,3.162416E3,3.9851118E3,0E0,0E0,0E0,0E0,0E0,0E0,0E0,0E0],"parents":[2147483647,0,0,1,1,2,2,3,3,4,4,5,5,6,6],"right_children":[2,4,6,8,10,12,14,-1,-1,-1,-1,-1,-1,-1,-1],"split_conditions":[6E1,3.6E1,2E-1,1.7000002E0,2.9656494E2,1.01E2,8.854829E0,-2.3003216E-1,-7.5185794E-1,2.7891085E-1,-4.0672478E-1,1.2208943E0,2.6290028E0,9.554305E-1,-2.7182344E-1],"split_indices":[0,0,4,4,6,0,5,0,0,0,0,0,0,0,0],"split_type":[0,0,0,0,0,0,0,0,0,0,0,0,0,0,0],"sum_hessian":[1.494E3,1.256E3,2.38E2,7.26E2,5.3E2,1.31E2,1.07E2,4.58E2,2.68E2,4.19E2,1.11E2,1.12E2,1.9E1,6.2E1,4.5E1],"tree_param":{"num_deleted":"0","num_feature":"7","num_nodes":"15","size_leaf_vector":"1"}},{"base_weights":[1.4235056E-2,-2.491E0,6.1644673E0,-6.271458E0,-9.7553885E-1,1.0164166E1,1.9856033E0,-2.8226456E-1,-7.5754476E-1,4.6864096E-2,-5.4667395E-1,1.5289674E0,5.560633E-1,4.038677E-1,-9.3353635E-1],"categories":[],"categories_nodes":[],"categories_segments":[],"categories_sizes":[],"default_left":[0,0,0,0,0,0,0,0,0,0,0,0,0,0,0],"id":13,"left_children":[1,3,5,7,9,11,13,-1,-1,-1,-1,-1,-1,-1,-1],"loss_changes":[2.304998E4,6.0839546E3,7.2170645E3,1.3457695E3,4.931998E3,5.129574E3,4.988414E3,0E0,0E0,0E0,0E0,0E0,0E0,0E0,0E0],"parents":[2147483647,0,0,1,1,2,2,3,3,4,4,5,5,6,6],"right_children":[2,4,6,8,10,12,14,-1,-1,-1,-1,-1,-1,-1,-1],"split_conditions":[5E1,2.1E1,1E-1,1.1043834E1,4.2000003E0,7.9500847E0,3.0898615E2,-2.8226456E-1,-7.5754476E-1,4.6864096E-2,-5.4667395E-1,1.5289674E0,5.560633E-1,4.038677E-1,-9.3353635E-1],"split_indices":[0,0,4,3,4,3,6,0,0,0,0,0,0,0,0],"split_type":[0,0,0,0,0,0,0,0,0,0,0,0,0,0,0],"sum_hessian":[1.494E3,1.062E3,4.32E2,3.03E2,7.59E2,2.2E2,2.12E2,8.4E1,2.19E2,5.75E2,1.84E2,1.03E2,1.17E2,1.8E2,3.2E1],"tree_param":{"num_deleted":"0","num_feature":"7","num_nodes":"15","size_leaf_vector":"1"}},{"base_weights":[1.2822377E-2,-1.4683297E0,8.742687E0,1.3812152E-1,-5.326743E0,1.1673341E1,2.4215522E0,6.7078024E-1,-1.3815844E-1,-1.6890532E-1,-6.729948E-1,1.3188413E0,2.8658453E-1,1.1793429E-2,2.3137264E0],"categories":[],"categories_nodes":[],"categories_segments":[],"categories_sizes":[],"default_left":[0,0,0,0,0,0,0,0,0,0,0,0,0,0,0],"id":14,"left_children":[1,3,5,7,9,11,13,-1,-1,-1,-1,-1,-1,-1,-1],"loss_changes":[1.934357E4,7.9284297E3,3.99167E3,9.034788E3,1.9078955E3,1.9371152E3,3.3377473E3,0E0,0E0,0E0,0E0,0E0,0E0,0E0,0E0],"parents":[2147483647,0,0,1,1,2,2,3,3,4,4,5,5,6,6],"right_children":[2,4,6,8,10,12,14,-1,-1,-1,-1,-1,-1,-1,-1],"split_conditions":[6.2E1,2.9758194E2,8.669949E0,8.329251E0,1E-1,2.8786493E2,1.04E2,6.7078024E-1,-1.3815844E-1,-1.6890532E-1,-6.729948E-1,1.3188413E0,2.8658453E-1,1.1793429E-2,2.3137264E0],"split_indices":[0,6,5,3,4,6,0,0,0,0,0,0,0,0,0],"split_type":[0,0,0,0,0,0,0,0,0,0,0,0,0,0,0],"sum_hessian":[1.494E3,1.278E3,2.16E2,9.03E2,3.75E2,1.47E2,6.9E1,1.69E2,7.34E2,1.05E2,2.7E2,1.25E2,2.2E1,6.3E1,6E0],"tree_param":{"num_deleted":"0","num_feature":"7","num_nodes":"15","size_leaf_vector":"1"}},{"base_weights":[1.396233E-2,-2.8287218E0,3.9646351E0,2.8616965E0,-3.6219757E0,5.9009604E0,-1.3492811E0,6.9698614E-1,-4.7812834E-1,-2.4432066E-1,-6.9792485E-1,8.654193E-1,1.299349E-1,1.1035273E-1,-8.73398E-1],"categories":[],"categories_nodes":[],"categories_segments":[],"categories_sizes":[],"default_left":[0,0,0,0,0,0,0,0,0,0,0,0,0,0,0],"id":15,"left_children":[1,3,5,7,9,11,13,-1,-1,-1,-1,-1,-1,-1,-1],"loss_changes":[1.6800834E4,3.937499E3,6.44917E3,3.3929775E3,3.0064395E3,5.803966E3,3.0526646E3,0E0,0E0,0E0,0E0,0E0,0E0,0E0,0E0],"parents":[2147483647,0,0,1,1,2,2,3,3,4,4,5,5,6,6],"right_children":[2,4,6,8,10,12,14,-1,-1,-1,-1,-1,-1,-1,-1],"split_conditions":[4.2E1,6.6500835E0,2.8E0,3.0336636E2,4.2E0,1.24625845E1,1.000256E1,6.9698614E-1,-4.7812834E-1,-2.4432066E-1,-6.9792485E-1,8.654193E-1,1.299349E-1,1.1035273E-1,-8.73398E-1],"split_indices":[0,3,4,6,4,3,5,0,0,0,0,0,0,0,0],"split_type":[0,0,0,0,0,0,0,0,0,0,0,0,0,0,0],"sum_hessian":[1.494E3,8.69E2,6.25E2,1.06E2,7.63E2,4.58E2,1.67E2,6.9E1,3.7E1,5.66E2,1.97E2,2.86E2,1.72E2,1.26E2,4.1E1],"tree_param":{"num_deleted":"0","num_feature":"7","num_nodes":"15","size_leaf_vector":"1"}},{"base_weights":[1.223767E-2,-2.5466814E0,3.5685432E0,-7.679013E0,-1.7469076E0,3.0037587E0,1.9696682E1,-3.8670668E-1,-9.193942E-1,3.8884708E-1,-2.516595E-1,5.209525E-1,-9.178899E-2,-1.055926E-1,2.1936743E0],"categories":[],"categories_nodes":[],"categories_segments":[],"categories_sizes":[],"default_left":[0,0,0,0,0,0,0,0,0,0,0,0,0,0,0],"id":16,"left_children":[1,3,5,7,9,11,13,-1,-1,-1,-1,-1,-1,-1,-1],"loss_changes":[1.3614034E4,3.5576777E3,5.6430225E3,6.401011E2,3.2802466E3,5.2468276E3,9.9939307E2,0E0,0E0,0E0,0E0,0E0,0E0,0E0,0E0],"parents":[2147483647,0,0,1,1,2,2,3,3,4,4,5,5,6,6],"right_children":[2,4,6,8,10,12,14,-1,-1,-1,-1,-1,-1,-1,-1],"split_conditions":[4.2E1,1.4E1,1.04E2,9.602168E0,6.6500835E0,8.707237E0,1.716944E2,-3.8670668E-1,-9.193942E-1,3.8884708E-1,-2.516595E-1,5.209525E-1,-9.178899E-2,-1.055926E-1,2.1936743E0],"split_indices":[0,0,0,3,3,5,6,0,0,0,0,0,0,0,0],"split_type":[0,0,0,0,0,0,0,0,0,0,0,0,0,0,0],"sum_hessian":[1.494E3,8.69E2,6.25E2,1.16E2,7.53E2,6.05E2,2E1,3.4E1,8.2E1,9E1,6.63E2,3.87E2,2.18E2,2E0,1.8E1],"tree_param":{"num_deleted":"0","num_feature":"7","num_nodes":"15","size_leaf_vector":"1"}},{"base_weights":[1.1915549E-2,-1.2126865E0,6.452555E0,1.3525851E-1,-4.371396E0,8.19967E0,-1.0559855E0,4.069725E-1,-1.6919154E-1,-2.9045337E-1,-7.8030676E-1,1.0819665E0,3.0719241E-1,-3.2064047E-1,1.1382979E0],"categories":[],"categories_nodes":[],"categories_segments":[],"categories_sizes":[],"default_left":[0,0,0,0,0,0,0,0,0,0,0,0,0,0,0],"id":17,"left_children":[1,3,5,7,9,11,13,-1,-1,-1,-1,-1,-1,-1,-1],"loss_changes":[1.179922E4,5.3526045E3,3.1439287E3,6.347543E3,1.870041E3,2.573088E3,1.2669519E3,0E0,0E0,0E0,0E0,0E0,0E0,0E0,0E0],"parents":[2147483647,0,0,1,1,2,2,3,3,4,4,5,5,6,6],"right_children":[2,4,6,8,10,12,14,-1,-1,-1,-1,-1,-1,-1,-1],"split_conditions":[6E1,2.8999999E0,2.9203625E2,1.2589665E1,9.957108E0,9.358418E0,9E1,4.069725E-1,-1.6919154E-1,-2.9045337E-1,-7.8030676E-1,1.0819665E0,3.0719241E-1,-3.2064047E-1,1.1382979E0],"split_indices":[0,4,6,3,5,3,0,0,0,0,0,0,0,0,0],"split_type":[0,0,0,0,0,0,0,0,0,0,0,0,0,0,0],"sum_hessian":[1.494E3,1.256E3,2.38E2,8.81E2,3.75E2,1.93E2,4.5E1,2.79E2,6.02E2,2.64E2,1.11E2,1.27E2,6.6E1,3.9E1,6E0],"tree_param":{"num_deleted":"0","num_feature":"7","num_nodes":"15","size_leaf_vector":"1"}},{"base_weights":[1.164336E-2,-2.3601058E0,2.737775E0,-6.770713E0,-1.6022094E0,5.190422E0,-9.424655E-2,-3.509812E-1,-8.064217E-1,7.742454E-1,-2.0128696E-1,1.0171529E0,2.0844105E-1,1.3678396E-1,-7.1157986E-1],"categories":[],"categories_nodes":[],"categories_segments":[],"categories_sizes":[],"default_left":[0,0,0,0,0,0,0,0,0,0,0,0,0,0,0],"id":18,"left_children":[1,3,5,7,9,11,13,-1,-1,-1,-1,-1,-1,-1,-1],"loss_changes":[9.672684E3,2.6633784E3,4.8348696E3,4.6520068E2,2.640421E3,5.749621E3,3.3359539E3,0E0,0E0,0E0,0E0,0E0,0E0,0E0,0E0],"parents":[2147483647,0,0,1,1,2,2,3,3,4,4,5,5,6,6],"right_children":[2,4,6,8,10,12,14,-1,-1,-1,-1,-1,-1,-1,-1],"split_conditions":[3.9E1,1.4E1,2E-1,9.602168E0,3.0813334E0,9.0563345E0,3.1178125E2,-3.509812E-1,-8.064217E-1,7.742454E-1,-2.0128696E-1,1.0171529E0,2.0844105E-1,1.3678396E-1,-7.1157986E-1],"split_indices":[0,0,4,3,3,3,6,0,0,0,0,0,0,0,0],"split_type":[0,0,0,0,0,0,0,0,0,0,0,0,0,0,0],"sum_hessian":[1.494E3,7.99E2,6.95E2,1.16E2,6.83E2,3.72E2,3.23E2,3.4E1,8.2E1,2.8E1,6.55E2,1.42E2,2.3E2,2.68E2,5.5E1],"tree_param":{"num_deleted":"0","num_feature":"7","num_nodes":"15","size_leaf_vector":"1"}},{"base_weights":[1.0522801E-2,-8.936745E-1,6.114971E0,3.274038E-1,-3.8494792E0,8.635914E0,7.759485E-1,7.524456E-1,-3.365412E-2,-9.699009E-2,-4.9704462E-1,9.5154583E-1,6.057584E-2,-1.2675619E-1,1.7305113E0],"categories":[],"categories_nodes":[],"categories_segments":[],"categories_sizes":[],"default_left":[0,0,0,0,0,0,0,0,0,0,0,0,0,0,0],"id":19,"left_children":[1,3,5,7,9,11,13,-1,-1,-1,-1,-1,-1,-1,-1],"loss_changes":[8.257305E3,4.7041377E3,2.5909565E3,4.413038E3,1.2250137E3,9.1947266E2,2.149919E3,0E0,0E0,0E0,0E0,0E0,0E0,0E0,0E0],"parents":[2147483647,0,0,1,1,2,2,3,3,4,4,5,5,6,6],"right_children":[2,4,6,8,10,12,14,-1,-1,-1,-1,-1,-1,-1,-1],"split_conditions":[6.5E1,2.9758194E2,8.669949E0,4.7792506E0,1E-1,2.9203625E2,1.04E2,7.524456E-1,-3.365412E-2,-9.699009E-2,-4.9704462E-1,9.5154583E-1,6.057584E-2,-1.2675619E-1,1.7305113E0],"split_indices":[0,6,5,3,4,6,0,0,0,0,0,0,0,0,0],"split_type":[0,0,0,0,0,0,0,0,0,0,0,0,0,0,0],"sum_hessian":[1.494E3,1.302E3,1.92E2,9.22E2,3.8E2,1.3E2,6.2E1,7.7E1,8.45E2,1.07E2,2.73E2,1.17E2,1.3E1,5.6E1,6E0],"tree_param":{"num_deleted":"0","num_feature":"7","num_nodes":"15","size_leaf_vector":"1"}},{"base_weights":[1.1303261E-2,-2.2163723E0,2.1172965E0,1.5256433E1,-2.4074364E0,2.9462442E0,-4.3311086E0,2.32501E0,5.8102113E-1,-1.4571442E-1,-5.8337677E-1,4.8924813E-1,2.3434782E-2,-2.4538289E-1,-1.0203675E0],"categories":[],"categories_nodes":[],"categories_segments":[],"categories_sizes":[],"default_left":[0,0,0,0,0,0,0,0,0,0,0,0,0,0,0],"id":20,"left_children":[1,3,5,7,9,11,13,-1,-1,-1,-1,-1,-1,-1,-1],"loss_changes":[7.01844E3,2.4637627E3,4.123366E3,4.689917E2,2.3358306E3,3.5984448E3,9.451135E2,0E0,0E0,0E0,0E0,0E0,0E0,0E0,0E0],"parents":[2147483647,0,0,1,1,2,2,3,3,4,4,5,5,6,6],"right_children":[2,4,6,8,10,12,14,-1,-1,-1,-1,-1,-1,-1,-1],"split_conditions":[3.6E1,5.0841683E-1,1.1300002E1,7.289445E0,6E0,1.24625845E1,9.957108E0,2.32501E0,5.8102113E-1,-1.4571442E-1,-5.8337677E-1,4.8924813E-1,2.3434782E-2,-2.4538289E-1,-1.0203675E0],"split_indices":[0,3,4,5,4,3,5,0,0,0,0,0,0,0,0],"split_type":[0,0,0,0,0,0,0,0,0,0,0,0,0,0,0],"sum_hessian":[1.494E3,7.26E2,7.68E2,7E0,7.19E2,6.81E2,8.7E1,3E0,4E0,5.64E2,1.55E2,3.96E2,2.85E2,6.7E1,2E1],"tree_param":{"num_deleted":"0","num_feature":"7","num_nodes":"15","size_leaf_vector":"1"}},{"base_weights":[1.1125438E-2,9.9197656E-1,-4.103039E0,4.9025307E0,-6.347666E-1,2.3465274E-2,-5.0991926E0,7.8586334E-1,1.9520684E-1,3.727167E-2,-3.687488E-1,-2.2310165E-1,7.107303E-1,-3.6749044E-1,-7.974378E-1],"categories":[],"categories_nodes":[],"categories_segments":[],"categories_sizes":[],"default_left":[0,0,0,0,0,0,0,0,0,0,0,0,0,0,0],"id":21,"left_children":[1,3,5,7,9,11,13,-1,-1,-1,-1,-1,-1,-1,-1],"loss_changes":[6.0369673E3,7.6877627E3,1.1839819E3,3.0809238E3,2.6279077E3,9.2616846E2,9.2075635E2,0E0,0E0,0E0,0E0,0E0,0E0,0E0,0E0],"parents":[2147483647,0,0,1,1,2,2,3,3,4,4,5,5,6,6],"right_children":[2,4,6,8,10,12,14,-1,-1,-1,-1,-1,-1,-1,-1],"split_conditions":[3.0702325E2,9.0563345E0,1E-1,2E-1,2.8999999E0,4.3E1,1.1792404E1,7.8586334E-1,1.9520684E-1,3.727167E-2,-3.687488E-1,-2.2310165E-1,7.107303E-1,-3.6749044E-1,-7.974378E-1],"split_indices":[6,3,4,4,4,0,5,0,0,0,0,0,0,0,0],"split_type":[0,0,0,0,0,0,0,0,0,0,0,0,0,0,0],"sum_hessian":[1.494E3,1.207E3,2.87E2,3.54E2,8.53E2,5.6E1,2.31E2,1.76E2,1.78E2,6.42E2,2.11E2,4.3E1,1.3E1,1.56E2,7.5E1],"tree_param":{"num_deleted":"0","num_feature":"7","num_nodes":"15","size_leaf_vector":"1"}},{"base_weights":[9.994003E-3,-2.7975135E0,1.2960744E0,-3.1577513E0,4.681776E0,2.405262E0,-2.2495613E0,-5.4918265E-1,-2.3657386E-1,1.1590725E0,-3.2808745E-1,5.5638593E-1,1.02981746E-1,-5.3332496E-2,-7.199112E-1],"categories":[],"categories_nodes":[],"categories_segments":[],"categories_sizes":[],"default_left":[0,0,0,0,0,0,0,0,0,0,0,0,0,0,0],"id":22,"left_children":[1,3,5,7,9,11,13,-1,-1,-1,-1,-1,-1,-1,-1],"loss_changes":[5.401593E3,1.2811162E3,4.0404385E3,8.170371E2,1.2483257E3,3.391649E3,2.0773374E3,0E0,0E0,0E0,0E0,0E0,0E0,0E0,0E0],"parents":[2147483647,0,0,1,1,2,2,3,3,4,4,5,5,6,6],"right_children":[2,4,6,8,10,12,14,-1,-1,-1,-1,-1,-1,-1,-1],"split_conditions":[2.7E1,5.1E1,4.3999996E0,1.4E1,6.243833E0,8.537584E0,1.0144082E1,-5.4918265E-1,-2.3657386E-1,1.1590725E0,-3.2808745E-1,5.5638593E-1,1.02981746E-1,-5.3332496E-2,-7.199112E-1],"split_indices":[0,1,4,0,3,3,5,0,0,0,0,0,0,0,0],"split_type":[0,0,0,0,0,0,0,0,0,0,0,0,0,0,0],"sum_hessian":[1.494E3,4.69E2,1.025E3,4.48E2,2.1E1,7.81E2,2.44E2,1.12E2,3.36E2,1.1E1,1E1,2.36E2,5.45E2,1.82E2,6.2E1],"tree_param":{"num_deleted":"0","num_feature":"7","num_nodes":"15","size_leaf_vector":"1"}},{"base_weights":[8.948736E-3,1.2910696E0,-2.5146086E0,6.207786E0,3.1684464E-1,1.2701519E1,-2.7234404E0,7.426636E-1,-4.7685462E-1,1.284614E-1,-3.5561416E-1,1.6906618E0,5.32104E-1,-2.9151085E-1,9.380612E-1],"categories":[],"categories_nodes":[],"categories_segments":[],"categories_sizes":[],"default_left":[0,0,0,0,0,0,0,0,0,0,0,0,0,0,0],"id":23,"left_children":[1,3,5,7,9,11,13,-1,-1,-1,-1,-1,-1,-1,-1],"loss_changes":[4.8403276E3,4.749701E3,1.6361091E3,2.2294897E3,3.1117905E3,1.2728882E2,1.182685E3,0E0,0E0,0E0,0E0,0E0,0E0,0E0,0E0],"parents":[2147483647,0,0,1,1,2,2,3,3,4,4,5,5,6,6],"right_children":[2,4,6,8,10,12,14,-1,-1,-1,-1,-1,-1,-1,-1],"split_conditions":[2.8786493E2,6.243833E0,1.1466677E-1,9.726664E0,5.9E0,4.6E1,9E1,7.426636E-1,-4.7685462E-1,1.284614E-1,-3.5561416E-1,1.6906618E0,5.32104E-1,-2.9151085E-1,9.380612E-1],"split_indices":[6,3,3,5,4,0,0,0,0,0,0,0,0,0,0],"split_type":[0,0,0,0,0,0,0,0,0,0,0,0,0,0,0],"sum_hessian":[1.494E3,9.91E2,5.03E2,1.63E2,8.28E2,6E0,4.97E2,1.47E2,1.6E1,6.63E2,1.65E2,3E0,3E0,4.9E2,7E0],"tree_param":{"num_deleted":"0","num_feature":"7","num_nodes":"15","size_leaf_vector":"1"}},{"base_weights":[9.999509E-3,-2.2410524E0,1.2057886E0,-2.515123E0,5.103702E0,1.7938768E0,-5.9947176E0,-4.0876016E-1,-1.465418E-1,7.5781476E-1,-6.070005E-1,1.5901676E-1,1.6803751E0,1.2746443E0,-6.9661254E-1],"categories":[],"categories_nodes":[],"categories_segments":[],"categories_sizes":[],"default_left":[0,0,0,0,0,0,0,0,0,0,0,0,0,0,0],"id":24,"left_children":[1,3,5,7,9,11,13,-1,-1,-1,-1,-1,-1,-1,-1],"loss_changes":[4.0269185E3,1.0575732E3,4.147892E3,8.2098E2,5.713252E2,2.7373955E3,1.4359854E3,0E0,0E0,0E0,0E0,0E0,0E0,0E0,0E0],"parents":[2147483647,0,0,1,1,2,2,3,3,4,4,5,5,6,6],"right_children":[2,4,6,8,10,12,14,-1,-1,-1,-1,-1,-1,-1,-1],"split_conditions":[2.9E1,5.3E1,1.2245294E1,1.8E1,5.7000003E0,1.09E2,1.7524771E2,-4.0876016E-1,-1.465418E-1,7.5781476E-1,-6.070005E-1,1.5901676E-1,1.6803751E0,1.2746443E0,-6.9661254E-1],"split_indices":[0,1,5,0,4,0,6,0,0,0,0,0,0,0,0],"split_type":[0,0,0,0,0,0,0,0,0,0,0,0,0,0,0],"sum_hessian":[1.494E3,5.18E2,9.76E2,5E2,1.8E1,9.03E2,7.3E1,1.99E2,3.01E2,1.5E1,3E0,8.92E2,1.1E1,3E0,7E1],"tree_param":{"num_deleted":"0","num_feature":"7","num_nodes":"15","size_leaf_vector":"1"}},{"base_weights":[1.03462E-2,-6.304173E-1,3.7869644E0,-1.2804839E-1,-4.069164E0,4.5675964E0,-7.0300546E0,2.9001573E-1,-8.65589E-2,1.441875E-1,-4.8943305E-1,3.8753188E-1,1.5263408E0,-1.566435E-1,-1.4964412E0],"categories":[],"categories_nodes":[],"categories_segments":[],"categories_sizes":[],"default_left":[0,0,0,0,0,0,0,0,0,0,0,0,0,0,0],"id":25,"left_children":[1,3,5,7,9,11,13,-1,-1,-1,-1,-1,-1,-1,-1],"loss_changes":[3.6201667E3,2.208976E3,1.8644827E3,2.4972456E3,7.4830347E2,1.4439575E3,6.2681396E2,0E0,0E0,0E0,0E0,0E0,0E0,0E0,0E0],"parents":[2147483647,0,0,1,1,2,2,3,3,4,4,5,5,6,6],"right_children":[2,4,6,8,10,12,14,-1,-1,-1,-1,-1,-1,-1,-1],"split_conditions":[6.2E1,3.1713428E2,1.26E1,8.329251E0,1E-1,1.09E2,1.0514218E1,2.9001573E-1,-8.65589E-2,1.441875E-1,-4.8943305E-1,3.8753188E-1,1.5263408E0,-1.566435E-1,-1.4964412E0],"split_indices":[0,6,4,3,4,0,5,0,0,0,0,0,0,0,0],"split_type":[0,0,0,0,0,0,0,0,0,0,0,0,0,0,0],"sum_hessian":[1.494E3,1.278E3,2.16E2,1.116E3,1.62E2,2.02E2,1.4E1,2.18E2,8.98E2,2.1E1,1.41E2,1.91E2,1.1E1,9E0,5E0],"tree_param":{"num_deleted":"0","num_feature":"7","num_nodes":"15","size_leaf_vector":"1"}},{"base_weights":[9.391109E-3,1.0597866E0,-2.0580726E0,3.834728E0,-8.086384E-2,1.1651204E1,-2.2466404E0,5.1863045E-1,-6.122033E-1,8.746307E-2,-2.826154E-1,1.55731E0,4.8165074E-1,-2.4012522E-1,7.5234824E-1],"categories":[],"categories_nodes":[],"categories_segments":[],"categories_sizes":[],"default_left":[0,0,0,0,0,0,0,0,0,0,0,0,0,0,0],"id":26,"left_children":[1,3,5,7,9,11,13,-1,-1,-1,-1,-1,-1,-1,-1],"loss_changes":[3.2488044E3,3.1402263E3,1.3290818E3,3.9209155E3,1.8491411E3,1.1262677E2,7.703325E2,0E0,0E0,0E0,0E0,0E0,0E0,0E0,0E0],"parents":[2147483647,0,0,1,1,2,2,3,3,4,4,5,5,6,6],"right_children":[2,4,6,8,10,12,14,-1,-1,-1,-1,-1,-1,-1,-1],"split_conditions":[2.8786493E2,9.0563345E0,1.1466677E-1,9.726664E0,2.8999999E0,4.6E1,9E1,5.1863045E-1,-6.122033E-1,8.746307E-2,-2.826154E-1,1.55731E0,4.8165074E-1,-2.4012522E-1,7.5234824E-1],"split_indices":[6,3,3,5,4,0,0,0,0,0,0,0,0,0,0],"split_type":[0,0,0,0,0,0,0,0,0,0,0,0,0,0,0],"sum_hessian":[1.494E3,9.91E2,5.03E2,2.88E2,7.03E2,6E0,4.97E2,2.54E2,3.4E1,5.22E2,1.81E2,3E0,3E0,4.9E2,7E0],"tree_param":{"num_deleted":"0","num_feature":"7","num_nodes":"15","size_leaf_vector":"1"}},{"base_weights":[9.965107E-3,-1.9744211E0,9.189822E-1,-2.3439662E0,2.685467E0,2.0548015E0,-1.2998117E0,-3.5877284E-1,-1.3596955E-1,-9.305193E-1,4.5328164E-1,2.5497174E-1,-5.1456827E-1,-2.4579261E-1,3.8777253E-1],"categories":[],"categories_nodes":[],"categories_segments":[],"categories_sizes":[],"default_left":[0,0,0,0,0,0,0,0,0,0,0,0,0,0,0],"id":27,"left_children":[1,3,5,7,9,11,13,-1,-1,-1,-1,-1,-1,-1,-1],"loss_changes":[2.698557E3,8.1565283E2,2.5883438E3,5.2887256E2,8.1746155E2,2.4328274E3,2.0962014E3,0E0,0E0,0E0,0E0,0E0,0E0,0E0,0E0],"parents":[2147483647,0,0,1,1,2,2,3,3,4,4,5,5,6,6],"right_children":[2,4,6,8,10,12,14,-1,-1,-1,-1,-1,-1,-1,-1],"split_conditions":[2.7E1,5.6E1,8.891344E0,1.8E1,9E0,1.77E1,2.1668833E1,-3.5877284E-1,-1.3596955E-1,-9.305193E-1,4.5328164E-1,2.5497174E-1,-5.1456827E-1,-2.4579261E-1,3.8777253E-1],"split_indices":[0,2,5,0,0,4,3,0,0,0,0,0,0,0,0],"split_type":[0,0,0,0,0,0,0,0,0,0,0,0,0,0,0],"sum_hessian":[1.494E3,4.69E2,1.025E3,4.35E2,3.4E1,6.78E2,3.47E2,1.91E2,2.44E2,4E0,3E1,6.35E2,4.3E1,2.84E2,6.3E1],"tree_param":{"num_deleted":"0","num_feature":"7","num_nodes":"15","size_leaf_vector":"1"}},{"base_weights":[8.239877E-3,5.841265E-1,-2.8211484E0,3.1201043E0,-3.858297E-1,8.458809E-1,-3.5343282E0,5.3061575E-1,9.5380984E-2,-1.17727555E-1,1.9797093E-1,-1.3610657E-1,7.189191E-1,-2.4587834E-1,-5.9831065E-1],"categories":[],"categories_nodes":[],"categories_segments":[],"categories_sizes":[],"default_left":[0,0,0,0,0,0,0,0,0,0,0,0,0,0,0],"id":28,"left_children":[1,3,5,7,9,11,13,-1,-1,-1,-1,-1,-1,-1,-1],"loss_changes":[2.4376108E3,3.0587195E3,6.646481E2,1.6239973E3,1.687307E3,5.9775745E2,5.4364795E2,0E0,0E0,0E0,0E0,0E0,0E0,0E0,0E0],"parents":[2147483647,0,0,1,1,2,2,3,3,4,4,5,5,6,6],"right_children":[2,4,6,8,10,12,14,-1,-1,-1,-1,-1,-1,-1,-1],"split_conditions":[3.1062967E2,8.537584E0,1E-1,2E-1,4.8E1,4.3E1,1.1983188E1,5.3061575E-1,9.5380984E-2,-1.17727555E-1,1.9797093E-1,-1.3610657E-1,7.189191E-1,-2.4587834E-1,-5.9831065E-1],"split_indices":[6,3,4,4,0,0,5,0,0,0,0,0,0,0,0],"split_type":[0,0,0,0,0,0,0,0,0,0,0,0,0,0,0],"sum_hessian":[1.494E3,1.242E3,2.52E2,3.43E2,8.99E2,4.1E1,2.11E2,1.7E2,1.73E2,6.74E2,2.25E2,3.1E1,1E1,1.48E2,6.3E1],"tree_param":{"num_deleted":"0","num_feature":"7","num_nodes":"15","size_leaf_vector":"1"}},{"base_weights":[7.713551E-3,5.5242735E-1,-2.8288987E0,2.237613E0,-7.654304E-1,-3.7871017E0,6.417857E0,4.0260944E-1,-4.5118805E-2,-1.4967266E-1,2.3619337E-1,-2.4364166E-1,-7.1680886E-1,7.507156E-1,-8.7733597E-1],"categories":[],"categories_nodes":[],"categories_segments":[],"categories_sizes":[],"default_left":[0,0,0,0,0,0,0,0,0,0,0,0,0,0,0],"id":29,"left_children":[1,3,5,7,9,11,13,-1,-1,-1,-1,-1,-1,-1,-1],"loss_changes":[2.31155E3,2.7888608E3,2.1596301E3,2.651505E3,1.6158907E3,9.8263184E2,4.464616E2,0E0,0E0,0E0,0E0,0E0,0E0,0E0,0E0],"parents":[2147483647,0,0,1,1,2,2,3,3,4,4,5,5,6,6],"right_children":[2,4,6,8,10,12,14,-1,-1,-1,-1,-1,-1,-1,-1],"split_conditions":[8.1E0,1.2375084E1,2.1668833E1,8.707237E0,2.3873003E1,9.957108E0,6.1E1,4.0260944E-1,-4.5118805E-2,-1.4967266E-1,2.3619337E-1,-2.4364166E-1,-7.1680886E-1,7.507156E-1,-8.7733597E-1],"split_indices":[4,3,3,5,3,5,1,0,0,0,0,0,0,0,0],"split_type":[0,0,0,0,0,0,0,0,0,0,0,0,0,0,0],"sum_hessian":[1.494E3,1.254E3,2.4E2,5.5E2,7.04E2,2.18E2,2.2E1,3.3E2,2.2E2,5.71E2,1.33E2,1.57E2,6.1E1,2.1E1,1E0],"tree_param":{"num_deleted":"0","num_feature":"7","num_nodes":"15","size_leaf_vector":"1"}},{"base_weights":[6.5120747E-3,-1.3470711E-1,9.925168E0,7.26048E-1,-1.5263275E0,-6.032946E0,1.1922493E1,1.2801461E-1,-2.8054804E-1,-1.2857686E-1,-1.0885022E0,1.7595673E-2,-9.225376E-1,1.3066326E0,-4.333248E-1],"categories":[],"categories_nodes":[],"categories_segments":[],"categories_sizes":[],"default_left":[0,0,0,0,0,0,0,0,0,0,0,0,0,0,0],"id":30,"left_children":[1,3,5,7,9,11,13,-1,-1,-1,-1,-1,-1,-1,-1],"loss_changes":[2.0953901E3,1.7679286E3,7.412722E2,1.7882051E3,1.2557479E3,6.108773E1,4.099026E2,0E0,0E0,0E0,0E0,0E0,0E0,0E0,0E0],"parents":[2147483647,0,0,1,1,2,2,3,3,4,4,5,5,6,6],"right_children":[2,4,6,8,10,12,14,-1,-1,-1,-1,-1,-1,-1,-1],"split_conditions":[1.04E2,2.8159216E2,1.716944E2,1.1300002E1,9E1,1.07E2,1.28E2,1.2801461E-1,-2.8054804E-1,-1.2857686E-1,-1.0885022E0,1.7595673E-2,-9.225376E-1,1.3066326E0,-4.333248E-1],"split_indices":[0,6,6,4,1,0,2,0,0,0,0,0,0,0,0],"split_type":[0,0,0,0,0,0,0,0,0,0,0,0,0,0,0],"sum_hessian":[1.494E3,1.474E3,2E1,9.11E2,5.63E2,2E0,1.8E1,7.88E2,1.23E2,5.5E2,1.3E1,1E0,1E0,1.7E1,1E0],"tree_param":{"num_deleted":"0","num_feature":"7","num_nodes":"15","size_leaf_vector":"1"}},{"base_weights":[4.9239327E-3,-5.6144965E-1,2.0217514E0,-7.969723E-2,-3.154053E0,2.780857E0,-4.0236716E0,-2.7731025E-1,4.260199E-2,-4.22412E-1,5.7782024E-1,6.5868586E-1,1.8498278E-1,-2.1401528E-1,-1.5650162E0],"categories":[],"categories_nodes":[],"categories_segments":[],"categories_sizes":[],"default_left":[0,0,0,0,0,0,0,0,0,0,0,0,0,0,0],"id":31,"left_children":[1,3,5,7,9,11,13,-1,-1,-1,-1,-1,-1,-1,-1],"loss_changes":[1.7088402E3,1.4585723E3,1.5164192E3,1.3442133E3,1.7735425E3,1.0225176E3,7.767586E2,0E0,0E0,0E0,0E0,0E0,0E0,0E0,0E0],"parents":[2147483647,0,0,1,1,2,2,3,3,4,4,5,5,6,6],"right_children":[2,4,6,8,10,12,14,-1,-1,-1,-1,-1,-1,-1,-1],"split_conditions":[5.5E1,8.1E0,1.1435313E1,1.8E1,2.1668833E1,5E1,8.8E1,-2.7731025E-1,4.260199E-2,-4.22412E-1,5.7782024E-1,6.5868586E-1,1.8498278E-1,-2.1401528E-1,-1.5650162E0],"split_indices":[2,4,5,0,3,1,1,0,0,0,0,0,0,0,0],"split_type":[0,0,0,0,0,0,0,0,0,0,0,0,0,0,0],"sum_hessian":[1.494E3,1.167E3,3.27E2,9.85E2,1.82E2,2.91E2,3.6E1,1.55E2,8.3E2,1.63E2,1.9E1,5.6E1,2.35E2,3.2E1,4E0],"tree_param":{"num_deleted":"0","num_feature":"7","num_nodes":"15","size_leaf_vector":"1"}},{"base_weights":[3.7525846E-3,-1.2084358E-1,8.7549715E0,-7.4459404E-2,-2.2855196E0,-5.8546195E0,1.0600961E1,3.682622E-2,-2.2210121E-1,7.4668885E-3,-8.856598E-1,1.2912967E0,1.544751E-1],"categories":[],"categories_nodes":[],"categories_segments":[],"categories_sizes":[],"default_left":[0,0,0,0,0,0,0,0,0,0,0,0,0],"id":32,"left_children":[1,3,5,7,-1,9,11,-1,-1,-1,-1,-1,-1],"loss_changes":[1.6311587E3,1.553707E3,6.284169E2,1.4006469E3,0E0,5.4060097E1,3.77875E2,0E0,0E0,0E0,0E0,0E0,0E0],"parents":[2147483647,0,0,1,1,2,2,3,3,5,5,6,6],"right_children":[2,4,6,8,-1,10,12,-1,-1,-1,-1,-1,-1],"split_conditions":[1.04E2,1.03E2,1.716944E2,3.1062967E2,-2.2855196E0,1.07E2,1.12E2,3.682622E-2,-2.2210121E-1,7.4668885E-3,-8.856598E-1,1.2912967E0,1.544751E-1],"split_indices":[0,0,6,6,0,0,2,0,0,0,0,0,0],"split_type":[0,0,0,0,0,0,0,0,0,0,0,0,0],"sum_hessian":[1.494E3,1.474E3,2E1,1.472E3,2E0,2E0,1.8E1,1.221E3,2.51E2,1E0,1E0,1.4E1,4E0],"tree_param":{"num_deleted":"0","num_feature":"7","num_nodes":"13","size_leaf_vector":"1"}},{"base_weights":[2.1035562E-3,-3.5332322E-1,2.77442E0,5.820401E-3,-2.8630366E0,3.2500503E0,-1.3571391E0,-2.6394856E-1,4.498006E-2,1.0576829E0,-3.3461183E-1,2.7919677E-1,1.7441918E0],"categories":[],"categories_nodes":[],"categories_segments":[],"categories_sizes":[],"default_left":[0,0,0,0,0,0,0,0,0,0,0,0,0],"id":33,"left_children":[1,3,5,7,9,11,-1,-1,-1,-1,-1,-1,-1],"loss_changes":[1.4740868E3,1.1952034E3,1.3657837E3,1.3647394E3,1.1131554E3,1.0304768E3,0E0,0E0,0E0,0E0,0E0,0E0,0E0],"parents":[2147483647,0,0,1,1,2,2,3,3,4,4,5,5],"right_children":[2,4,6,8,10,12,-1,-1,-1,-1,-1,-1,-1],"split_conditions":[6.8E1,1.1983188E1,1.3104198E1,1.8E1,1.7695822E2,1.191812E1,-1.3571391E0,-2.6394856E-1,4.498006E-2,1.0576829E0,-3.3461183E-1,2.7919677E-1,1.7441918E0],"split_indices":[0,5,5,0,6,5,0,0,0,0,0,0,0],"split_type":[0,0,0,0,0,0,0,0,0,0,0,0,0],"sum_hessian":[1.494E3,1.325E3,1.69E2,1.16E3,1.65E2,1.65E2,4E0,1.66E2,9.94E2,5E0,1.6E2,1.61E2,4E0],"tree_param":{"num_deleted":"0","num_feature":"7","num_nodes":"13","size_leaf_vector":"1"}},{"base_weights":[2.6760849E-3,6.437784E-1,-1.4548906E0,2.659932E0,-7.728723E-1,-1.2677287E0,-1.5311939E1,3.431388E-1,-1.7933951E-1,-1.5037088E-1,1.9695066E-1,-1.4972904E-1,7.2743076E-1,-6.1361796E-1,-1.8365774E0],"categories":[],"categories_nodes":[],"categories_segments":[],"categories_sizes":[],"default_left":[0,0,0,0,0,0,0,0,0,0,0,0,0,0,0],"id":34,"left_children":[1,3,5,7,9,11,13,-1,-1,-1,-1,-1,-1,-1,-1],"loss_changes":[1.3979385E3,2.9696323E3,1.1658235E3,1.4800029E3,1.2275465E3,8.972295E2,5.5431885E1,0E0,0E0,0E0,0E0,0E0,0E0,0E0,0E0],"parents":[2147483647,0,0,1,1,2,2,3,3,4,4,5,5,6,6],"right_children":[2,4,6,8,10,12,14,-1,-1,-1,-1,-1,-1,-1,-1],"split_conditions":[2.6E0,1.24625845E1,1.7057314E1,3.0791104E2,2.3873003E1,2.335425E1,2.6E1,3.431388E-1,-1.7933951E-1,-1.5037088E-1,1.9695066E-1,-1.4972904E-1,7.2743076E-1,-6.1361796E-1,-1.8365774E0],"split_indices":[4,3,5,6,3,3,0,0,0,0,0,0,0,0,0],"split_type":[0,0,0,0,0,0,0,0,0,0,0,0,0,0,0],"sum_hessian":[1.494E3,1.038E3,4.56E2,4.28E2,6.1E2,4.51E2,5E0,3.65E2,6.3E1,4.82E2,1.28E2,4.4E2,1.1E1,2E0,3E0],"tree_param":{"num_deleted":"0","num_feature":"7","num_nodes":"15","size_leaf_vector":"1"}},{"base_weights":[1.2969767E-3,2.7974883E-1,-3.0002925E0,1.4679992E0,-6.7434657E-1,-3.987713E0,5.965373E0,3.2691532E-1,-4.287429E-2,-1.3021372E-1,1.8662278E-1,-3.0833822E-1,-8.394682E-1,1.6258602E-1,7.104641E-1],"categories":[],"categories_nodes":[],"categories_segments":[],"categories_sizes":[],"default_left":[0,0,0,0,0,0,0,0,0,0,0,0,0,0,0],"id":35,"left_children":[1,3,5,7,9,11,13,-1,-1,-1,-1,-1,-1,-1,-1],"loss_changes":[1.2503575E3,1.553031E3,1.1481044E3,2.0853596E3,1.2145913E3,4.3243225E2,5.2719147E1,0E0,0E0,0E0,0E0,0E0,0E0,0E0,0E0],"parents":[2147483647,0,0,1,1,2,2,3,3,4,4,5,5,6,6],"right_children":[2,4,6,8,10,12,14,-1,-1,-1,-1,-1,-1,-1,-1],"split_conditions":[1.5200001E1,1.2375084E1,2.1668833E1,8.14587E0,2.3481337E1,1.1159999E1,2.20605E1,3.2691532E-1,-4.287429E-2,-1.3021372E-1,1.8662278E-1,-3.0833822E-1,-8.394682E-1,1.6258602E-1,7.104641E-1],"split_indices":[4,3,3,5,3,5,3,0,0,0,0,0,0,0,0],"split_type":[0,0,0,0,0,0,0,0,0,0,0,0,0,0,0],"sum_hessian":[1.494E3,1.368E3,1.26E2,6.09E2,7.59E2,1.14E2,1.2E1,3.12E2,2.97E2,6.09E2,1.5E2,9.6E1,1.8E1,3E0,9E0],"tree_param":{"num_deleted":"0","num_feature":"7","num_nodes":"15","size_leaf_vector":"1"}},{"base_weights":[1.2113272E-3,-7.509663E-2,1.0302675E1,7.3839843E-1,-9.0619826E-1,1.2469889E1,3.3925802E-1,2.361116E-1,-5.3230103E-2,-1.4490937E-1,1.8882167E-1,3.121731E-1,1.3359379E0],"categories":[],"categories_nodes":[],"categories_segments":[],"categories_sizes":[],"default_left":[0,0,0,0,0,0,0,0,0,0,0,0,0],"id":36,"left_children":[1,3,5,7,9,11,-1,-1,-1,-1,-1,-1,-1],"loss_changes":[1.1759688E3,1.00467334E3,1.22427124E2,1.5498085E3,1.1177866E3,2.4816284E1,0E0,0E0,0E0,0E0,0E0,0E0,0E0],"parents":[2147483647,0,0,1,1,2,2,3,3,4,4,5,5],"right_children":[2,4,6,8,10,12,-1,-1,-1,-1,-1,-1,-1],"split_conditions":[1.1E2,8.14587E0,1.12E2,1.2039666E1,2.1668833E1,2.3576807E2,3.3925802E-1,2.361116E-1,-5.3230103E-2,-1.4490937E-1,1.8882167E-1,3.121731E-1,1.3359379E0],"split_indices":[0,5,2,3,3,6,0,0,0,0,0,0,0],"split_type":[0,0,0,0,0,0,0,0,0,0,0,0,0],"sum_hessian":[1.494E3,1.484E3,1E1,7.5E2,7.34E2,7E0,3E0,3.29E2,4.21E2,6.15E2,1.19E2,1E0,6E0],"tree_param":{"num_deleted":"0","num_feature":"7","num_nodes":"13","size_leaf_vector":"1"}},{"base_weights":[2.5712247E-3,2.5266677E-1,-2.6933608E0,-2.9181197E0,5.183714E-1,-3.5381045E0,5.696942E0,-4.8308206E-1,-1.8654332E-1,1.5072845E-1,-2.934255E-2,-9.606983E-1,-2.9378533E-1,7.1832675E-1,2.1794324E-1],"categories":[],"categories_nodes":[],"categories_segments":[],"categories_sizes":[],"default_left":[0,0,0,0,0,0,0,0,0,0,0,0,0,0,0],"id":37,"left_children":[1,3,5,7,9,11,13,-1,-1,-1,-1,-1,-1,-1,-1],"loss_changes":[1.0086702E3,1.1548853E3,9.202887E2,2.0441681E2,1.01517725E3,3.9434692E2,4.708255E1,0E0,0E0,0E0,0E0,0E0,0E0,0E0,0E0],"parents":[2147483647,0,0,1,1,2,2,3,3,4,4,5,5,6,6],"right_children":[2,4,6,8,10,12,14,-1,-1,-1,-1,-1,-1,-1,-1],"split_conditions":[1.5200001E1,1.4E1,2.1806334E1,2.778123E2,1.24625845E1,1.2919324E2,3.0199997E1,-4.8308206E-1,-1.8654332E-1,1.5072845E-1,-2.934255E-2,-9.606983E-1,-2.9378533E-1,7.1832675E-1,2.1794324E-1],"split_indices":[4,0,3,6,3,6,4,0,0,0,0,0,0,0,0],"split_type":[0,0,0,0,0,0,0,0,0,0,0,0,0,0,0],"sum_hessian":[1.494E3,1.368E3,1.26E2,1.05E2,1.263E3,1.15E2,1.1E1,3.6E1,6.9E1,5.69E2,6.94E2,9E0,1.06E2,7E0,4E0],"tree_param":{"num_deleted":"0","num_feature":"7","num_nodes":"15","size_leaf_vector":"1"}},{"base_weights":[1.734421E-3,-6.726171E-2,9.316054E0,4.3824354E-1,-1.2089353E0,1.1297029E1,3.025093E-1,1.8713157E-1,-5.475643E-2,-1.03516616E-1,-1.4069096E0,2.8902817E-1,1.2085096E0],"categories":[],"categories_nodes":[],"categories_segments":[],"categories_sizes":[],"default_left":[0,0,0,0,0,0,0,0,0,0,0,0,0],"id":38,"left_children":[1,3,5,7,9,11,-1,-1,-1,-1,-1,-1,-1],"loss_changes":[9.613915E2,8.5755597E2,1.0290997E2,1.4561405E3,1.004459E3,1.8071228E1,0E0,0E0,0E0,0E0,0E0,0E0,0E0],"parents":[2147483647,0,0,1,1,2,2,3,3,4,4,5,5],"right_children":[2,4,6,8,10,12,-1,-1,-1,-1,-1,-1,-1],"split_conditions":[1.1E2,2.6E0,1.12E2,1.24625845E1,1.7057314E1,2.3576807E2,3.025093E-1,1.8713157E-1,-5.475643E-2,-1.03516616E-1,-1.4069096E0,2.8902817E-1,1.2085096E0],"split_indices":[0,4,2,3,5,6,0,0,0,0,0,0,0],"split_type":[0,0,0,0,0,0,0,0,0,0,0,0,0],"sum_hessian":[1.494E3,1.484E3,1E1,1.029E3,4.55E2,7E0,3E0,4.19E2,6.1E2,4.5E2,5E0,1E0,6E0],"tree_param":{"num_deleted":"0","num_feature":"7","num_nodes":"13","size_leaf_vector":"1"}},{"base_weights":[1.8431507E-3,6.0011834E-1,-9.756238E-1,7.5873756E-1,-6.639131E0,1.040117E1,-1.1155916E0,-2.3464386E-1,1.14978865E-1,1.468489E0,-9.8242944E-1,1.3067634E0,2.4900067E-1,-3.084735E-2,-2.6450297E-1],"categories":[],"categories_nodes":[],"categories_segments":[],"categories_sizes":[],"default_left":[0,0,0,0,0,0,0,0,0,0,0,0,0,0,0],"id":39,"left_children":[1,3,5,7,9,11,13,-1,-1,-1,-1,-1,-1,-1,-1],"loss_changes":[8.7485284E2,1.070645E3,9.1607837E2,1.1064805E3,1.5026782E3,1.15125305E2,6.929379E2,0E0,0E0,0E0,0E0,0E0,0E0,0E0,0E0],"parents":[2147483647,0,0,1,1,2,2,3,3,4,4,5,5,6,6],"right_children":[2,4,6,8,10,12,14,-1,-1,-1,-1,-1,-1,-1,-1],"split_conditions":[2.8159216E2,1.4471821E1,1.1466677E-1,1.9E1,1.6E1,4.7E1,4.2E1,-2.3464386E-1,1.14978865E-1,1.468489E0,-9.8242944E-1,1.3067634E0,2.4900067E-1,-3.084735E-2,-2.6450297E-1],"split_indices":[6,5,3,0,0,0,1,0,0,0,0,0,0,0,0],"split_type":[0,0,0,0,0,0,0,0,0,0,0,0,0,0,0],"sum_hessian":[1.494E3,9.27E2,5.67E2,9.08E2,1.9E1,6E0,5.61E2,1.01E2,8.07E2,2E0,1.7E1,4E0,2E0,3.68E2,1.93E2],"tree_param":{"num_deleted":"0","num_feature":"7","num_nodes":"15","size_leaf_vector":"1"}},{"base_weights":[2.7467262E-3,-7.9976687E0,7.287663E-2,6.960087E-2,-8.780143E0,6.6108567E-1,-8.7584233E-1,-5.1077026E-1,-1.2900019E0,8.077735E-2,-5.950915E-1,8.3387834E-1,-1.0223706E-1],"categories":[],"categories_nodes":[],"categories_segments":[],"categories_sizes":[],"default_left":[0,0,0,0,0,0,0,0,0,0,0,0,0],"id":40,"left_children":[1,3,5,-1,7,9,11,-1,-1,-1,-1,-1,-1],"loss_changes":[8.393801E2,9.4544495E1,8.281599E2,0E0,1.1567053E2,8.932349E2,7.754403E2,0E0,0E0,0E0,0E0,0E0,0E0],"parents":[2147483647,0,0,1,1,2,2,4,4,5,5,6,6],"right_children":[2,4,6,-1,8,10,12,-1,-1,-1,-1,-1,-1],"split_conditions":[1.2919324E2,6.350083E0,2.8159216E2,6.960087E-2,2.3E1,1.4471821E1,3.5008335E-1,-5.1077026E-1,-1.2900019E0,8.077735E-2,-5.950915E-1,8.3387834E-1,-1.0223706E-1],"split_indices":[6,3,6,0,0,5,3,0,0,0,0,0,0],"split_type":[0,0,0,0,0,0,0,0,0,0,0,0,0],"sum_hessian":[1.494E3,1.2E1,1.482E3,1E0,1.1E1,9.15E2,5.67E2,7E0,4E0,8.96E2,1.9E1,8E0,5.59E2],"tree_param":{"num_deleted":"0","num_feature":"7","num_nodes":"13","size_leaf_vector":"1"}},{"base_weights":[1.4596728E-3,-6.1667766E-2,8.523531E0,-4.3757105E0,4.853324E-2,1.0323849E1,2.7920133E-1,-4.8578835E-1,2.7082074E-1,7.28943E-2,-6.375981E-2,2.6478845E-1,1.1042145E0],"categories":[],"categories_nodes":[],"categories_segments":[],"categories_sizes":[],"default_left":[0,0,0,0,0,0,0,0,0,0,0,0,0],"id":41,"left_children":[1,3,5,7,9,11,-1,-1,-1,-1,-1,-1,-1],"loss_changes":[8.048006E2,7.06199E2,8.467975E1,1.3953601E2,6.76931E2,1.48706665E1,0E0,0E0,0E0,0E0,0E0,0E0,0E0],"parents":[2147483647,0,0,1,1,2,2,3,3,4,4,5,5],"right_children":[2,4,6,8,10,12,-1,-1,-1,-1,-1,-1,-1],"split_conditions":[1.1E2,1E1,1.12E2,3.379637E2,8.12197E0,2.3576807E2,2.7920133E-1,-4.8578835E-1,2.7082074E-1,7.28943E-2,-6.375981E-2,2.6478845E-1,1.1042145E0],"split_indices":[0,0,2,6,5,6,0,0,0,0,0,0,0],"split_type":[0,0,0,0,0,0,0,0,0,0,0,0,0],"sum_hessian":[1.494E3,1.484E3,1E1,3.6E1,1.448E3,7E0,3E0,3.4E1,2E0,7.27E2,7.21E2,1E0,6E0],"tree_param":{"num_deleted":"0","num_feature":"7","num_nodes":"13","size_leaf_vector":"1"}},{"base_weights":[2.278386E-3,-7.3343573E0,6.658991E-2,6.9308855E-2,-8.061069E0,8.6365715E-3,7.8210144E0,-4.6376434E-1,-1.1926335E0,1.1338822E-1,-4.1478325E-2,9.462587E-1,2.582615E-1],"categories":[],"categories_nodes":[],"categories_segments":[],"categories_sizes":[],"default_left":[0,0,0,0,0,0,0,0,0,0,0,0,0],"id":42,"left_children":[1,3,5,-1,7,9,11,-1,-1,-1,-1,-1,-1],"loss_changes":[7.058745E2,8.1424255E1,6.663849E2,0E0,1.0347931E2,7.022831E2,7.015314E1,0E0,0E0,0E0,0E0,0E0,0E0],"parents":[2147483647,0,0,1,1,2,2,4,4,5,5,6,6],"right_children":[2,4,6,-1,8,10,12,-1,-1,-1,-1,-1,-1],"split_conditions":[1.2919324E2,6.350083E0,1.1E2,6.9308855E-2,2.3E1,1.9602304E2,1.12E2,-4.6376434E-1,-1.1926335E0,1.1338822E-1,-4.1478325E-2,9.462587E-1,2.582615E-1],"split_indices":[6,3,0,0,0,6,2,0,0,0,0,0,0],"split_type":[0,0,0,0,0,0,0,0,0,0,0,0,0],"sum_hessian":[1.494E3,1.2E1,1.482E3,1E0,1.1E1,1.472E3,1E1,7E0,4E0,4.02E2,1.07E3,7E0,3E0],"tree_param":{"num_deleted":"0","num_feature":"7","num_nodes":"13","size_leaf_vector":"1"}},{"base_weights":[1.8428388E-3,2.041663E-1,-2.179123E0,-2.314549E0,4.1522616E-1,-3.1445856E0,3.8419893E0,-4.641659E-1,-1.5390009E-1,5.6242235E-2,-3.2461157E-1,-2.2138266E-1,-8.474431E-1,-1.782608E-1,5.085749E-1],"categories":[],"categories_nodes":[],"categories_segments":[],"categories_sizes":[],"default_left":[0,0,0,0,0,0,0,0,0,0,0,0,0,0,0],"id":43,"left_children":[1,3,5,7,9,11,13,-1,-1,-1,-1,-1,-1,-1,-1],"loss_changes":[6.6012946E2,7.2872107E2,7.5035284E2,1.8416376E2,6.830401E2,5.269271E2,1.3498755E2,0E0,0E0,0E0,0E0,0E0,0E0,0E0,0E0],"parents":[2147483647,0,0,1,1,2,2,3,3,4,4,5,5,6,6],"right_children":[2,4,6,8,10,12,14,-1,-1,-1,-1,-1,-1,-1,-1],"split_conditions":[1.5200001E1,1.4E1,2.0064665E1,2.2828395E2,1.3797912E1,1.1159999E1,1.8500002E1,-4.641659E-1,-1.5390009E-1,5.6242235E-2,-3.2461157E-1,-2.2138266E-1,-8.474431E-1,-1.782608E-1,5.085749E-1],"split_indices":[4,0,3,6,5,5,4,0,0,0,0,0,0,0,0],"split_type":[0,0,0,0,0,0,0,0,0,0,0,0,0,0,0],"sum_hessian":[1.494E3,1.368E3,1.26E2,1.05E2,1.263E3,1.09E2,1.7E1,2.5E1,8E1,1.215E3,4.8E1,9.4E1,1.5E1,3E0,1.4E1],"tree_param":{"num_deleted":"0","num_feature":"7","num_nodes":"15","size_leaf_vector":"1"}},{"base_weights":[5.7074503E-4,6.5268E-1,-6.1099356E-1,2.45105E0,-5.6855875E-1,-8.670069E-1,5.978141E0,3.4400335E-1,3.0589702E-3,-6.513613E-2,1.1489315E0,-7.4315056E-2,-9.883749E-1,2.9936248E-1,9.9567366E-1],"categories":[],"categories_nodes":[],"categories_segments":[],"categories_sizes":[],"default_left":[0,0,0,0,0,0,0,0,0,0,0,0,0,0,0],"id":44,"left_children":[1,3,5,7,9,11,13,-1,-1,-1,-1,-1,-1,-1,-1],"loss_changes":[5.9661487E2,1.5914707E3,1.3074746E3,7.01277E2,4.3880185E2,8.235399E2,3.1454456E2,0E0,0E0,0E0,0E0,0E0,0E0,0E0,0E0],"parents":[2147483647,0,0,1,1,2,2,3,3,4,4,5,5,6,6],"right_children":[2,4,6,8,10,12,14,-1,-1,-1,-1,-1,-1,-1,-1],"split_conditions":[2E-1,1.2743833E1,2.3481337E1,7E1,1.5546833E1,1.5986595E1,4E1,3.4400335E-1,3.0589702E-3,-6.513613E-2,1.1489315E0,-7.4315056E-2,-9.883749E-1,2.9936248E-1,9.9567366E-1],"split_indices":[4,3,3,1,5,5,0,0,0,0,0,0,0,0,0],"split_type":[0,0,0,0,0,0,0,0,0,0,0,0,0,0,0],"sum_hessian":[1.494E3,7.23E2,7.71E2,2.92E2,4.31E2,7.43E2,2.8E1,2.07E2,8.5E1,4.29E2,2E0,7.34E2,9E0,1.7E1,1.1E1],"tree_param":{"num_deleted":"0","num_feature":"7","num_nodes":"15","size_leaf_vector":"1"}},{"base_weights":[1.6259676E-3,-7.2313644E-2,5.194926E0,-2.8628314E-2,-2.1497705E0,-6.8716025E0,6.8267503E0,-6.465964E-1,2.8670784E-3,-9.1135025E-2,-9.3960536E-1,8.6567944E-1,-2.8733825E-3],"categories":[],"categories_nodes":[],"categories_segments":[],"categories_sizes":[],"default_left":[0,0,0,0,0,0,0,0,0,0,0,0,0],"id":45,"left_children":[1,3,5,7,-1,9,11,-1,-1,-1,-1,-1,-1],"loss_changes":[5.744415E2,1.3799482E3,4.6041022E2,5.435066E2,0E0,3.6576004E1,2.3861975E2,0E0,0E0,0E0,0E0,0E0,0E0],"parents":[2147483647,0,0,1,1,2,2,3,3,5,5,6,6],"right_children":[2,4,6,8,-1,10,12,-1,-1,-1,-1,-1,-1],"split_conditions":[1.04E2,1.03E2,1.716944E2,1.2919324E2,-2.1497705E0,1.07E2,1.12E2,-6.465964E-1,2.8670784E-3,-9.1135025E-2,-9.3960536E-1,8.6567944E-1,-2.8733825E-3],"split_indices":[0,0,6,6,0,0,2,0,0,0,0,0,0],"split_type":[0,0,0,0,0,0,0,0,0,0,0,0,0],"sum_hessian":[1.494E3,1.474E3,2E1,1.472E3,2E0,2E0,1.8E1,1.2E1,1.46E3,1E0,1E0,1.4E1,4E0],"tree_param":{"num_deleted":"0","num_feature":"7","num_nodes":"13","size_leaf_vector":"1"}},{"base_weights":[-5.182815E-4,2.3528864E0,-1.4938289E-1,1.3403124E0,7.6816535E0,-3.66958E-1,1.6232702E0,1.1141771E0,7.848857E-2,1.2333155E0,-5.7587307E-2,1.4333116E-2,-1.3989483E-1,3.189479E-2,5.739128E-1],"categories":[],"categories_nodes":[],"categories_segments":[],"categories_sizes":[],"default_left":[0,0,0,0,0,0,0,0,0,0,0,0,0,0,0],"id":46,"left_children":[1,3,5,7,9,11,13,-1,-1,-1,-1,-1,-1,-1,-1],"loss_changes":[5.241077E2,4.6992786E2,5.4325476E2,4.049983E2,5.448408E2,6.605737E2,8.2490405E2,0E0,0E0,0E0,0E0,0E0,0E0,0E0,0E0],"parents":[2147483647,0,0,1,1,2,2,3,3,4,4,5,5,6,6],"right_children":[2,4,6,8,10,12,14,-1,-1,-1,-1,-1,-1,-1,-1],"split_conditions":[2.5146668E0,8.8E1,2.3481337E1,8E0,7.9526596E0,1.630425E1,1E-1,1.1141771E0,7.848857E-2,1.2333155E0,-5.7587307E-2,1.4333116E-2,-1.3989483E-1,3.189479E-2,5.739128E-1],"split_indices":[3,2,3,1,5,3,4,0,0,0,0,0,0,0,0],"split_type":[0,0,0,0,0,0,0,0,0,0,0,0,0,0,0],"sum_hessian":[1.494E3,8.8E1,1.406E3,7.5E1,1.3E1,1.253E3,1.53E2,3E0,7.2E1,8E0,5E0,8.39E2,4.14E2,1.17E2,3.6E1],"tree_param":{"num_deleted":"0","num_feature":"7","num_nodes":"15","size_leaf_vector":"1"}},{"base_weights":[1.4391373E-3,-3.6031585E0,9.2850156E-2,-4.0401382E0,2.6959894E0,3.196234E0,-2.1829396E-2,-5.6566405E-1,-2.6931062E-1,3.3435026E-1,7.0048146E-2,-3.6301777E-2,4.3919593E-1,4.5117807E-2,-8.230966E-2],"categories":[],"categories_nodes":[],"categories_segments":[],"categories_sizes":[],"default_left":[0,0,0,0,0,0,0,0,0,0,0,0,0,0,0],"id":47,"left_children":[1,3,5,7,9,11,13,-1,-1,-1,-1,-1,-1,-1,-1],"loss_changes":[4.9293698E2,1.1273834E2,5.193201E2,6.0977844E1,1.5342922E0,2.2290057E2,5.340109E2,0E0,0E0,0E0,0E0,0E0,0E0,0E0,0E0],"parents":[2147483647,0,0,1,1,2,2,3,3,4,4,5,5,6,6],"right_children":[2,4,6,8,10,12,14,-1,-1,-1,-1,-1,-1,-1,-1],"split_conditions":[1E1,3.379637E2,1.2750837E0,2.7612595E2,7E0,4.1E1,2.8159216E2,-5.6566405E-1,-2.6931062E-1,3.3435026E-1,7.0048146E-2,-3.6301777E-2,4.3919593E-1,4.5117807E-2,-8.230966E-2],"split_indices":[0,6,3,6,0,1,6,0,0,0,0,0,0,0,0],"split_type":[0,0,0,0,0,0,0,0,0,0,0,0,0,0,0],"sum_hessian":[1.494E3,3.6E1,1.458E3,3.4E1,2E0,5.1E1,1.407E3,1.4E1,2E1,1E0,1E0,1.3E1,3.8E1,8.85E2,5.22E2],"tree_param":{"num_deleted":"0","num_feature":"7","num_nodes":"15","size_leaf_vector":"1"}},{"base_weights":[1.2520328E-3,1.5783553E-1,-2.0731184E0,8.507971E-1,-3.8766292E-1,-3.1875892E0,4.32535E0,1.8723705E-1,-8.466635E-2,-6.7558184E-2,2.2085772E-1,-9.249795E-1,-2.3998158E-1,5.2077407E-1,1.3425423E-1],"categories":[],"categories_nodes":[],"categories_segments":[],"categories_sizes":[],"default_left":[0,0,0,0,0,0,0,0,0,0,0,0,0,0,0],"id":48,"left_children":[1,3,5,7,9,11,13,-1,-1,-1,-1,-1,-1,-1,-1],"loss_changes":[4.8592142E2,5.2614105E2,7.625325E2,1.0645767E3,5.837997E2,4.0761023E2,3.512039E1,0E0,0E0,0E0,0E0,0E0,0E0,0E0,0E0],"parents":[2147483647,0,0,1,1,2,2,3,3,4,4,5,5,6,6],"right_children":[2,4,6,8,10,12,14,-1,-1,-1,-1,-1,-1,-1,-1],"split_conditions":[1.77E1,1.22355E1,2.0064665E1,8.891344E0,2.5752165E1,5.070917E0,3.1199995E1,1.8723705E-1,-8.466635E-2,-6.7558184E-2,2.2085772E-1,-9.249795E-1,-2.3998158E-1,5.2077407E-1,1.3425423E-1],"split_indices":[4,3,3,5,3,3,4,0,0,0,0,0,0,0,0],"split_type":[0,0,0,0,0,0,0,0,0,0,0,0,0,0,0],"sum_hessian":[1.494E3,1.39E3,1.04E2,6.12E2,7.78E2,8.9E1,1.5E1,3.82E2,2.3E2,7.01E2,7.7E1,9E0,8E1,1.1E1,4E0],"tree_param":{"num_deleted":"0","num_feature":"7","num_nodes":"15","size_leaf_vector":"1"}},{"base_weights":[9.56647E-4,-4.7058764E0,6.473422E-2,-6.0285583E0,4.7988397E-1,3.9543483E-1,-8.833859E-1,-1.24272E0,-3.9203498E-1,2.734316E-3,4.505488E-1,-1.7889467E-1,1.6200057E-1],"categories":[],"categories_nodes":[],"categories_segments":[],"categories_sizes":[],"default_left":[0,0,0,0,0,0,0,0,0,0,0,0,0],"id":49,"left_children":[1,3,5,7,-1,9,11,-1,-1,-1,-1,-1,-1],"loss_changes":[4.4908926E2,2.803644E2,4.631401E2,1.940951E2,0E0,1.6564762E3,8.6888184E2,0E0,0E0,0E0,0E0,0E0,0E0],"parents":[2147483647,0,0,1,1,2,2,3,3,5,5,6,6],"right_children":[2,4,6,8,-1,10,12,-1,-1,-1,-1,-1,-1],"split_conditions":[9E0,2.3E1,5.2E1,6.0875835E0,4.7988397E-1,5.3E1,7.7E1,-1.24272E0,-3.9203498E-1,2.734316E-3,4.505488E-1,-1.7889467E-1,1.6200057E-1],"split_indices":[2,1,1,3,0,0,0,0,0,0,0,0,0],"split_type":[0,0,0,0,0,0,0,0,0,0,0,0,0],"sum_hessian":[1.494E3,1.9E1,1.475E3,1.7E1,2E0,1.094E3,3.81E2,3E0,1.4E1,1.005E3,8.9E1,2.8E2,1.01E2],"tree_param":{"num_deleted":"0","num_feature":"7","num_nodes":"13","size_leaf_vector":"1"}},{"base_weights":[3.796166E-4,-3.6463299E0,7.7545226E-2,-1.3560427E0,-7.6872115E0,1.1552589E0,-3.063561E-1,-3.8567385E-1,3.1896803E-1,1.5315075E-1,-8.762234E-1,3.1526452E-1,4.242129E-2,1.6589394E-2,-1.4249727E-1],"categories":[],"categories_nodes":[],"categories_segments":[],"categories_sizes":[],"default_left":[0,0,0,0,0,0,0,0,0,0,0,0,0,0,0],"id":50,"left_children":[1,3,5,7,9,11,13,-1,-1,-1,-1,-1,-1,-1,-1],"loss_changes":[4.2097656E2,2.76474E2,6.064767E2,2.5101863E2,1.22433044E2,5.6083246E2,5.7129266E2,0E0,0E0,0E0,0E0,0E0,0E0,0E0,0E0],"parents":[2147483647,0,0,1,1,2,2,3,3,4,4,5,5,6,6],"right_children":[2,4,6,8,10,12,14,-1,-1,-1,-1,-1,-1,-1,-1],"split_conditions":[1.5175034E2,7.4128532E0,1.9602304E2,4.5E1,6.350083E0,1.017925E1,4.9E1,-3.8567385E-1,3.1896803E-1,1.5315075E-1,-8.762234E-1,3.1526452E-1,4.242129E-2,1.6589394E-2,-1.4249727E-1],"split_indices":[6,5,6,1,3,3,1,0,0,0,0,0,0,0,0],"split_type":[0,0,0,0,0,0,0,0,0,0,0,0,0,0,0],"sum_hessian":[1.494E3,3E1,1.464E3,2E1,1E1,3.84E2,1.08E3,1.3E1,7E0,1E0,9E0,1.02E2,2.82E2,7.6E2,3.2E2],"tree_param":{"num_deleted":"0","num_feature":"7","num_nodes":"15","size_leaf_vector":"1"}},{"base_weights":[-3.177107E-5,-4.5948118E-2,6.1986775E0,-1.09141795E-2,-8.679995E0,3.0789974E0,8.285245E0,-6.6804E-3,6.301176E-1,-1.1377825E0,2.4045753E-1,4.4594195E-2,3.5164198E-1,1.0174645E0,3.004298E-1],"categories":[],"categories_nodes":[],"categories_segments":[],"categories_sizes":[],"default_left":[0,0,0,0,0,0,0,0,0,0,0,0,0,0,0],"id":51,"left_children":[1,3,5,7,9,11,13,-1,-1,-1,-1,-1,-1,-1,-1],"loss_changes":[4.2579483E2,4.4909497E2,4.6093414E1,5.225376E2,2.0678448E2,5.34243E0,2.9299255E1,0E0,0E0,0E0,0E0,0E0,0E0,0E0,0E0],"parents":[2147483647,0,0,1,1,2,2,3,3,4,4,5,5,6,6],"right_children":[2,4,6,8,10,12,14,-1,-1,-1,-1,-1,-1,-1,-1],"split_conditions":[1.1E2,1.11E2,3.22925E0,1.02E2,6.575084E0,1E2,1.12E2,-6.6804E-3,6.301176E-1,-1.1377825E0,2.4045753E-1,4.4594195E-2,3.5164198E-1,1.0174645E0,3.004298E-1],"split_indices":[0,2,3,2,3,2,1,0,0,0,0,0,0,0,0],"split_type":[0,0,0,0,0,0,0,0,0,0,0,0,0,0,0],"sum_hessian":[1.494E3,1.484E3,1E1,1.479E3,5E0,5E0,5E0,1.467E3,1.2E1,4E0,1E0,1E0,4E0,3E0,2E0],"tree_param":{"num_deleted":"0","num_feature":"7","num_nodes":"15","size_leaf_vector":"1"}},{"base_weights":[9.34324E-4,8.061936E-2,-3.5317972E0,-4.7964044E-2,2.3041046E0,1.9334781E0,-7.660604E0,8.010059E-3,-4.3529376E-1,-1.0980071E0,2.964268E-1,2.1364408E0,-9.804744E-2,-1.143285E0,-3.1222978E-1],"categories":[],"categories_nodes":[],"categories_segments":[],"categories_sizes":[],"default_left":[0,0,0,0,0,0,0,0,0,0,0,0,0,0,0],"id":52,"left_children":[1,3,5,7,9,11,13,-1,-1,-1,-1,-1,-1,-1,-1],"loss_changes":[4.2113593E2,4.1838705E2,7.5945874E2,7.633684E2,7.341261E2,8.702593E2,2.8957593E2,0E0,0E0,0E0,0E0,0E0,0E0,0E0,0E0],"parents":[2147483647,0,0,1,1,2,2,3,3,4,4,5,5,6,6],"right_children":[2,4,6,8,10,12,14,-1,-1,-1,-1,-1,-1,-1,-1],"split_conditions":[1.5175612E1,8.3E1,2.3E1,8E1,5.0142193E0,1.7695822E2,2.2060123E2,8.010059E-3,-4.3529376E-1,-1.0980071E0,2.964268E-1,2.1364408E0,-9.804744E-2,-1.143285E0,-3.1222978E-1],"split_indices":[5,0,1,1,5,6,6,0,0,0,0,0,0,0,0],"split_type":[0,0,0,0,0,0,0,0,0,0,0,0,0,0,0],"sum_hessian":[1.494E3,1.462E3,3.2E1,1.383E3,7.9E1,1.4E1,1.8E1,1.344E3,3.9E1,3E0,7.6E1,1E0,1.3E1,9E0,9E0],"tree_param":{"num_deleted":"0","num_feature":"7","num_nodes":"15","size_leaf_vector":"1"}},{"base_weights":[4.082096E-4,-3.2044456E0,8.1682496E-2,-4.2146564E0,-4.3352404E-1,-2.0152391E-1,1.0783513E0,-3.4007093E-1,-7.115882E-1,1.6444407E-1,-3.2559702E-1,-1.6148632E-2,-2.2842119E0,5.0924677E-1,1.2432999E-2],"categories":[],"categories_nodes":[],"categories_segments":[],"categories_sizes":[],"default_left":[0,0,0,0,0,0,0,0,0,0,0,0,0,0,0],"id":53,"left_children":[1,3,5,7,9,11,13,-1,-1,-1,-1,-1,-1,-1,-1],"loss_changes":[3.8966772E2,1.01743805E2,4.12039E2,3.9559906E1,6.986863E1,1.0269735E3,1.2363121E3,0E0,0E0,0E0,0E0,0E0,0E0,0E0,0E0],"parents":[2147483647,0,0,1,1,2,2,3,3,4,4,5,5,6,6],"right_children":[2,4,6,8,10,12,14,-1,-1,-1,-1,-1,-1,-1,-1],"split_conditions":[1E1,3.2515054E2,5.5E1,3.4E1,9E0,1.03E2,5E1,-3.4007093E-1,-7.115882E-1,1.6444407E-1,-3.2559702E-1,-1.6148632E-2,-2.2842119E0,5.0924677E-1,1.2432999E-2],"split_indices":[0,6,2,1,0,0,1,0,0,0,0,0,0,0,0],"split_type":[0,0,0,0,0,0,0,0,0,0,0,0,0,0,0],"sum_hessian":[1.494E3,3.6E1,1.458E3,2.6E1,1E1,1.136E3,3.22E2,2.2E1,4E0,6E0,4E0,1.135E3,1E0,6.1E1,2.61E2],"tree_param":{"num_deleted":"0","num_feature":"7","num_nodes":"15","size_leaf_vector":"1"}},{"base_weights":[-1.633722E-3,2.5508386E-1,-9.9182487E-1,1.859854E-1,7.6317124E0,1.630258E0,-1.1581366E0,2.0300654E-1,-4.66837E-3,2.2045504E-1,1.657811E0,-3.5448983E-2,-3.5855612E-1],"categories":[],"categories_nodes":[],"categories_segments":[],"categories_sizes":[],"default_left":[0,0,0,0,0,0,0,0,0,0,0,0,0],"id":54,"left_children":[1,3,5,7,9,-1,11,-1,-1,-1,-1,-1,-1],"loss_changes":[3.8028122E2,6.0412054E2,9.0476935E2,5.0552795E2,4.975418E2,0E0,5.9567114E2,0E0,0E0,0E0,0E0,0E0,0E0],"parents":[2147483647,0,0,1,1,2,2,3,3,4,4,6,6],"right_children":[2,4,6,8,10,-1,12,-1,-1,-1,-1,-1,-1],"split_conditions":[5.9E0,5.6E0,3.5008335E-1,4.7792506E0,3.5E1,1.630258E0,5.2E1,2.0300654E-1,-4.66837E-3,2.2045504E-1,1.657811E0,-3.5448983E-2,-3.5855612E-1],"split_indices":[4,4,3,3,1,0,1,0,0,0,0,0,0],"split_type":[0,0,0,0,0,0,0,0,0,0,0,0,0],"sum_hessian":[1.494E3,1.187E3,3.07E2,1.177E3,1E1,2E0,3.05E2,1.31E2,1.046E3,7E0,3E0,2.3E2,7.5E1],"tree_param":{"num_deleted":"0","num_feature":"7","num_nodes":"13","size_leaf_vector":"1"}},{"base_weights":[7.462224E-4,-4.300953E0,5.903432E-2,-5.5141077E0,4.4116274E-1,1.6694279E0,-1.1765725E-1,-1.1683216E0,-3.501405E-1,8.1246175E-2,1.4624083E0,1.2339666E-2,-2.529216E-1],"categories":[],"categories_nodes":[],"categories_segments":[],"categories_sizes":[],"default_left":[0,0,0,0,0,0,0,0,0,0,0,0,0],"id":55,"left_children":[1,3,5,7,-1,9,11,-1,-1,-1,-1,-1,-1],"loss_changes":[3.7510703E2,2.357204E2,4.201819E2,1.8259076E2,0E0,1.6089666E3,7.740432E2,0E0,0E0,0E0,0E0,0E0,0E0],"parents":[2147483647,0,0,1,1,2,2,3,3,5,5,6,6],"right_children":[2,4,6,8,-1,10,12,-1,-1,-1,-1,-1,-1],"split_conditions":[9E0,2.3E1,1.6E1,6.0875835E0,4.4116274E-1,3.4E1,1.2245294E1,-1.1683216E0,-3.501405E-1,8.1246175E-2,1.4624083E0,1.2339666E-2,-2.529216E-1],"split_indices":[2,1,1,3,0,0,5,0,0,0,0,0,0],"split_type":[0,0,0,0,0,0,0,0,0,0,0,0,0],"sum_hessian":[1.494E3,1.9E1,1.475E3,1.7E1,2E0,1.45E2,1.33E3,3E0,1.4E1,1.37E2,8E0,1.21E3,1.2E2],"tree_param":{"num_deleted":"0","num_feature":"7","num_nodes":"13","size_leaf_vector":"1"}},{"base_weights":[8.223958E-4,-5.0848546E0,4.5402963E-2,-3.021586E0,-8.9718133E-1,9.382869E-1,-2.8750882E-1,-3.68485E-1,1.4738952E-1,5.0528165E-2,3.4052125E-1,1.3834508E-2,-1.2961921E-1],"categories":[],"categories_nodes":[],"categories_segments":[],"categories_sizes":[],"default_left":[0,0,0,0,0,0,0,0,0,0,0,0,0],"id":56,"left_children":[1,3,5,7,-1,9,11,-1,-1,-1,-1,-1,-1],"loss_changes":[3.391808E2,7.71488E1,4.410939E2,3.5248E1,0E0,4.287607E2,4.6452472E2,0E0,0E0,0E0,0E0,0E0,0E0],"parents":[2147483647,0,0,1,1,2,2,3,3,5,5,6,6],"right_children":[2,4,6,8,-1,10,12,-1,-1,-1,-1,-1,-1],"split_conditions":[1.2919324E2,3.2E1,1.9602304E2,2.8E1,-8.9718133E-1,6E1,4.9E1,-3.68485E-1,1.4738952E-1,5.0528165E-2,3.4052125E-1,1.3834508E-2,-1.2961921E-1],"split_indices":[6,0,6,0,0,0,1,0,0,0,0,0,0],"split_type":[0,0,0,0,0,0,0,0,0,0,0,0,0],"sum_hessian":[1.494E3,1.2E1,1.482E3,9E0,3E0,4.02E2,1.08E3,8E0,1E0,3.43E2,5.9E1,7.6E2,3.2E2],"tree_param":{"num_deleted":"0","num_feature":"7","num_nodes":"13","size_leaf_vector":"1"}},{"base_weights":[1.7571912E-4,-4.100334E-2,5.5593324E0,-8.902383E-3,-7.952405E0,9.2638093E-1,3.7068033E0,2.7277127E-1,-1.0847907E-2,-1.0542336E0,2.4986248E-1,1.6597366E-1,5.012509E-1],"categories":[],"categories_nodes":[],"categories_segments":[],"categories_sizes":[],"default_left":[0,0,0,0,0,0,0,0,0,0,0,0,0],"id":57,"left_children":[1,3,5,7,9,-1,11,-1,-1,-1,-1,-1,-1],"loss_changes":[3.424646E2,3.7706503E2,4.1150055E1,4.0360034E2,1.8874603E2,0E0,1.5736366E1,0E0,0E0,0E0,0E0,0E0,0E0],"parents":[2147483647,0,0,1,1,2,2,3,3,4,4,6,6],"right_children":[2,4,6,8,10,-1,12,-1,-1,-1,-1,-1,-1],"split_conditions":[1.1E2,1.11E2,8.4E1,1.2750837E0,6.575084E0,9.2638093E-1,1.11E2,2.7277127E-1,-1.0847907E-2,-1.0542336E0,2.4986248E-1,1.6597366E-1,5.012509E-1],"split_indices":[0,2,2,3,3,0,1,0,0,0,0,0,0],"split_type":[0,0,0,0,0,0,0,0,0,0,0,0,0],"sum_hessian":[1.494E3,1.484E3,1E1,1.479E3,5E0,2E0,8E0,5.1E1,1.428E3,4E0,1E0,4E0,4E0],"tree_param":{"num_deleted":"0","num_feature":"7","num_nodes":"13","size_leaf_vector":"1"}},{"base_weights":[8.615685E-4,-1.0916428E-1,2.001064E0,2.8632745E-1,-8.564294E-1,9.030951E-1,6.19925E0,1.4092968E-1,-5.3757787E-2,-4.60207E-2,-4.1926104E-1,-3.1642444E-2,4.8266527E-1,2.0624053E-1,7.4063313E-1],"categories":[],"categories_nodes":[],"categories_segments":[],"categories_sizes":[],"default_left":[0,0,0,0,0,0,0,0,0,0,0,0,0,0,0],"id":58,"left_children":[1,3,5,7,9,11,13,-1,-1,-1,-1,-1,-1,-1,-1],"loss_changes":[3.2922903E2,4.1931696E2,3.5394077E2,8.5936206E2,6.4710846E2,3.0297314E2,6.4621216E1,0E0,0E0,0E0,0E0,0E0,0E0,0E0,0E0],"parents":[2147483647,0,0,1,1,2,2,3,3,4,4,5,5,6,6],"right_children":[2,4,6,8,10,12,14,-1,-1,-1,-1,-1,-1,-1,-1],"split_conditions":[2.5752165E1,1.630425E1,1E-1,2E-1,5E1,1.0144082E1,2.5E1,1.4092968E-1,-5.3757787E-2,-4.60207E-2,-4.1926104E-1,-3.1642444E-2,4.8266527E-1,2.0624053E-1,7.4063313E-1],"split_indices":[3,3,4,4,1,5,0,0,0,0,0,0,0,0,0],"split_type":[0,0,0,0,0,0,0,0,0,0,0,0,0,0,0],"sum_hessian":[1.494E3,1.417E3,7.7E1,9.27E2,4.9E2,6.2E1,1.5E1,3.92E2,5.35E2,4.39E2,5.1E1,4.8E1,1.4E1,4E0,1.1E1],"tree_param":{"num_deleted":"0","num_feature":"7","num_nodes":"15","size_leaf_vector":"1"}},{"base_weights":[1.457291E-3,-2.9074466E0,7.5225614E-2,-3.840013E0,-3.541068E-1,1.3105567E-1,-4.401561E0,-3.075869E-1,-6.5870726E-1,1.5133248E-1,-2.8976896E-1,4.259297E-2,-6.971159E-2,1.7455666E-1,-6.282566E-1],"categories":[],"categories_nodes":[],"categories_segments":[],"categories_sizes":[],"default_left":[0,0,0,0,0,0,0,0,0,0,0,0,0,0,0],"id":59,"left_children":[1,3,5,7,9,11,13,-1,-1,-1,-1,-1,-1,-1,-1],"loss_changes":[3.2102322E2,8.674313E1,3.6523813E2,3.6416016E1,5.663478E1,3.5244232E2,2.1909668E2,0E0,0E0,0E0,0E0,0E0,0E0,0E0,0E0],"parents":[2147483647,0,0,1,1,2,2,3,3,4,4,5,5,6,6],"right_children":[2,4,6,8,10,12,14,-1,-1,-1,-1,-1,-1,-1,-1],"split_conditions":[1E1,3.2515054E2,3.4187244E2,3.4E1,9E0,5.2E1,2.1999998E0,-3.075869E-1,-6.5870726E-1,1.5133248E-1,-2.8976896E-1,4.259297E-2,-6.971159E-2,1.7455666E-1,-6.282566E-1],"split_indices":[0,6,6,1,0,1,4,0,0,0,0,0,0,0,0],"split_type":[0,0,0,0,0,0,0,0,0,0,0,0,0,0,0],"sum_hessian":[1.494E3,3.6E1,1.458E3,2.6E1,1E1,1.441E3,1.7E1,2.2E1,4E0,6E0,4E0,1.063E3,3.78E2,4E0,1.3E1],"tree_param":{"num_deleted":"0","num_feature":"7","num_nodes":"15","size_leaf_vector":"1"}},{"base_weights":[2.5118762E-4,-2.5437403E-1,9.069646E-1,-2.1721934E-1,-2.1806953E0,3.587865E0,-3.0672675E-2,-2.5373703E-2,1.4036222E0,4.0152985E-1,-9.433746E-1,1.6539693E-2,-1.1836199E0],"categories":[],"categories_nodes":[],"categories_segments":[],"categories_sizes":[],"default_left":[0,0,0,0,0,0,0,0,0,0,0,0,0],"id":60,"left_children":[1,3,5,7,-1,9,11,-1,-1,-1,-1,-1,-1],"loss_changes":[3.453845E2,9.3057367E2,8.246077E2,6.109881E2,0E0,5.1097827E2,5.6674567E2,0E0,0E0,0E0,0E0,0E0,0E0],"parents":[2147483647,0,0,1,1,2,2,3,3,5,5,6,6],"right_children":[2,4,6,8,-1,10,12,-1,-1,-1,-1,-1,-1],"split_conditions":[5.5E1,1.03E2,5.4E1,9.7E1,-2.1806953E0,3.281428E2,3.0199997E1,-2.5373703E-2,1.4036222E0,4.0152985E-1,-9.433746E-1,1.6539693E-2,-1.1836199E0],"split_indices":[2,0,1,0,0,6,4,0,0,0,0,0,0],"split_type":[0,0,0,0,0,0,0,0,0,0,0,0,0],"sum_hessian":[1.494E3,1.167E3,3.27E2,1.166E3,1E0,8.4E1,2.43E2,1.164E3,2E0,8.2E1,2E0,2.4E2,3E0],"tree_param":{"num_deleted":"0","num_feature":"7","num_nodes":"13","size_leaf_vector":"1"}},{"base_weights":[-1.4533665E-3,-3.9313586E0,5.1798366E-2,-5.047342E0,4.074993E-1,1.5204111E0,-1.09335564E-1,-1.0800158E0,-3.176768E-1,7.462429E-2,1.3222055E0,-3.6210734E-3,-7.520282E-1],"categories":[],"categories_nodes":[],"categories_segments":[],"categories_sizes":[],"default_left":[0,0,0,0,0,0,0,0,0,0,0,0,0],"id":61,"left_children":[1,3,5,7,-1,9,11,-1,-1,-1,-1,-1,-1],"loss_changes":[3.130687E2,1.9926694E2,3.494518E2,1.5938962E2,0E0,1.3127532E3,7.2102875E2,0E0,0E0,0E0,0E0,0E0,0E0],"parents":[2147483647,0,0,1,1,2,2,3,3,5,5,6,6],"right_children":[2,4,6,8,-1,10,12,-1,-1,-1,-1,-1,-1],"split_conditions":[9E0,2.3E1,1.6E1,6.0875835E0,4.074993E-1,3.4E1,1.5986595E1,-1.0800158E0,-3.176768E-1,7.462429E-2,1.3222055E0,-3.6210734E-3,-7.520282E-1],"split_indices":[2,1,1,3,0,0,5,0,0,0,0,0,0],"split_type":[0,0,0,0,0,0,0,0,0,0,0,0,0],"sum_hessian":[1.494E3,1.9E1,1.475E3,1.7E1,2E0,1.45E2,1.33E3,3E0,1.4E1,1.37E2,8E0,1.318E3,1.2E1],"tree_param":{"num_deleted":"0","num_feature":"7","num_nodes":"13","size_leaf_vector":"1"}},{"base_weights":[-1.5419013E-3,-1.5249057E-1,1.313878E0,2.611598E-1,-1.0771052E0,1.693645E-1,4.9284377E0,9.1927566E-2,-8.850039E-2,-6.392645E-2,-4.9503276E-1,-9.160213E-2,2.3914543E-1,1.0332697E-1,6.756788E-1],"categories":[],"categories_nodes":[],"categories_segments":[],"categories_sizes":[],"default_left":[0,0,0,0,0,0,0,0,0,0,0,0,0,0,0],"id":62,"left_children":[1,3,5,7,9,11,13,-1,-1,-1,-1,-1,-1,-1,-1],"loss_changes":[2.970489E2,5.1355225E2,6.362499E2,7.008118E2,7.006151E2,2.8678592E2,2.5652252E2,0E0,0E0,0E0,0E0,0E0,0E0,0E0,0E0],"parents":[2147483647,0,0,1,1,2,2,3,3,4,4,5,5,6,6],"right_children":[2,4,6,8,10,12,14,-1,-1,-1,-1,-1,-1,-1,-1],"split_conditions":[2.3481337E1,1.630425E1,1E-1,2.6E0,5E1,4.4E1,2.8E1,9.1927566E-2,-8.850039E-2,-6.392645E-2,-4.9503276E-1,-9.160213E-2,2.3914543E-1,1.0332697E-1,6.756788E-1],"split_indices":[3,3,4,4,1,0,0,0,0,0,0,0,0,0,0],"split_type":[0,0,0,0,0,0,0,0,0,0,0,0,0,0,0],"sum_hessian":[1.494E3,1.341E3,1.53E2,9.27E2,4.14E2,1.17E2,3.6E1,5.89E2,3.38E2,3.73E2,4.1E1,7.9E1,3.8E1,1.2E1,2.4E1],"tree_param":{"num_deleted":"0","num_feature":"7","num_nodes":"15","size_leaf_vector":"1"}},{"base_weights":[-1.1391611E-3,1.5871803E-1,-1.2156798E0,-1.6243423E0,3.4463108E-1,1.1920447E1,-1.7557822E0,-1.9625537E-1,5.410606E-1,1.5214184E-1,4.360416E-3,2.089668E0,-3.5894872E-3,1.0794952E-2,-3.2599527E-1],"categories":[],"categories_nodes":[],"categories_segments":[],"categories_sizes":[],"default_left":[0,0,0,0,0,0,0,0,0,0,0,0,0,0,0],"id":63,"left_children":[1,3,5,7,9,11,13,-1,-1,-1,-1,-1,-1,-1,-1],"loss_changes":[2.9045175E2,4.387951E2,1.2554344E3,3.0803098E2,4.2431866E2,7.520102E2,4.71318E2,0E0,0E0,0E0,0E0,0E0,0E0,0E0,0E0],"parents":[2147483647,0,0,1,1,2,2,3,3,4,4,5,5,6,6],"right_children":[2,4,6,8,10,12,14,-1,-1,-1,-1,-1,-1,-1,-1],"split_conditions":[1.1983188E1,1.6E1,1.7695822E2,3.5E1,6.6500835E0,1.9E1,2.8E1,-1.9625537E-1,5.410606E-1,1.5214184E-1,4.360416E-3,2.089668E0,-3.5894872E-3,1.0794952E-2,-3.2599527E-1],"split_indices":[5,2,6,1,3,1,1,0,0,0,0,0,0,0,0],"split_type":[0,0,0,0,0,0,0,0,0,0,0,0,0,0,0],"sum_hessian":[1.494E3,1.321E3,1.73E2,1.24E2,1.197E3,6E0,1.67E2,1.19E2,5E0,2.43E2,9.54E2,3E0,3E0,7.5E1,9.2E1],"tree_param":{"num_deleted":"0","num_feature":"7","num_nodes":"15","size_leaf_vector":"1"}},{"base_weights":[4.94335E-4,7.000377E-1,-2.680635E-1,-2.9780161E0,9.9437445E-1,4.6679968E-1,-7.96879E-1,-9.469023E-2,-6.5848684E-1,2.687647E-1,3.745813E-2,-1.6794814E-2,7.403333E-1,-1.5413265E-1,4.161687E-2],"categories":[],"categories_nodes":[],"categories_segments":[],"categories_sizes":[],"default_left":[0,0,0,0,0,0,0,0,0,0,0,0,0,0,0],"id":64,"left_children":[1,3,5,7,9,11,13,-1,-1,-1,-1,-1,-1,-1,-1],"loss_changes":[2.810501E2,4.522345E2,4.2045618E2,2.208685E2,4.0304263E2,1.9957794E3,5.6866016E2,0E0,0E0,0E0,0E0,0E0,0E0,0E0,0E0],"parents":[2147483647,0,0,1,1,2,2,3,3,4,4,5,5,6,6],"right_children":[2,4,6,8,10,12,14,-1,-1,-1,-1,-1,-1,-1,-1],"split_conditions":[1.9602304E2,1.5175034E2,3.2E1,7.4128532E0,1.017925E1,4.4E1,5.3E1,-9.469023E-2,-6.5848684E-1,2.687647E-1,3.745813E-2,-1.6794814E-2,7.403333E-1,-1.5413265E-1,4.161687E-2],"split_indices":[6,6,1,5,3,0,2,0,0,0,0,0,0,0,0],"split_type":[0,0,0,0,0,0,0,0,0,0,0,0,0,0,0],"sum_hessian":[1.494E3,4.14E2,1.08E3,3E1,3.84E2,4.52E2,6.28E2,2E1,1E1,1.02E2,2.82E2,4.15E2,3.7E1,3.89E2,2.39E2],"tree_param":{"num_deleted":"0","num_feature":"7","num_nodes":"15","size_leaf_vector":"1"}},{"base_weights":[5.545071E-4,2.4892746E-1,-7.237597E-1,-5.2383494E-2,3.636768E0,3.189003E0,-1.0662935E0,-1.7533276E-2,6.1284363E-1,4.5918852E-1,-2.4471577E-1,4.6521518E-1,-3.6828077E-1,-1.9297366E-1,1.0689079E-1],"categories":[],"categories_nodes":[],"categories_segments":[],"categories_sizes":[],"default_left":[0,0,0,0,0,0,0,0,0,0,0,0,0,0,0],"id":65,"left_children":[1,3,5,7,9,11,13,-1,-1,-1,-1,-1,-1,-1,-1],"loss_changes":[2.6913077E2,1.1373544E3,5.1537714E2,7.7924E2,5.4002563E2,3.288218E2,6.510188E2,0E0,0E0,0E0,0E0,0E0,0E0,0E0,0E0],"parents":[2147483647,0,0,1,1,2,2,3,3,4,4,5,5,6,6],"right_children":[2,4,6,8,10,12,14,-1,-1,-1,-1,-1,-1,-1,-1],"split_conditions":[5.2E1,5.3E1,3.2E1,6.5E1,2.912974E2,1.1831334E1,7.7E1,-1.7533276E-2,6.1284363E-1,4.5918852E-1,-2.4471577E-1,4.6521518E-1,-3.6828077E-1,-1.9297366E-1,1.0689079E-1],"split_indices":[1,0,0,2,6,3,0,0,0,0,0,0,0,0,0],"split_type":[0,0,0,0,0,0,0,0,0,0,0,0,0,0,0],"sum_hessian":[1.494E3,1.113E3,3.81E2,1.023E3,9E1,3E1,3.51E2,1.004E3,1.9E1,7.8E1,1.2E1,2.5E1,5E0,2.5E2,1.01E2],"tree_param":{"num_deleted":"0","num_feature":"7","num_nodes":"15","size_leaf_vector":"1"}},{"base_weights":[1.0474495E-3,-1.4128098E-1,1.2413313E0,3.6184236E-1,-6.419517E-1,2.0850076E-1,4.5016737E0,-1.12168506E-1,1.1094474E-1,6.9101796E-2,-1.441475E-1,-6.774135E-2,2.5109288E-1,9.970769E-2,6.1439973E-1],"categories":[],"categories_nodes":[],"categories_segments":[],"categories_sizes":[],"default_left":[0,0,0,0,0,0,0,0,0,0,0,0,0,0,0],"id":66,"left_children":[1,3,5,7,9,11,13,-1,-1,-1,-1,-1,-1,-1,-1],"loss_changes":[2.6408423E2,3.3828088E2,5.176381E2,7.443364E2,7.182394E2,2.4239188E2,2.0683417E2,0E0,0E0,0E0,0E0,0E0,0E0,0E0,0E0],"parents":[2147483647,0,0,1,1,2,2,3,3,4,4,5,5,6,6],"right_children":[2,4,6,8,10,12,14,-1,-1,-1,-1,-1,-1,-1,-1],"split_conditions":[2.3481337E1,8.12197E0,1E-1,3.2E1,2.8E1,9.793058E0,2.8E1,-1.12168506E-1,1.1094474E-1,6.9101796E-2,-1.441475E-1,-6.774135E-2,2.5109288E-1,9.970769E-2,6.1439973E-1],"split_indices":[3,5,4,2,1,5,0,0,0,0,0,0,0,0,0],"split_type":[0,0,0,0,0,0,0,0,0,0,0,0,0,0,0],"sum_hessian":[1.494E3,1.341E3,1.53E2,6.69E2,6.72E2,1.17E2,3.6E1,2.24E2,4.45E2,2.52E2,4.2E2,8.5E1,3.2E1,1.2E1,2.4E1],"tree_param":{"num_deleted":"0","num_feature":"7","num_nodes":"15","size_leaf_vector":"1"}},{"base_weights":[1.4920844E-3,-2.619019E0,6.79468E-2,-3.6211348E0,-4.904105E-1,1.3960958E0,-7.7434205E-2,-4.7016093E-1,-2.0588203E-1,1.3951518E-1,-2.3059142E-1,1.3067794E-2,7.13412E-1,-1.2353818E-3,-6.5995413E-1],"categories":[],"categories_nodes":[],"categories_segments":[],"categories_sizes":[],"default_left":[0,0,0,0,0,0,0,0,0,0,0,0,0,0,0],"id":67,"left_children":[1,3,5,7,9,11,13,-1,-1,-1,-1,-1,-1,-1,-1],"loss_changes":[2.605252E2,7.714928E1,2.8182294E2,3.25213E1,4.771928E1,1.0446514E3,5.5850946E2,0E0,0E0,0E0,0E0,0E0,0E0,0E0,0E0],"parents":[2147483647,0,0,1,1,2,2,3,3,4,4,5,5,6,6],"right_children":[2,4,6,8,10,12,14,-1,-1,-1,-1,-1,-1,-1,-1],"split_conditions":[1E1,3.1231015E2,1.6E1,9E0,9E0,2.7E1,1.5986595E1,-4.7016093E-1,-2.0588203E-1,1.3951518E-1,-2.3059142E-1,1.3067794E-2,7.13412E-1,-1.2353818E-3,-6.5995413E-1],"split_indices":[0,6,1,0,0,0,5,0,0,0,0,0,0,0,0],"split_type":[0,0,0,0,0,0,0,0,0,0,0,0,0,0,0],"sum_hessian":[1.494E3,3.6E1,1.458E3,2.4E1,1.2E1,1.43E2,1.315E3,1.3E1,1.1E1,6E0,6E0,1.18E2,2.5E1,1.303E3,1.2E1],"tree_param":{"num_deleted":"0","num_feature":"7","num_nodes":"15","size_leaf_vector":"1"}},{"base_weights":[8.7392546E-4,-3.4418058E-2,4.7652125E0,1.0436668E-1,-1.6430885E0,8.425334E-1,3.015704E0,-5.679166E-3,4.1840044E-1,-1.0517987E0,-6.3241675E-2,1.15985714E-1,4.26841E-1],"categories":[],"categories_nodes":[],"categories_segments":[],"categories_sizes":[],"default_left":[0,0,0,0,0,0,0,0,0,0,0,0,0],"id":68,"left_children":[1,3,5,7,9,-1,11,-1,-1,-1,-1,-1,-1],"loss_changes":[2.5153773E2,3.3171097E2,4.502922E1,8.996534E2,1.0517622E3,0E0,1.5972717E1,0E0,0E0,0E0,0E0,0E0,0E0],"parents":[2147483647,0,0,1,1,2,2,3,3,4,4,6,6],"right_children":[2,4,6,8,10,-1,12,-1,-1,-1,-1,-1,-1],"split_conditions":[1.1E2,7.4E1,8.4E1,7.1E1,7.5E1,8.425334E-1,1.11E2,-5.679166E-3,4.1840044E-1,-1.0517987E0,-6.3241675E-2,1.15985714E-1,4.26841E-1],"split_indices":[0,1,2,0,1,0,1,0,0,0,0,0,0],"split_type":[0,0,0,0,0,0,0,0,0,0,0,0,0],"sum_hessian":[1.494E3,1.484E3,1E1,1.367E3,1.17E2,2E0,8E0,1.316E3,5.1E1,1.1E1,1.06E2,4E0,4E0],"tree_param":{"num_deleted":"0","num_feature":"7","num_nodes":"13","size_leaf_vector":"1"}},{"base_weights":[1.2438885E-3,-3.4885411E0,4.8530106E-2,-1.5264039E0,-7.812461E0,-4.6523094E0,8.700215E-2,-2.9511532E-1,3.129445E-1,-1.21229984E-1,-1.4008522E0,1.7007999E-1,-5.384483E-1,8.915521E-2,-2.0980854E-2],"categories":[],"categories_nodes":[],"categories_segments":[],"categories_sizes":[],"default_left":[0,0,0,0,0,0,0,0,0,0,0,0,0,0,0],"id":69,"left_children":[1,3,5,7,9,11,13,-1,-1,-1,-1,-1,-1,-1,-1],"loss_changes":[2.468723E2,1.5775752E2,2.6734073E2,1.0873673E2,2.2838745E2,6.497684E1,3.5002762E2,0E0,0E0,0E0,0E0,0E0,0E0,0E0,0E0],"parents":[2147483647,0,0,1,1,2,2,3,3,4,4,5,5,6,6],"right_children":[2,4,6,8,10,12,14,-1,-1,-1,-1,-1,-1,-1,-1],"split_conditions":[9E0,5.9E0,1.2919324E2,2.9E1,2E1,6.350083E0,1.9602304E2,-2.9511532E-1,3.129445E-1,-1.21229984E-1,-1.4008522E0,1.7007999E-1,-5.384483E-1,8.915521E-2,-2.0980854E-2],"split_indices":[2,4,6,0,0,3,6,0,0,0,0,0,0,0,0],"split_type":[0,0,0,0,0,0,0,0,0,0,0,0,0,0,0],"sum_hessian":[1.494E3,1.9E1,1.475E3,1.4E1,5E0,1.1E1,1.464E3,1.1E1,3E0,3E0,2E0,1E0,1E1,3.94E2,1.07E3],"tree_param":{"num_deleted":"0","num_feature":"7","num_nodes":"15","size_leaf_vector":"1"}},{"base_weights":[-8.786307E-5,2.2619554E-1,-6.5998214E-1,-2.475419E-1,2.0381336E0,2.9497352E0,-9.760085E-1,-3.5555735E-2,6.490243E-1,1.346219E0,1.6736603E-1,4.2922112E-1,-3.359282E-1,-1.7489253E-1,9.355416E-2],"categories":[],"categories_nodes":[],"categories_segments":[],"categories_sizes":[],"default_left":[0,0,0,0,0,0,0,0,0,0,0,0,0,0,0],"id":70,"left_children":[1,3,5,7,9,11,13,-1,-1,-1,-1,-1,-1,-1,-1],"loss_changes":[2.2338736E2,9.567431E2,4.3865143E2,6.456694E2,9.392987E2,2.7697955E2,5.217053E2,0E0,0E0,0E0,0E0,0E0,0E0,0E0,0E0],"parents":[2147483647,0,0,1,1,2,2,3,3,4,4,5,5,6,6],"right_children":[2,4,6,8,10,12,14,-1,-1,-1,-1,-1,-1,-1,-1],"split_conditions":[5.2E1,4.5E1,3.2E1,6.5E1,1.7E1,1.1831334E1,7.7E1,-3.5555735E-2,6.490243E-1,1.346219E0,1.6736603E-1,4.2922112E-1,-3.359282E-1,-1.7489253E-1,9.355416E-2],"split_indices":[1,0,0,2,1,3,0,0,0,0,0,0,0,0,0],"split_type":[0,0,0,0,0,0,0,0,0,0,0,0,0,0,0],"sum_hessian":[1.494E3,1.113E3,3.81E2,8.83E2,2.3E2,3E1,3.51E2,8.7E2,1.3E1,6E0,2.24E2,2.5E1,5E0,2.5E2,1.01E2],"tree_param":{"num_deleted":"0","num_feature":"7","num_nodes":"15","size_leaf_vector":"1"}},{"base_weights":[1.3518911E-3,1.0608869E-1,-1.3861742E0,-2.1016958E0,2.089282E-1,-2.3603408E0,4.1801496E0,-3.1927374E-1,-2.4118252E-2,2.631255E-2,-4.2584726E-1,-7.8116906E-1,-1.6581948E-1,5.104467E-1,1.12575606E-1],"categories":[],"categories_nodes":[],"categories_segments":[],"categories_sizes":[],"default_left":[0,0,0,0,0,0,0,0,0,0,0,0,0,0,0],"id":71,"left_children":[1,3,5,7,9,11,13,-1,-1,-1,-1,-1,-1,-1,-1],"loss_changes":[2.1740797E2,3.1626212E2,5.7923193E2,1.2508365E2,3.2314163E2,3.315346E2,3.9425323E1,0E0,0E0,0E0,0E0,0E0,0E0,0E0,0E0],"parents":[2147483647,0,0,1,1,2,2,3,3,4,4,5,5,6,6],"right_children":[2,4,6,8,10,12,14,-1,-1,-1,-1,-1,-1,-1,-1],"split_conditions":[1.77E1,1.2E1,2.0064665E1,3.1283713E2,3.4187244E2,5.070917E0,3.1199995E1,-3.1927374E-1,-2.4118252E-2,2.631255E-2,-4.2584726E-1,-7.8116906E-1,-1.6581948E-1,5.104467E-1,1.12575606E-1],"split_indices":[4,0,3,6,6,3,4,0,0,0,0,0,0,0,0],"split_type":[0,0,0,0,0,0,0,0,0,0,0,0,0,0,0],"sum_hessian":[1.494E3,1.39E3,1.04E2,6.1E1,1.329E3,8.9E1,1.5E1,3.8E1,2.3E1,1.314E3,1.5E1,9E0,8E1,1.1E1,4E0],"tree_param":{"num_deleted":"0","num_feature":"7","num_nodes":"15","size_leaf_vector":"1"}},{"base_weights":[5.02564E-4,-3.152915E-2,4.324738E0,-2.5194038E-3,-7.1820116E0,7.79772E-1,2.6865513E0,-4.643038E-3,4.9562368E-1,-9.645279E-1,2.5671634E-1,9.879639E-2,3.8478288E-1],"categories":[],"categories_nodes":[],"categories_segments":[],"categories_sizes":[],"default_left":[0,0,0,0,0,0,0,0,0,0,0,0,0],"id":72,"left_children":[1,3,5,7,9,-1,11,-1,-1,-1,-1,-1,-1],"loss_changes":[2.0721281E2,3.0802094E2,4.163434E1,3.2249094E2,1.6884998E2,0E0,1.3951256E1,0E0,0E0,0E0,0E0,0E0,0E0],"parents":[2147483647,0,0,1,1,2,2,3,3,4,4,6,6],"right_children":[2,4,6,8,10,-1,12,-1,-1,-1,-1,-1,-1],"split_conditions":[1.1E2,1.11E2,8.4E1,1.02E2,6.575084E0,7.79772E-1,1.11E2,-4.643038E-3,4.9562368E-1,-9.645279E-1,2.5671634E-1,9.879639E-2,3.8478288E-1],"split_indices":[0,2,2,2,3,0,1,0,0,0,0,0,0],"split_type":[0,0,0,0,0,0,0,0,0,0,0,0,0],"sum_hessian":[1.494E3,1.484E3,1E1,1.479E3,5E0,2E0,8E0,1.467E3,1.2E1,4E0,1E0,4E0,4E0],"tree_param":{"num_deleted":"0","num_feature":"7","num_nodes":"13","size_leaf_vector":"1"}},{"base_weights":[1.1522248E-3,-8.61157E-2,1.5876237E0,7.7611156E-2,-1.2726347E0,6.003283E-1,4.238838E0,-8.9343674E-2,3.6230437E-2,1.2218913E0,-1.7497405E-1,2.6095116E-1,-1.23378314E-1,2.5746346E-2,5.4669267E-1],"categories":[],"categories_nodes":[],"categories_segments":[],"categories_sizes":[],"default_left":[0,0,0,0,0,0,0,0,0,0,0,0,0,0,0],"id":73,"left_children":[1,3,5,7,9,11,13,-1,-1,-1,-1,-1,-1,-1,-1],"loss_changes":[2.0711661E2,2.755666E2,2.0162279E2,3.4505777E2,1.1285256E3,2.1695338E2,1.01271545E2,0E0,0E0,0E0,0E0,0E0,0E0,0E0,0E0],"parents":[2147483647,0,0,1,1,2,2,3,3,4,4,5,5,6,6],"right_children":[2,4,6,8,10,12,14,-1,-1,-1,-1,-1,-1,-1,-1],"split_conditions":[2.5752165E1,1.191812E1,1.0144082E1,2.3E1,1.7695822E2,7.628263E0,2.5E1,-8.9343674E-2,3.6230437E-2,1.2218913E0,-1.7497405E-1,2.6095116E-1,-1.23378314E-1,2.5746346E-2,5.4669267E-1],"split_indices":[3,5,5,2,6,5,2,0,0,0,0,0,0,0,0],"split_type":[0,0,0,0,0,0,0,0,0,0,0,0,0,0,0],"sum_hessian":[1.494E3,1.417E3,7.7E1,1.246E3,1.71E2,5.7E1,2E1,2.82E2,9.64E2,5E0,1.66E2,2.7E1,3E1,5E0,1.5E1],"tree_param":{"num_deleted":"0","num_feature":"7","num_nodes":"15","size_leaf_vector":"1"}},{"base_weights":[2.1760692E-3,2.2335358E-1,-6.428342E-1,-1.9606832E-1,1.827447E0,-5.3491205E-1,-1.0707746E0,-2.9245356E-2,5.8144754E-1,1.2107217E0,1.4995101E-1,1.5527926E-1,-1.1165436E-1],"categories":[],"categories_nodes":[],"categories_segments":[],"categories_sizes":[],"default_left":[0,0,0,0,0,0,0,0,0,0,0,0,0],"id":74,"left_children":[1,3,5,7,9,11,-1,-1,-1,-1,-1,-1,-1],"loss_changes":[2.1342291E2,7.4984845E2,4.0921082E2,5.1382623E2,7.6057324E2,4.6194403E2,0E0,0E0,0E0,0E0,0E0,0E0,0E0],"parents":[2147483647,0,0,1,1,2,2,3,3,4,4,5,5],"right_children":[2,4,6,8,10,12,-1,-1,-1,-1,-1,-1,-1],"split_conditions":[5.2E1,4.5E1,3.1199995E1,6.5E1,1.7E1,1.8939946E2,-1.0707746E0,-2.9245356E-2,5.8144754E-1,1.2107217E0,1.4995101E-1,1.5527926E-1,-1.1165436E-1],"split_indices":[1,0,4,2,1,6,0,0,0,0,0,0,0],"split_type":[0,0,0,0,0,0,0,0,0,0,0,0,0],"sum_hessian":[1.494E3,1.113E3,3.81E2,8.83E2,2.3E2,3.78E2,3E0,8.7E2,1.3E1,6E0,2.24E2,8.2E1,2.96E2],"tree_param":{"num_deleted":"0","num_feature":"7","num_nodes":"13","size_leaf_vector":"1"}},{"base_weights":[2.5506641E-3,1.8639754E0,-6.7157716E-2,-4.7927637E0,2.49237E0,5.5999234E-2,-1.4623625E0,-6.741174E-2,-7.313822E-1,1.567493E-1,9.013551E-1,-8.092589E-3,4.576603E-1,-1.2931949E0,-3.868234E-2],"categories":[],"categories_nodes":[],"categories_segments":[],"categories_sizes":[],"default_left":[0,0,0,0,0,0,0,0,0,0,0,0,0,0,0],"id":75,"left_children":[1,3,5,7,9,11,13,-1,-1,-1,-1,-1,-1,-1,-1],"loss_changes":[1.9411177E2,2.3783043E2,2.4785954E2,4.698636E1,2.8743576E2,8.2114343E2,1.4383082E3,0E0,0E0,0E0,0E0,0E0,0E0,0E0,0E0],"parents":[2147483647,0,0,1,1,2,2,3,3,4,4,5,5,6,6],"right_children":[2,4,6,8,10,12,14,-1,-1,-1,-1,-1,-1,-1,-1],"split_conditions":[1.2750837E0,2.1E1,7.4E1,9.3758327E-1,3.9999998E0,7.3E1,7.5E1,-6.741174E-2,-7.313822E-1,1.567493E-1,9.013551E-1,-8.092589E-3,4.576603E-1,-1.2931949E0,-3.868234E-2],"split_indices":[3,0,1,3,4,0,1,0,0,0,0,0,0,0,0],"split_type":[0,0,0,0,0,0,0,0,0,0,0,0,0,0,0],"sum_hessian":[1.494E3,5.3E1,1.441E3,4E0,4.9E1,1.325E3,1.16E2,2E0,2E0,4.4E1,5E0,1.287E3,3.8E1,9E0,1.07E2],"tree_param":{"num_deleted":"0","num_feature":"7","num_nodes":"15","size_leaf_vector":"1"}},{"base_weights":[1.8783595E-3,-3.0973918E0,4.3872617E-2,-1.2500877E0,-7.19942E0,1.3446349E0,-9.884351E-2,2.1887894E-1,-2.6995695E-1,-9.679182E-2,-1.3108283E0,2.460837E-2,5.9654546E-1,-5.1973253E-3,-7.843515E-1],"categories":[],"categories_nodes":[],"categories_segments":[],"categories_sizes":[],"default_left":[0,0,0,0,0,0,0,0,0,0,0,0,0,0,0],"id":76,"left_children":[1,3,5,7,9,11,13,-1,-1,-1,-1,-1,-1,-1,-1],"loss_changes":[1.9471246E2,1.4255397E2,2.7413718E2,8.067763E1,2.082388E2,7.396582E2,4.827384E2,0E0,0E0,0E0,0E0,0E0,0E0,0E0,0E0],"parents":[2147483647,0,0,1,1,2,2,3,3,4,4,5,5,6,6],"right_children":[2,4,6,8,10,12,14,-1,-1,-1,-1,-1,-1,-1,-1],"split_conditions":[9E0,5.9E0,1.6E1,1.1079249E1,2E1,2.6E1,1.7057314E1,2.1887894E-1,-2.6995695E-1,-9.679182E-2,-1.3108283E0,2.460837E-2,5.9654546E-1,-5.1973253E-3,-7.843515E-1],"split_indices":[2,4,1,3,0,0,5,0,0,0,0,0,0,0,0],"split_type":[0,0,0,0,0,0,0,0,0,0,0,0,0,0,0],"sum_hessian":[1.494E3,1.9E1,1.475E3,1.4E1,5E0,1.45E2,1.33E3,4E0,1E1,3E0,2E0,1.18E2,2.7E1,1.323E3,7E0],"tree_param":{"num_deleted":"0","num_feature":"7","num_nodes":"15","size_leaf_vector":"1"}},{"base_weights":[6.012173E-4,-2.4290953E0,5.201418E-2,-6.2861115E-1,-5.6455564E0,7.5277317E-1,-1.9761044E-1,-2.638237E-1,2.9668102E-1,1.721921E-1,-6.554496E-1,-4.1290153E-2,1.4904784E-1,4.4654198E-2,-6.6120885E-2],"categories":[],"categories_nodes":[],"categories_segments":[],"categories_sizes":[],"default_left":[0,0,0,0,0,0,0,0,0,0,0,0,0,0,0],"id":77,"left_children":[1,3,5,7,9,11,13,-1,-1,-1,-1,-1,-1,-1,-1],"loss_changes":[1.868786E2,1.7597797E2,2.5641635E2,1.5956161E2,8.494882E1,3.3168622E2,3.2311218E2,0E0,0E0,0E0,0E0,0E0,0E0,0E0,0E0],"parents":[2147483647,0,0,1,1,2,2,3,3,4,4,5,5,6,6],"right_children":[2,4,6,8,10,12,14,-1,-1,-1,-1,-1,-1,-1,-1],"split_conditions":[1.5175034E2,7.4128532E0,1.9602304E2,4.5E1,6.350083E0,3.3E1,3.2E1,-2.638237E-1,2.9668102E-1,1.721921E-1,-6.554496E-1,-4.1290153E-2,1.4904784E-1,4.4654198E-2,-6.6120885E-2],"split_indices":[6,5,6,1,3,2,1,0,0,0,0,0,0,0,0],"split_type":[0,0,0,0,0,0,0,0,0,0,0,0,0,0,0],"sum_hessian":[1.494E3,3E1,1.464E3,2E1,1E1,3.84E2,1.08E3,1.3E1,7E0,1E0,9E0,1.49E2,2.35E2,4.52E2,6.28E2],"tree_param":{"num_deleted":"0","num_feature":"7","num_nodes":"15","size_leaf_vector":"1"}},{"base_weights":[2.9739138E-4,-3.0500004E-2,4.157919E0,3.0159082E-2,-2.973471E0,7.4014896E-1,2.6147375E0,-5.0124503E-3,5.518591E-1,7.799538E-2,-8.668604E-1,1.018184E-1,3.6883438E-1],"categories":[],"categories_nodes":[],"categories_segments":[],"categories_sizes":[],"default_left":[0,0,0,0,0,0,0,0,0,0,0,0,0],"id":78,"left_children":[1,3,5,7,9,-1,11,-1,-1,-1,-1,-1,-1],"loss_changes":[1.9155244E2,2.6518884E2,3.570665E1,6.4183527E2,6.480487E2,0E0,1.1671219E1,0E0,0E0,0E0,0E0,0E0,0E0],"parents":[2147483647,0,0,1,1,2,2,3,3,4,4,6,6],"right_children":[2,4,6,8,10,-1,12,-1,-1,-1,-1,-1,-1],"split_conditions":[1.1E2,9.5E1,8.4E1,9.4E1,2.5757404E2,7.4014896E-1,1.11E2,-5.0124503E-3,5.518591E-1,7.799538E-2,-8.668604E-1,1.018184E-1,3.6883438E-1],"split_indices":[0,1,2,2,6,0,1,0,0,0,0,0,0],"split_type":[0,0,0,0,0,0,0,0,0,0,0,0,0],"sum_hessian":[1.494E3,1.484E3,1E1,1.455E3,2.9E1,2E0,8E0,1.435E3,2E1,1.8E1,1.1E1,4E0,4E0],"tree_param":{"num_deleted":"0","num_feature":"7","num_nodes":"13","size_leaf_vector":"1"}},{"base_weights":[9.1570785E-4,-1.17641404E-1,1.0340503E0,1.9207652E-1,-8.09932E-1,8.964807E-2,4.0179806E0,1.2454381E-2,9.05966E-1,-4.3304965E-2,-4.1466957E-1,-2.665258E-1,6.790703E-2,1.00132026E-1,5.610283E-1],"categories":[],"categories_nodes":[],"categories_segments":[],"categories_sizes":[],"default_left":[0,0,0,0,0,0,0,0,0,0,0,0,0,0,0],"id":79,"left_children":[1,3,5,7,9,11,13,-1,-1,-1,-1,-1,-1,-1,-1],"loss_changes":[1.8323741E2,2.8790024E2,4.336165E2,5.5460626E2,5.2009467E2,1.9341862E2,1.721095E2,0E0,0E0,0E0,0E0,0E0,0E0,0E0,0E0],"parents":[2147483647,0,0,1,1,2,2,3,3,4,4,5,5,6,6],"right_children":[2,4,6,8,10,12,14,-1,-1,-1,-1,-1,-1,-1,-1],"split_conditions":[2.3481337E1,1.630425E1,1E-1,1.6233416E1,5E1,2.1E1,2.4E1,1.2454381E-2,9.05966E-1,-4.3304965E-2,-4.1466957E-1,-2.665258E-1,6.790703E-2,1.00132026E-1,5.610283E-1],"split_indices":[3,3,4,3,1,2,1,0,0,0,0,0,0,0,0],"split_type":[0,0,0,0,0,0,0,0,0,0,0,0,0,0,0],"sum_hessian":[1.494E3,1.341E3,1.53E2,9.27E2,4.14E2,1.17E2,3.6E1,9.21E2,6E0,3.73E2,4.1E1,2E1,9.7E1,1.3E1,2.3E1],"tree_param":{"num_deleted":"0","num_feature":"7","num_nodes":"15","size_leaf_vector":"1"}},{"base_weights":[1.441548E-3,1.9851597E-1,-5.7327664E-1,7.955091E-2,5.1736865E0,2.786313E0,-8.67521E-1,-1.0848817E-2,2.3019007E-1,7.255953E-1,-1.3209007E0,3.956412E-1,-2.748501E-1,-2.669391E-1,-1.3183068E-2],"categories":[],"categories_nodes":[],"categories_segments":[],"categories_sizes":[],"default_left":[0,0,0,0,0,0,0,0,0,0,0,0,0,0,0],"id":80,"left_children":[1,3,5,7,9,11,13,-1,-1,-1,-1,-1,-1,-1,-1],"loss_changes":[1.6944086E2,6.589333E2,3.8003955E2,4.5533038E2,1.0910632E3,2.1163885E2,4.662657E2,0E0,0E0,0E0,0E0,0E0,0E0,0E0,0E0],"parents":[2147483647,0,0,1,1,2,2,3,3,4,4,5,5,6,6],"right_children":[2,4,6,8,10,12,14,-1,-1,-1,-1,-1,-1,-1,-1],"split_conditions":[5.2E1,6.4E1,3.2E1,5.3E1,3.0336636E2,3.1231015E2,5.8E1,-1.0848817E-2,2.3019007E-1,7.255953E-1,-1.3209007E0,3.956412E-1,-2.748501E-1,-2.669391E-1,-1.3183068E-2],"split_indices":[1,0,0,2,6,6,1,0,0,0,0,0,0,0,0],"split_type":[0,0,0,0,0,0,0,0,0,0,0,0,0,0,0],"sum_hessian":[1.494E3,1.113E3,3.81E2,1.088E3,2.5E1,3E1,3.51E2,1.004E3,8.4E1,2.3E1,2E0,2.5E1,5E0,1.01E2,2.5E2],"tree_param":{"num_deleted":"0","num_feature":"7","num_nodes":"15","size_leaf_vector":"1"}},{"base_weights":[9.3946554E-4,-2.8784292E0,3.9954662E-2,-1.176278E0,-6.6540685E0,7.8423655E-1,-1.6265777E-1,1.8505888E-1,-2.4451922E-1,-8.0616765E-2,-1.2233247E0,-1.2478971E-2,3.8118827E-1,-7.365407E-3,-5.236636E-1],"categories":[],"categories_nodes":[],"categories_segments":[],"categories_sizes":[],"default_left":[0,0,0,0,0,0,0,0,0,0,0,0,0,0,0],"id":81,"left_children":[1,3,5,7,9,11,13,-1,-1,-1,-1,-1,-1,-1,-1],"loss_changes":[1.6806201E2,1.2070714E2,2.2270949E2,6.213755E1,1.8589688E2,8.7017395E2,5.239252E2,0E0,0E0,0E0,0E0,0E0,0E0,0E0,0E0],"parents":[2147483647,0,0,1,1,2,2,3,3,4,4,5,5,6,6],"right_children":[2,4,6,8,10,12,14,-1,-1,-1,-1,-1,-1,-1,-1],"split_conditions":[9E0,5.9E0,2.2E1,1.1079249E1,2E1,2.7E1,1.5175612E1,1.8505888E-1,-2.4451922E-1,-8.0616765E-2,-1.2233247E0,-1.2478971E-2,3.8118827E-1,-7.365407E-3,-5.236636E-1],"split_indices":[2,4,1,3,0,0,5,0,0,0,0,0,0,0,0],"split_type":[0,0,0,0,0,0,0,0,0,0,0,0,0,0,0],"sum_hessian":[1.494E3,1.9E1,1.475E3,1.4E1,5E0,3.15E2,1.16E3,4E0,1E1,3E0,2E0,2.43E2,7.2E1,1.141E3,1.9E1],"tree_param":{"num_deleted":"0","num_feature":"7","num_nodes":"15","size_leaf_vector":"1"}},{"base_weights":[-1.747393E-4,-4.448982E-2,2.5053384E0,-7.387339E-2,3.8595567E0,3.45467E0,-2.1727881E0,-4.9010534E-3,-6.090805E-1,6.913452E-1,2.4127519E-1,-5.4720353E-2,5.358691E-1,-4.72126E-1,1.0999464E-1],"categories":[],"categories_nodes":[],"categories_segments":[],"categories_sizes":[],"default_left":[0,0,0,0,0,0,0,0,0,0,0,0,0,0,0],"id":82,"left_children":[1,3,5,7,9,11,13,-1,-1,-1,-1,-1,-1,-1,-1],"loss_changes":[1.6610432E2,1.6891594E2,1.229747E2,2.1811479E2,3.192186E1,1.705646E2,4.6895493E1,0E0,0E0,0E0,0E0,0E0,0E0,0E0,0E0],"parents":[2147483647,0,0,1,1,2,2,3,3,4,4,5,5,6,6],"right_children":[2,4,6,8,10,12,14,-1,-1,-1,-1,-1,-1,-1,-1],"split_conditions":[2.791675E1,1.1E2,5.3E1,1.11E2,8.4E1,2.8E1,5.6E1,-4.9010534E-3,-6.090805E-1,6.913452E-1,2.4127519E-1,-5.4720353E-2,5.358691E-1,-4.72126E-1,1.0999464E-1],"split_indices":[3,0,1,2,2,2,1,0,0,0,0,0,0,0,0],"split_type":[0,0,0,0,0,0,0,0,0,0,0,0,0,0,0],"sum_hessian":[1.494E3,1.469E3,2.5E1,1.459E3,1E1,2.1E1,4E0,1.454E3,5E0,2E0,8E0,7E0,1.4E1,2E0,2E0],"tree_param":{"num_deleted":"0","num_feature":"7","num_nodes":"15","size_leaf_vector":"1"}},{"base_weights":[1.358753E-4,1.696352E0,-6.33841E-2,-1.785837E0,2.959764E0,4.855272E-2,-1.3314596E0,1.1007773E0,-3.4859356E-1,1.3593216E0,2.0423925E-1,-7.5387596E-3,4.1405162E-1,-1.1793114E0,-3.504597E-2],"categories":[],"categories_nodes":[],"categories_segments":[],"categories_sizes":[],"default_left":[0,0,0,0,0,0,0,0,0,0,0,0,0,0,0],"id":83,"left_children":[1,3,5,7,9,11,13,-1,-1,-1,-1,-1,-1,-1,-1],"loss_changes":[1.6118422E2,2.428554E2,2.047484E2,3.646284E2,3.6243042E2,6.7280536E2,1.1966243E3,0E0,0E0,0E0,0E0,0E0,0E0,0E0,0E0],"parents":[2147483647,0,0,1,1,2,2,3,3,4,4,5,5,6,6],"right_children":[2,4,6,8,10,12,14,-1,-1,-1,-1,-1,-1,-1,-1],"split_conditions":[1.2750837E0,4.1E1,7.4E1,8E0,2.4343509E2,7.3E1,7.5E1,1.1007773E0,-3.4859356E-1,1.3593216E0,2.0423925E-1,-7.5387596E-3,4.1405162E-1,-1.1793114E0,-3.504597E-2],"split_indices":[3,1,1,1,6,0,1,0,0,0,0,0,0,0,0],"split_type":[0,0,0,0,0,0,0,0,0,0,0,0,0,0,0],"sum_hessian":[1.494E3,5.3E1,1.441E3,1.4E1,3.9E1,1.325E3,1.16E2,1E0,1.3E1,2E0,3.7E1,1.287E3,3.8E1,9E0,1.07E2],"tree_param":{"num_deleted":"0","num_feature":"7","num_nodes":"15","size_leaf_vector":"1"}},{"base_weights":[1.1302782E-3,-2.035873E0,5.2787572E-2,-3.6992204E0,-8.625649E-1,1.2173333E0,-7.4680045E-2,-8.714167E-3,-4.2482215E-1,-2.0291229E-1,5.9450954E-2,9.74985E-2,1.7936573E0,-2.1723271E-3,-5.380907E-1],"categories":[],"categories_nodes":[],"categories_segments":[],"categories_sizes":[],"default_left":[0,0,0,0,0,0,0,0,0,0,0,0,0,0,0],"id":84,"left_children":[1,3,5,7,9,11,13,-1,-1,-1,-1,-1,-1,-1,-1],"loss_changes":[1.5742044E2,6.901907E1,2.166676E2,2.9375336E1,4.0300858E1,5.659828E2,3.6968E2,0E0,0E0,0E0,0E0,0E0,0E0,0E0,0E0],"parents":[2147483647,0,0,1,1,2,2,3,3,4,4,5,5,6,6],"right_children":[2,4,6,8,10,12,14,-1,-1,-1,-1,-1,-1,-1,-1],"split_conditions":[1E1,2.7612595E2,1.6E1,1.6010448E2,1.8000002E0,1.5986595E1,1.5986595E1,-8.714167E-3,-4.2482215E-1,-2.0291229E-1,5.9450954E-2,9.74985E-2,1.7936573E0,-2.1723271E-3,-5.380907E-1],"split_indices":[0,6,1,6,4,5,5,0,0,0,0,0,0,0,0],"split_type":[0,0,0,0,0,0,0,0,0,0,0,0,0,0,0],"sum_hessian":[1.494E3,3.6E1,1.458E3,1.4E1,2.2E1,1.43E2,1.315E3,2E0,1.2E1,1.2E1,1E1,1.42E2,1E0,1.303E3,1.2E1],"tree_param":{"num_deleted":"0","num_feature":"7","num_nodes":"15","size_leaf_vector":"1"}},{"base_weights":[1.5343593E-3,8.9078665E-2,-1.1582339E0,-1.2388865E0,2.0070729E-1,-2.0406423E0,3.8777037E0,-2.808023E-1,-2.7457064E-2,1.9602622E-1,5.3661224E-3,7.3431224E-1,-2.3373543E-1,-5.022367E-3,4.442424E-1],"categories":[],"categories_nodes":[],"categories_segments":[],"categories_sizes":[],"default_left":[0,0,0,0,0,0,0,0,0,0,0,0,0,0,0],"id":85,"left_children":[1,3,5,7,9,11,13,-1,-1,-1,-1,-1,-1,-1,-1],"loss_changes":[1.5189217E2,2.06449E2,4.745072E2,1.6264847E2,3.3211136E2,2.6774817E2,3.571399E1,0E0,0E0,0E0,0E0,0E0,0E0,0E0,0E0],"parents":[2147483647,0,0,1,1,2,2,3,3,4,4,5,5,6,6],"right_children":[2,4,6,8,10,12,14,-1,-1,-1,-1,-1,-1,-1,-1],"split_conditions":[1.77E1,1.4E1,2.0064665E1,2.8301636E2,1.6E1,1E1,1.7E1,-2.808023E-1,-2.7457064E-2,1.9602622E-1,5.3661224E-3,7.3431224E-1,-2.3373543E-1,-5.022367E-3,4.442424E-1],"split_indices":[4,0,3,6,1,1,0,0,0,0,0,0,0,0,0],"split_type":[0,0,0,0,0,0,0,0,0,0,0,0,0,0,0],"sum_hessian":[1.494E3,1.39E3,1.04E2,1.07E2,1.283E3,8.9E1,1.5E1,4E1,6.7E1,9.8E1,1.185E3,2E0,8.7E1,2E0,1.3E1],"tree_param":{"num_deleted":"0","num_feature":"7","num_nodes":"15","size_leaf_vector":"1"}},{"base_weights":[1.9380187E-3,-3.6541557E-1,2.788506E-1,-6.357713E-1,1.6599457E0,1.6404593E0,-1.0855226E-1,-2.225348E-2,-3.0141518E-1,3.4520343E-1,-5.858017E-1,9.512757E-2,4.9920392E-1,7.097092E-2,-1.053571E-1],"categories":[],"categories_nodes":[],"categories_segments":[],"categories_sizes":[],"default_left":[0,0,0,0,0,0,0,0,0,0,0,0,0,0,0],"id":86,"left_children":[1,3,5,7,9,11,13,-1,-1,-1,-1,-1,-1,-1,-1],"loss_changes":[1.5218053E2,3.5314157E2,4.50128E2,5.5757874E2,1.0441592E3,4.3181363E2,5.149739E2,0E0,0E0,0E0,0E0,0E0,0E0,0E0,0E0],"parents":[2147483647,0,0,1,1,2,2,3,3,4,4,5,5,6,6],"right_children":[2,4,6,8,10,12,14,-1,-1,-1,-1,-1,-1,-1,-1],"split_conditions":[3.3E1,4.7E1,3.5E1,3.4E1,1.11E1,4.2E1,8.12197E0,-2.225348E-2,-3.0141518E-1,3.4520343E-1,-5.858017E-1,9.512757E-2,4.9920392E-1,7.097092E-2,-1.053571E-1],"split_indices":[2,0,1,1,4,0,5,0,0,0,0,0,0,0,0],"split_type":[0,0,0,0,0,0,0,0,0,0,0,0,0,0,0],"sum_hessian":[1.494E3,6.42E2,8.52E2,5.67E2,7.5E1,1.88E2,6.64E2,4.84E2,8.3E1,6.1E1,1.4E1,1.57E2,3.1E1,3.56E2,3.08E2],"tree_param":{"num_deleted":"0","num_feature":"7","num_nodes":"15","size_leaf_vector":"1"}},{"base_weights":[1.7412856E-3,-2.6511245E0,3.76868E-2,-1.0901707E0,-6.111655E0,-3.596502E0,6.742917E-2,-2.0062624E-1,1.9306469E-1,-6.882637E-2,-1.1305625E0,-1.9330947E-1,-7.94236E-1,6.850748E-2,-1.6043024E-2],"categories":[],"categories_nodes":[],"categories_segments":[],"categories_sizes":[],"default_left":[0,0,0,0,0,0,0,0,0,0,0,0,0,0,0],"id":87,"left_children":[1,3,5,7,9,11,13,-1,-1,-1,-1,-1,-1,-1,-1],"loss_changes":[1.4266106E2,1.01371826E2,1.5978249E2,4.538357E1,1.6123238E2,7.1393845E1,2.0628868E2,0E0,0E0,0E0,0E0,0E0,0E0,0E0,0E0],"parents":[2147483647,0,0,1,1,2,2,3,3,4,4,5,5,6,6],"right_children":[2,4,6,8,10,12,14,-1,-1,-1,-1,-1,-1,-1,-1],"split_conditions":[9E0,5.9E0,1.2919324E2,2.9E1,2E1,3.6E1,1.9602304E2,-2.0062624E-1,1.9306469E-1,-6.882637E-2,-1.1305625E0,-1.9330947E-1,-7.94236E-1,6.850748E-2,-1.6043024E-2],"split_indices":[2,4,6,0,0,0,6,0,0,0,0,0,0,0,0],"split_type":[0,0,0,0,0,0,0,0,0,0,0,0,0,0,0],"sum_hessian":[1.494E3,1.9E1,1.475E3,1.4E1,5E0,1.1E1,1.464E3,1.1E1,3E0,3E0,2E0,9E0,2E0,3.94E2,1.07E3],"tree_param":{"num_deleted":"0","num_feature":"7","num_nodes":"15","size_leaf_vector":"1"}},{"base_weights":[1.3482914E-4,-2.6499918E-2,3.5958135E0,4.1003395E-2,-2.0482347E0,4.635498E0,6.1749077E-1,-3.2206438E-3,4.9824578E-1,1.8644134E-2,-6.1341995E-1,2.0344849E-1,6.7278904E-1,7.27679E-2,1.4346314E-2],"categories":[],"categories_nodes":[],"categories_segments":[],"categories_sizes":[],"default_left":[0,0,0,0,0,0,0,0,0,0,0,0,0,0,0],"id":88,"left_children":[1,3,5,7,9,11,13,-1,-1,-1,-1,-1,-1,-1,-1],"loss_changes":[1.4327142E2,2.0274757E2,3.1199295E1,5.2037573E2,4.3942236E2,2.9850922E1,1.0453391E-1,0E0,0E0,0E0,0E0,0E0,0E0,0E0,0E0],"parents":[2147483647,0,0,1,1,2,2,3,3,4,4,5,5,6,6],"right_children":[2,4,6,8,10,12,14,-1,-1,-1,-1,-1,-1,-1,-1],"split_conditions":[1.1E2,9E1,1.12E2,8.4E1,2.5757404E2,8.049845E0,1.11E2,-3.2206438E-3,4.9824578E-1,1.8644134E-2,-6.1341995E-1,2.0344849E-1,6.7278904E-1,7.27679E-2,1.4346314E-2],"split_indices":[0,1,2,1,6,5,1,0,0,0,0,0,0,0,0],"split_type":[0,0,0,0,0,0,0,0,0,0,0,0,0,0,0],"sum_hessian":[1.494E3,1.484E3,1E1,1.437E3,4.7E1,7E0,3E0,1.417E3,2E1,3.1E1,1.6E1,4E0,3E0,2E0,1E0],"tree_param":{"num_deleted":"0","num_feature":"7","num_nodes":"15","size_leaf_vector":"1"}},{"base_weights":[6.987096E-4,-1.0164746E-1,8.9256793E-1,1.6532242E-1,-6.983858E-1,2.7340872E-2,3.6278174E0,1.0553715E-2,8.0162793E-1,-3.7312437E-2,-3.5781333E-1,-7.793053E-2,1.9625105E-1,-2.688079E-1,4.2641637E-1],"categories":[],"categories_nodes":[],"categories_segments":[],"categories_sizes":[],"default_left":[0,0,0,0,0,0,0,0,0,0,0,0,0,0,0],"id":89,"left_children":[1,3,5,7,9,11,13,-1,-1,-1,-1,-1,-1,-1,-1],"loss_changes":[1.3655344E2,2.1391103E2,3.6435904E2,4.3473077E2,3.873833E2,1.8572705E2,1.6016898E2,0E0,0E0,0E0,0E0,0E0,0E0,0E0,0E0],"parents":[2147483647,0,0,1,1,2,2,3,3,4,4,5,5,6,6],